{
    "LearningRate": 5.0000000000000002e-05,
    "loss": 1.8227241554557935e+04,
    "lossAverages": [ 0.0, 1.6072125275797627e+04,
        2.5043441920132231e+04, 3.1911104178434285e+04,
        3.7241355843019592e+04, 4.0886804153931182e+04 ],
    "NowEpoch": 6,
    "USEDATA_NUM": 100,
    "KERNEL1_NUM": 4,
    "KERNEL2_NUM": 8,
    "L1": 0,
    "L2": 0,
    "Kernels1": [
        [
            {
                "type_id": "opencv-matrix",
                "rows": 3,
                "cols": 3,
                "dt": "d",
                "data": [ 1.8032555285830774e+00, 1.8947714555102095e+00,
                    1.9223582001675310e+00, 1.7134336661985869e+00,
                    1.3478592913314109e+00, 1.6024888677796618e+00,
                    1.1130546526087712e+00, 1.8510485157562258e+00,
                    1.0483361847303752e+00 ]
            },
            {
                "type_id": "opencv-matrix",
                "rows": 3,
                "cols": 3,
                "dt": "d",
                "data": [ 1.1090179064775998e+00, 1.2254215703560809e+00,
                    1.5996059143347412e+00, 1.8618227755133590e+00,
                    1.1926068198732616e+00, 1.3103671787563780e+00,
                    1.5877925867689058e+00, 1.6880329987711975e+00,
                    1.7694116831698203e+00 ]
            },
            {
                "type_id": "opencv-matrix",
                "rows": 3,
                "cols": 3,
                "dt": "d",
                "data": [ 1.1982002710031703e+00, 1.1233952251546884e+00,
                    1.9012367424940058e+00, 1.8475270643286572e+00,
                    1.4361794818686968e+00, 1.9956610397405889e+00,
                    1.9237987626974813e+00, 1.5090834114005085e+00,
                    1.2016213838597947e+00 ]
            },
            {
                "type_id": "opencv-matrix",
                "rows": 3,
                "cols": 3,
                "dt": "d",
                "data": [ 1.8771678148734057e+00, 1.7589256179167727e+00,
                    1.7167608114978414e+00, 1.4578275070422180e+00,
                    1.8476719689511063e+00, 1.0683341131218127e+00,
                    1.5473683196619628e+00, 1.1480619034895840e+00,
                    1.0528049730289228e+00 ]
            }
        ]
    ],
    "Kernels2": [
        [
            {
                "type_id": "opencv-matrix",
                "rows": 3,
                "cols": 3,
                "dt": "d",
                "data": [ 1.6679940620941711e+00, 1.0269504131436111e+00,
                    1.2252724363321101e+00, 1.5114449364286326e+00,
                    9.8560102373470748e-01, 1.5481421647168601e+00,
                    1.7703677496473897e+00, 1.4294244540207843e+00,
                    1.6353449715829089e+00 ]
            },
            {
                "type_id": "opencv-matrix",
                "rows": 3,
                "cols": 3,
                "dt": "d",
                "data": [ 1.2152146042828313e+00, 9.3938519078204019e-01,
                    1.4186917933313925e+00, 9.4481037018958169e-01,
                    1.0790006325605088e+00, 1.3054656744766007e+00,
                    1.4168566604065473e+00, 1.3974726801469264e+00,
                    1.8778974744842387e+00 ]
            },
            {
                "type_id": "opencv-matrix",
                "rows": 3,
                "cols": 3,
                "dt": "d",
                "data": [ 1.8706382230673722e+00, 1.7095139033232736e+00,
                    1.7248653177270021e+00, 1.8385688573829306e+00,
                    1.7673670891962865e+00, 1.1202516895826755e+00,
                    1.4791001483529413e+00, 1.2493271950899338e+00,
                    1.7006698618745855e+00 ]
            },
            {
                "type_id": "opencv-matrix",
                "rows": 3,
                "cols": 3,
                "dt": "d",
                "data": [ 1.8909057798979236e+00, 1.3398013451965924e+00,
                    9.7516487817226727e-01, 1.2069725130609932e+00,
                    1.2410150395369062e+00, 1.5239799148506536e+00,
                    1.2731747459220701e+00, 1.3605800079327417e+00,
                    1.0077684407307939e+00 ]
            },
            {
                "type_id": "opencv-matrix",
                "rows": 3,
                "cols": 3,
                "dt": "d",
                "data": [ 1.2889550436986466e+00, 1.6951140270074401e+00,
                    1.8167328880979463e+00, 1.2537082870959959e+00,
                    1.0919627946611161e+00, 1.8482551410410673e+00,
                    1.7018237308870157e+00, 1.8138752390935917e+00,
                    1.5755388713961611e+00 ]
            },
            {
                "type_id": "opencv-matrix",
                "rows": 3,
                "cols": 3,
                "dt": "d",
                "data": [ 1.6355842542248520e+00, 1.5343213071291992e+00,
                    1.4477143686921905e+00, 1.1469255902422111e+00,
                    1.2428553840644436e+00, 1.1562033344246012e+00,
                    1.8351050627342691e+00, 1.4725809115575386e+00,
                    1.1184971027110160e+00 ]
            },
            {
                "type_id": "opencv-matrix",
                "rows": 3,
                "cols": 3,
                "dt": "d",
                "data": [ 1.7389848970126540e+00, 1.6856442137925298e+00,
                    1.0734047277450891e+00, 9.1232818720634024e-01,
                    1.5972500283068489e+00, 1.6222951775880063e+00,
                    1.2168323707955970e+00, 8.7820653770201840e-01,
                    1.4923899108633605e+00 ]
            },
            {
                "type_id": "opencv-matrix",
                "rows": 3,
                "cols": 3,
                "dt": "d",
                "data": [ 1.7636920691428906e+00, 1.5719575591768662e+00,
                    1.7834607190277898e+00, 1.3922492644351991e+00,
                    1.5861734055074996e+00, 1.5056033021962785e+00,
                    1.6028037742727135e+00, 1.0860952512985809e+00,
                    9.5294333119663754e-01 ]
            }
        ],
        [
            {
                "type_id": "opencv-matrix",
                "rows": 3,
                "cols": 3,
                "dt": "d",
                "data": [ 1.7530435431365421e+00, 9.0606799282495620e-01,
                    1.7262954333790295e+00, 1.1577354695860707e+00,
                    1.0349915887321084e+00, 1.3826414227564481e+00,
                    1.4822044554322960e+00, 1.8247840687028825e+00,
                    1.3565854902267769e+00 ]
            },
            {
                "type_id": "opencv-matrix",
                "rows": 3,
                "cols": 3,
                "dt": "d",
                "data": [ 1.4825313270637273e+00, 9.5021062446737070e-01,
                    1.0220123275232367e+00, 1.2498742898856379e+00,
                    1.5273537316351504e+00, 1.3173212678624056e+00,
                    9.4325807761444624e-01, 1.0735895509408633e+00,
                    1.7381438343376501e+00 ]
            },
            {
                "type_id": "opencv-matrix",
                "rows": 3,
                "cols": 3,
                "dt": "d",
                "data": [ 9.9151122214702092e-01, 1.7226425984221845e+00,
                    1.7454848131889975e+00, 1.4419102270591888e+00,
                    1.7086045197227404e+00, 1.3810128062973688e+00,
                    1.8709982429993968e+00, 1.5648584732912971e+00,
                    1.1302838127827877e+00 ]
            },
            {
                "type_id": "opencv-matrix",
                "rows": 3,
                "cols": 3,
                "dt": "d",
                "data": [ 1.5338597747871443e+00, 1.6362384778796137e+00,
                    1.0752840647607018e+00, 9.2334800034637232e-01,
                    1.4594502951981940e+00, 1.4924823250300887e+00,
                    1.7489683694408744e+00, 1.2936384570034842e+00,
                    1.7862189528491608e+00 ]
            },
            {
                "type_id": "opencv-matrix",
                "rows": 3,
                "cols": 3,
                "dt": "d",
                "data": [ 1.3240174902648287e+00, 1.8178998735919107e+00,
                    1.6337031724989028e+00, 1.8857581939343062e+00,
                    1.2425212714076939e+00, 1.0426460576071541e+00,
                    1.4706832298947832e+00, 1.7097074953371934e+00,
                    1.0246703068873864e+00 ]
            },
            {
                "type_id": "opencv-matrix",
                "rows": 3,
                "cols": 3,
                "dt": "d",
                "data": [ 1.2749896745735672e+00, 1.1470356926685810e+00,
                    1.1883046469413414e+00, 1.4897341485840592e+00,
                    1.8726052879996835e+00, 1.6649345879432487e+00,
                    1.1533576870526132e+00, 1.1654769780769383e+00,
                    1.7038224118282086e+00 ]
            },
            {
                "type_id": "opencv-matrix",
                "rows": 3,
                "cols": 3,
                "dt": "d",
                "data": [ 1.4777876008144342e+00, 1.4549548653214399e+00,
                    1.6546096278853488e+00, 1.8397666677375148e+00,
                    1.2614024914179278e+00, 1.3062990588820713e+00,
                    1.7759087928835020e+00, 1.5762107998847168e+00,
                    1.2924914434130006e+00 ]
            },
            {
                "type_id": "opencv-matrix",
                "rows": 3,
                "cols": 3,
                "dt": "d",
                "data": [ 1.0683599690211909e+00, 1.4863251982416152e+00,
                    1.4723534069359430e+00, 1.3459197621627519e+00,
                    9.9070194151436497e-01, 1.2090552949452991e+00,
                    1.8348922445942124e+00, 1.7655079642026539e+00,
                    1.2965927250450651e+00 ]
            }
        ],
        [
            {
                "type_id": "opencv-matrix",
                "rows": 3,
                "cols": 3,
                "dt": "d",
                "data": [ 1.7807816084934274e+00, 1.5941263445907525e+00,
                    1.0341133059468666e+00, 1.3148236466155159e+00,
                    1.7838350421503106e+00, 1.6434500756942716e+00,
                    1.8878923561018639e+00, 1.2608859903079872e+00,
                    1.3671838964141652e+00 ]
            },
            {
                "type_id": "opencv-matrix",
                "rows": 3,
                "cols": 3,
                "dt": "d",
                "data": [ 1.8645960806973854e+00, 1.6920596994368557e+00,
                    1.1981327364385876e+00, 1.8468701985610827e+00,
                    1.3155688650802748e+00, 1.3575651067909382e+00,
                    1.5436276842536609e+00, 1.0831987008779398e+00,
                    1.5736383570420363e+00 ]
            },
            {
                "type_id": "opencv-matrix",
                "rows": 3,
                "cols": 3,
                "dt": "d",
                "data": [ 1.3918689084992379e+00, 1.4506618385927601e+00,
                    1.0784194662793101e+00, 1.2774114402522265e+00,
                    8.6893800535273880e-01, 1.3487463108563400e+00,
                    1.1343483730521657e+00, 1.2267334495678783e+00,
                    1.5417283739044931e+00 ]
            },
            {
                "type_id": "opencv-matrix",
                "rows": 3,
                "cols": 3,
                "dt": "d",
                "data": [ 1.1419620291945862e+00, 1.4922068236225585e+00,
                    1.6545940104762478e+00, 1.2564287630828908e+00,
                    1.4882068578796674e+00, 1.6949798434094452e+00,
                    1.1744051197642325e+00, 1.8236069587632979e+00,
                    1.3099188835184696e+00 ]
            },
            {
                "type_id": "opencv-matrix",
                "rows": 3,
                "cols": 3,
                "dt": "d",
                "data": [ 1.1415239342815180e+00, 1.0790899632620932e+00,
                    1.3396155427577421e+00, 1.5049708691340380e+00,
                    8.8980979623702305e-01, 1.1436077274741829e+00,
                    1.0959094342268612e+00, 9.0937414730897537e-01,
                    1.0141339189096763e+00 ]
            },
            {
                "type_id": "opencv-matrix",
                "rows": 3,
                "cols": 3,
                "dt": "d",
                "data": [ 1.5433532901879350e+00, 1.4251710355294969e+00,
                    1.6880667545464110e+00, 1.7252928895159398e+00,
                    1.3515944801728725e+00, 1.3219170658806720e+00,
                    1.0427883994755978e+00, 1.3397242577279096e+00,
                    1.3526659839286805e+00 ]
            },
            {
                "type_id": "opencv-matrix",
                "rows": 3,
                "cols": 3,
                "dt": "d",
                "data": [ 1.5351721823510196e+00, 1.0761793575021215e+00,
                    1.1586257755599505e+00, 1.1286644798385885e+00,
                    1.4745199553710067e+00, 1.2308928759003135e+00,
                    1.0350930013128152e+00, 1.1945416697715630e+00,
                    1.8025774172370317e+00 ]
            },
            {
                "type_id": "opencv-matrix",
                "rows": 3,
                "cols": 3,
                "dt": "d",
                "data": [ 1.6870246072163444e+00, 1.4713468318095042e+00,
                    9.8508180166586268e-01, 1.8004027970117167e+00,
                    1.0185526849232305e+00, 9.6284260599147165e-01,
                    1.1285859536137397e+00, 9.2283100898523773e-01,
                    1.3947142201297029e+00 ]
            }
        ],
        [
            {
                "type_id": "opencv-matrix",
                "rows": 3,
                "cols": 3,
                "dt": "d",
                "data": [ 1.5162892398866363e+00, 1.2237293449305708e+00,
                    1.7794272516937830e+00, 1.3513690548731625e+00,
                    9.9033961583305852e-01, 1.5825057157732862e+00,
                    1.0176926392240508e+00, 1.4244058527896655e+00,
                    1.8221879346061112e+00 ]
            },
            {
                "type_id": "opencv-matrix",
                "rows": 3,
                "cols": 3,
                "dt": "d",
                "data": [ 1.4137679975636654e+00, 1.8003868163962549e+00,
                    1.5532016486902955e+00, 9.4633415089062234e-01,
                    1.3872206545057948e+00, 1.2339328170324333e+00,
                    1.8133823639074216e+00, 1.1483647768920517e+00,
                    1.7823734969091236e+00 ]
            },
            {
                "type_id": "opencv-matrix",
                "rows": 3,
                "cols": 3,
                "dt": "d",
                "data": [ 1.0869004924209151e+00, 1.8469190966431561e+00,
                    1.4386820315311257e+00, 1.3798314298048679e+00,
                    1.7252890711052296e+00, 1.4107680162449592e+00,
                    1.8654556182938751e+00, 1.6599023188898294e+00,
                    1.5200302684428679e+00 ]
            },
            {
                "type_id": "opencv-matrix",
                "rows": 3,
                "cols": 3,
                "dt": "d",
                "data": [ 1.4144799027003125e+00, 1.5266374833528589e+00,
                    1.3309749844145935e+00, 1.0094243285326310e+00,
                    9.7457790857336579e-01, 1.5698622784222285e+00,
                    1.5888038913725029e+00, 1.1790014525510750e+00,
                    1.4417887639676921e+00 ]
            },
            {
                "type_id": "opencv-matrix",
                "rows": 3,
                "cols": 3,
                "dt": "d",
                "data": [ 1.1779365205659267e+00, 1.1341870315169764e+00,
                    1.8573599669230101e+00, 1.1849110091482375e+00,
                    9.3505204428766941e-01, 1.7830247316893097e+00,
                    1.6898212352395816e+00, 1.4462104516468004e+00,
                    1.2816656481968962e+00 ]
            },
            {
                "type_id": "opencv-matrix",
                "rows": 3,
                "cols": 3,
                "dt": "d",
                "data": [ 9.8828405278276554e-01, 9.2604900385667366e-01,
                    1.7462058233826825e+00, 1.4043678225687641e+00,
                    1.8686727851895177e+00, 1.1123459257629498e+00,
                    9.0384438509978549e-01, 1.4100544113035443e+00,
                    1.0577719921883824e+00 ]
            },
            {
                "type_id": "opencv-matrix",
                "rows": 3,
                "cols": 3,
                "dt": "d",
                "data": [ 1.0400429522934642e+00, 1.1045153132540619e+00,
                    1.0960132253573442e+00, 1.2793850866622332e+00,
                    1.1736982701241598e+00, 1.7793219303686374e+00,
                    1.4374846024165462e+00, 1.4172013826765586e+00,
                    1.5293976395609492e+00 ]
            },
            {
                "type_id": "opencv-matrix",
                "rows": 3,
                "cols": 3,
                "dt": "d",
                "data": [ 1.3603978845985587e+00, 1.5713948928332886e+00,
                    1.6228845273904735e+00, 1.0803294673803603e+00,
                    1.4904704824064812e+00, 1.1821859790421596e+00,
                    1.2820551212850364e+00, 1.6070975513137740e+00,
                    1.0129960182815532e+00 ]
            }
        ]
    ],
    "Conv1Bias": [
        [ -8.7096830137455268e-07, -9.9363569487930003e-07,
            -8.3989280430530894e-07, -8.7836093698833392e-07 ],
        [ -4.6160446109947241e-07, -3.8275066297169801e-07,
            -3.9162860582620874e-07, -4.2668385242122965e-07 ],
        [ -1.8163643284813089e-07, -1.3513289668998096e-07,
            -1.4296481197540451e-07, -1.6366496923915880e-07 ],
        [ -1.1752755174556341e-06, -1.1306987507682290e-06,
            -1.1686969923409757e-06, -9.9949959167262063e-07 ],
        [ -2.8632088906890346e-07, -2.6783805126118316e-07,
            -2.7224221037575840e-07, -2.8254518383768053e-07 ],
        [ -6.5491110883353836e-07, -8.1415166923329372e-07,
            -8.1749374990214514e-07, -8.5219442939608614e-07 ],
        [ -1.1083779155498107e-06, -1.3695360372887323e-06,
            -1.3847114297716069e-06, -9.9763921886538979e-07 ],
        [ -1.0940849426365398e-06, -1.0368028320402443e-06,
            -1.0650607243177058e-06, -9.9032447608812946e-07 ],
        [ -4.5934197127874492e-07, -4.1745155675556779e-07,
            -4.2163119997330794e-07, -4.1639224862232139e-07 ],
        [ -6.1989919869405545e-07, -4.9515622026887022e-07,
            -6.0239760800601272e-07, -5.9192410161939779e-07 ],
        [ -1.1485682871256461e-06, -8.0161741125559688e-07,
            -8.0708167453367489e-07, -1.0522255880340125e-06 ],
        [ -2.7797995212397067e-07, -2.5643230244390129e-07,
            -2.6062923600854202e-07, -2.5537901700621567e-07 ],
        [ -1.7535944760703405e-06, -1.5669354375088263e-06,
            -1.5692640927567226e-06, -1.5875502217249982e-06 ],
        [ -8.1133945161058733e-07, -6.8634901031637730e-07,
            -7.5022122964850289e-07, -7.6206303643416382e-07 ],
        [ -3.1385294306998642e-07, -2.8432218431956475e-07,
            -2.0792427610444353e-07, -2.1369552696607447e-07 ],
        [ -7.0203870147792130e-07, -5.4996530385249382e-07,
            -6.5114628068340964e-07, -6.2996406799709086e-07 ],
        [ -9.2452215934535430e-07, -7.2886803939133867e-07,
            -7.3224603176942351e-07, -8.3034070982241413e-07 ],
        [ -1.0100673067467314e-06, -1.0876930269844459e-06,
            -9.6228971322586932e-07, -9.2646389674324478e-07 ],
        [ -1.5502914002632370e-07, -1.3169372615772733e-07,
            -1.3789849913979796e-07, -1.4782477932524229e-07 ],
        [ -2.2952322283022948e-07, -2.4378908221018333e-07,
            -2.4520451342244282e-07, -2.2586253234287593e-07 ],
        [ -7.7052718223218168e-07, -6.9966067989510792e-07,
            -7.1043679796340085e-07, -7.0085728779617529e-07 ],
        [ -8.3389031815697755e-07, -7.3079009092223889e-07,
            -7.5963231318271666e-07, -7.7114137299580376e-07 ],
        [ -3.5204204007976648e-07, -3.0227304104327659e-07,
            -2.4951025662148559e-07, -2.9541767454469990e-07 ],
        [ -1.1439450701677354e-06, -1.0630647646734902e-06,
            -1.1044894964483193e-06, -1.0462627166181349e-06 ],
        [ -1.0054031190921315e-06, -8.8868570985229503e-07,
            -8.8307688699894711e-07, -8.8980803835067638e-07 ],
        [ -1.1147949971708447e-06, -1.0429830570318845e-06,
            -1.0582404525335982e-06, -1.0173277960885340e-06 ],
        [ -1.9997189273064471e-07, -1.3609989350227343e-07,
            -1.3578872241029950e-07, -1.7912866261278890e-07 ],
        [ -1.8553226287290798e-06, -1.7079084075505162e-06,
            -1.7060793578644831e-06, -1.6772675639596432e-06 ],
        [ -2.1138781412505968e-06, -1.9175064295448101e-06,
            -1.9842078017668810e-06, -1.8812897963134908e-06 ],
        [ -3.9244555947408718e-07, -3.5855569865721928e-07,
            -3.7226929800315338e-07, -3.4818119836410986e-07 ],
        [ -9.8469852498813023e-07, -9.0356260599099795e-07,
            -9.1474466788442727e-07, -9.0431620187734060e-07 ],
        [ -1.3270770310108507e-06, -1.6808515772693491e-06,
            -2.1979519226822658e-06, -1.7147173302827966e-06 ],
        [ -3.0881239502511329e-07, -2.2124461495277831e-07,
            -2.3727590700580389e-07, -2.9732988765974194e-07 ],
        [ -3.5993891063394264e-07, -3.2568599978364136e-07,
            -4.2823368916505348e-07, -3.8544327712479852e-07 ],
        [ -1.7802384856266994e-06, -1.6234537062633394e-06,
            -1.7263849072229529e-06, -1.6081379380994867e-06 ],
        [ -3.3296178068139823e-07, -3.4534754281742045e-07,
            -4.0827612625489617e-07, -3.0925187309166433e-07 ],
        [ -8.9283852906251522e-07, -1.4209757830934794e-06,
            -8.2725584879035843e-07, -8.2742210779275291e-07 ],
        [ -1.2865177526179860e-06, -1.1978980340349332e-06,
            -1.2235602860101853e-06, -1.1694804020118790e-06 ],
        [ -4.3458589687444465e-07, -2.1983744996812382e-07,
            -2.6680891950973367e-07, -4.2854541174851480e-07 ],
        [ -8.8277478942836750e-07, -8.0584918852058126e-07,
            -8.3495269014656916e-07, -8.2383615302249605e-07 ],
        [ -9.1901075219404884e-07, -8.4513419653553661e-07,
            -5.2186456809042123e-07, -8.4586075097499374e-07 ],
        [ -1.4775022237526959e-06, -1.3832353335554178e-06,
            -1.4403671330994051e-06, -1.3366727467978158e-06 ],
        [ -1.2240815700331874e-07, -1.0507633489996211e-07,
            -1.1003804704256546e-07, -1.3576488115224175e-07 ],
        [ -3.5075266507456422e-07, -3.3783730790344940e-07,
            -3.3532440687977787e-07, -3.4234321450841850e-07 ],
        [ -4.9853776297061722e-07, -5.8962591013744148e-07,
            -6.0851802589140597e-07, -3.4093667709493804e-07 ],
        [ -5.0389009884114790e-07, -4.6138249685683838e-07,
            -6.0935332358428674e-07, -5.9942432305342339e-07 ],
        [ -6.3176309029253508e-07, -6.1542896810785304e-07,
            -4.7268058983520301e-07, -5.9616781891751588e-07 ],
        [ -5.5476996183019801e-07, -4.7276631897989605e-07,
            -4.6540379489863385e-07, -5.7462392433541238e-07 ],
        [ -2.3171443133480212e-07, -2.1193821057331305e-07,
            -2.1898404174599331e-07, -2.0654542199396902e-07 ],
        [ -1.0917302704921431e-06, -9.6553873203160281e-07,
            -9.8940147708308437e-07, -1.4230322694314291e-06 ],
        [ -2.9520359725474672e-07, -2.9670743502877517e-07,
            -2.7829788574748657e-07, -2.7047253688259743e-07 ],
        [ -8.7121803198802782e-07, -7.1599508200929773e-07,
            -7.5287855706903685e-07, -8.0590557865440145e-07 ],
        [ -5.1405216080507938e-07, -4.5080946098824387e-07,
            -3.7908497255855223e-07, -3.5473446111947795e-07 ],
        [ -2.8263476503830210e-07, -2.8230918525428522e-07,
            -2.8092405982929106e-07, -2.9933215347511782e-07 ],
        [ -5.4204277994244700e-07, -5.1085114104132330e-07,
            -5.1643939132425607e-07, -4.8989702477571253e-07 ],
        [ -2.2886804554170343e-06, -2.1409158477366909e-06,
            -2.1518886982977918e-06, -2.0884743190942922e-06 ],
        [ -7.0407735731659454e-07, -6.0463976440182093e-07,
            -6.3395379618722677e-07, -6.3924052214252196e-07 ],
        [ -4.4118525406638482e-07, -2.7491842760233369e-07,
            -3.0835715723679240e-07, -3.9554009299467653e-07 ],
        [ -7.4103569128878525e-07, -6.8824667092984982e-07,
            -7.0180164277544154e-07, -6.8181987890303896e-07 ],
        [ -1.3282902090549276e-06, -2.0488862407217471e-06,
            -2.0962528944318447e-06, -1.2013345593008294e-06 ],
        [ -4.9947504833430543e-07, -5.4957008555912466e-07,
            -5.2721767615292160e-07, -4.4482810663542215e-07 ],
        [ -3.2418212167841299e-07, -3.0231633245085071e-07,
            -3.1724581660533207e-07, -3.0082242317703027e-07 ],
        [ -9.6301891159526196e-07, -1.2602585945333855e-06,
            -1.2821689382664242e-06, -8.9011719692520675e-07 ],
        [ -6.8889032693033169e-07, -7.9039374960818402e-07,
            -1.1366322500751114e-06, -1.1146043926450805e-06 ],
        [ -6.2478711224283935e-07, -6.1156437894008773e-07,
            -6.0789651320307232e-07, -5.7268824531938464e-07 ],
        [ -3.7731791487267406e-07, -3.3196522027660231e-07,
            -3.3910863104488717e-07, -3.4959645927265374e-07 ],
        [ -6.3036428313775176e-07, -5.4483555898437614e-07,
            -5.7563822585314853e-07, -5.8678081175187885e-07 ],
        [ -1.0667992551400383e-06, -9.8799494203761861e-07,
            -1.0101231578586421e-06, -9.7572783226034700e-07 ],
        [ -4.8156529931629438e-09, -4.0154925413071868e-09,
            -4.6249646210596217e-09, -1.0915123775603066e-08 ],
        [ -1.9430390223454194e-06, -1.8570685516648564e-06,
            -1.9273239778623484e-06, -1.7757069272023812e-06 ],
        [ -1.3334127440471432e-06, -1.0787627674822316e-06,
            -1.1957983455518469e-06, -1.2187151083907048e-06 ],
        [ -5.4455608806834783e-07, -4.2865997789085716e-07,
            -4.9247047119278944e-07, -4.9320293951188400e-07 ],
        [ -2.2013252648686004e-07, -2.9067147495520921e-07,
            -2.8689722096768785e-07, -1.7680736775360816e-07 ],
        [ -6.7344562928694809e-07, -7.2691957278763469e-07,
            -8.7210251991780627e-07, -6.3794431996665677e-07 ],
        [ -7.0435953397103914e-07, -1.0020492107561733e-06,
            -1.0156668654935357e-06, -7.0086489251369303e-07 ],
        [ -1.0971117581197244e-06, -9.8469683384147548e-07,
            -8.0257755957548156e-07, -9.9508061815032167e-07 ],
        [ -5.6124978816626410e-07, -5.1088443565912528e-07,
            -5.2853523092668634e-07, -5.1726528373311280e-07 ],
        [ -1.8703605786359530e-06, -1.7369682054749104e-06,
            -1.7707256192407517e-06, -1.2197923676018837e-06 ],
        [ -1.1245349310503540e-06, -1.0548508855636762e-06,
            -1.0734473089593811e-06, -1.0241147541773658e-06 ],
        [ -6.8930566716028534e-07, -6.6985912538709161e-07,
            -6.4418916806879602e-07, -6.2121032806561907e-07 ],
        [ -3.6489319013561544e-07, -3.2669407356499906e-07,
            -3.3778789149685262e-07, -3.3625905199193775e-07 ],
        [ -1.1403160379359136e-06, -1.0317748948954184e-06,
            -1.0729351452476704e-06, -1.0474530229608583e-06 ],
        [ -1.2867445974732356e-06, -1.1706725755210868e-06,
            -1.1849925980437640e-06, -1.1497552679915931e-06 ],
        [ -5.2888554833282499e-07, -4.7620442817997175e-07,
            -4.9836828453223019e-07, -5.3055313673278831e-07 ],
        [ -1.6807842335382877e-07, -1.6499595002595868e-07,
            -1.6454585180703164e-07, -1.4149462409097877e-07 ],
        [ -1.0159046773816396e-06, -8.1436216537748496e-07,
            -9.4864022280358695e-07, -9.2900872218081020e-07 ],
        [ -6.4155111531279491e-07, -7.5275503155175837e-07,
            -5.7523205084531932e-07, -5.8325821339911983e-07 ],
        [ -6.3488902183572562e-07, -5.9717052721737375e-07,
            -5.9902598307400868e-07, -5.8106976384954486e-07 ],
        [ -2.0577640568639181e-07, -1.5770551666554257e-07,
            -1.5223703156873029e-07, -2.0153492072533820e-07 ],
        [ -5.9490790779621373e-07, -5.8288169106203652e-07,
            -5.8455909645419266e-07, -5.0200837321627611e-07 ],
        [ -6.7270296755623161e-07, -6.0002749944914482e-07,
            -6.2491390136400443e-07, -6.2871933570190651e-07 ],
        [ -8.5790226267508835e-07, -8.4641761242888645e-07,
            -7.8540673976600654e-07, -7.7382863598634701e-07 ],
        [ -1.4216161185503915e-07, -1.8246796640332384e-07,
            -1.9294791746171973e-07, -1.1308024690594242e-07 ],
        [ -8.3859519017622767e-07, -6.6162755230400176e-07,
            -6.7137551474980823e-07, -7.7596757442049105e-07 ],
        [ -1.8572894747443327e-06, -1.6187702161228899e-06,
            -1.6764974092129487e-06, -1.6831100132755593e-06 ],
        [ -1.2457580626245044e-06, -1.1042207602937714e-06,
            -1.1325108948568489e-06, -1.1725230645255573e-06 ],
        [ -3.8574067816254719e-07, -3.7230666108563290e-07,
            -3.8152994145017414e-07, -3.4596453689160138e-07 ],
        [ -9.8728090233331702e-07, -9.4310079459001884e-07,
            -1.1018238497230453e-06, -8.9962889205429102e-07 ],
        [ -7.7802868663822332e-07, -5.7602589428700492e-07,
            -7.7397895968650097e-07, -6.9598297592641916e-07 ],
        [ -7.6892294513680818e-07, -7.1269057856578539e-07,
            -7.3080162166024155e-07, -6.8608324499301079e-07 ]
    ],
    "Conv2Bias": [
        [ -4.7251141245067095e-03, -6.8410558043548739e-03,
            -6.6038952685897314e-03, -5.6380699629678026e-03,
            -5.5649299371182152e-03, -6.0005202413970296e-03,
            -6.1687525734162784e-03, -5.9327854373455126e-03 ],
        [ -6.0959784141677168e-03, -5.8253578763683440e-03,
            -7.3775075585318962e-03, -5.6652197965041552e-03,
            -5.4771689645744682e-03, -5.3666073487163221e-03,
            -5.1900333719470245e-03, -5.5242681595375816e-03 ],
        [ -2.0010159900528605e-03, -1.9327952808664687e-03,
            -2.2106597286597951e-03, -1.7706395978054751e-03,
            -1.6722504962785861e-03, -1.7430773949723291e-03,
            -1.9010523509770932e-03, -1.9255379750207997e-03 ],
        [ -4.8005416447576910e-03, -5.8199181386709310e-03,
            -6.2893070918707376e-03, -4.7526741091543038e-03,
            -5.1996055820266738e-03, -5.6235770424006440e-03,
            -5.0406658847957607e-03, -5.5007615425989569e-03 ],
        [ -2.6159103211364099e-03, -2.2287236522888338e-03,
            -2.3274837596919578e-03, -1.9838294807118977e-03,
            -2.1340684108677450e-03, -2.0884506994230771e-03,
            -2.2324329461370601e-03, -2.1880542763025681e-03 ],
        [ -5.4495554827316897e-03, -5.9460592852353398e-03,
            -6.2423284418906084e-03, -4.9764544131264835e-03,
            -5.3021691852909265e-03, -4.6440330101157395e-03,
            -6.1068008429465579e-03, -5.4731560353651690e-03 ],
        [ -4.8905962970211001e-03, -6.3901114334797386e-03,
            -5.5175917590202994e-03, -5.3320267956727362e-03,
            -5.4194361975508365e-03, -5.4779541134309471e-03,
            -5.5028457506073412e-03, -5.7326819066504863e-03 ],
        [ -1.0516362056526837e-02, -1.0065785097835178e-02,
            -1.0682899182869379e-02, -8.9868876335124706e-03,
            -9.9126313270320125e-03, -9.4626386762971613e-03,
            -9.7515059070615411e-03, -1.0073037078044984e-02 ],
        [ -2.4419448060927443e-03, -2.3440392203257529e-03,
            -2.3862937148693493e-03, -2.0318376630889638e-03,
            -2.2148245364591685e-03, -2.1296007743788043e-03,
            -2.1436975227283462e-03, -2.1695280250007346e-03 ],
        [ -3.1493418526783125e-03, -3.1711963222907777e-03,
            -3.7591702568332795e-03, -3.3438194515401790e-03,
            -2.7295182037985191e-03, -2.6827009782241372e-03,
            -2.8212362249666889e-03, -3.0125182479607436e-03 ],
        [ -6.3146428370670533e-03, -8.0657769978110718e-03,
            -7.8239359508563144e-03, -6.0277279771577845e-03,
            -6.6672876598723469e-03, -6.7168298639952700e-03,
            -7.5496349380986425e-03, -7.2253061402856832e-03 ],
        [ -2.0950396074208137e-03, -1.9376060789057016e-03,
            -2.0116888758884791e-03, -1.6488790410143150e-03,
            -1.8111635136698605e-03, -1.9068235652626607e-03,
            -1.7052216806897824e-03, -1.7146009729366869e-03 ],
        [ -8.4090167315451769e-03, -1.0411706324652693e-02,
            -1.1081544316800583e-02, -8.3764867972668262e-03,
            -9.3331272512301462e-03, -8.8311166898662977e-03,
            -1.0190293082519116e-02, -9.3207678879239121e-03 ],
        [ -4.1340602639743313e-03, -4.1366544108215704e-03,
            -4.6708515739898385e-03, -3.4680889659892415e-03,
            -3.9019530702007806e-03, -4.0399759272185384e-03,
            -3.6554097678193967e-03, -5.1595436785741413e-03 ],
        [ -2.5114517223908824e-03, -2.5737002709393625e-03,
            -2.7416477843286171e-03, -2.2183397119112940e-03,
            -2.2743123588164615e-03, -2.2481616944397625e-03,
            -2.5369194516251369e-03, -2.3368996046854115e-03 ],
        [ -3.2010453185326838e-03, -3.5102018282005139e-03,
            -3.3865297766700019e-03, -2.4913699591520072e-03,
            -3.2846214951828415e-03, -2.7974785056435725e-03,
            -2.5778381770689331e-03, -2.8578981200416912e-03 ],
        [ -4.4479471187565340e-03, -4.4241442907750434e-03,
            -5.0502633544429933e-03, -3.6673878752094720e-03,
            -4.1932758723711864e-03, -3.7389319900675696e-03,
            -4.7613185343333168e-03, -4.4097526577294753e-03 ],
        [ -6.6146558718223700e-03, -7.7755321543565830e-03,
            -7.6771838838966674e-03, -6.1972366911201855e-03,
            -6.8235598243462344e-03, -6.6064638529724018e-03,
            -6.6547239694316257e-03, -7.1830816742856907e-03 ],
        [ -1.4488962014459431e-03, -1.3006964285940995e-03,
            -1.3546889216974518e-03, -1.1131725737137754e-03,
            -9.7162176707164555e-04, -1.2751943692373288e-03,
            -1.1527822255394454e-03, -1.3312018176294686e-03 ],
        [ -1.5935474730406703e-03, -1.7123515436731551e-03,
            -1.6576488193278361e-03, -1.4087609805625769e-03,
            -1.4640133754837820e-03, -1.3668155425620222e-03,
            -1.4788316167571613e-03, -1.5823290798365050e-03 ],
        [ -5.6813806646590585e-03, -5.8524160012667992e-03,
            -6.5163933414543185e-03, -5.2422049412046423e-03,
            -5.0389432056935895e-03, -4.9292204690077604e-03,
            -5.7424802160139492e-03, -5.4553275426018812e-03 ],
        [ -6.7357924285434186e-03, -6.3083450238522552e-03,
            -8.6565467295683894e-03, -6.2249885478026946e-03,
            -6.4241055274533859e-03, -6.6222137298194757e-03,
            -6.5388075669546072e-03, -6.2216017700455475e-03 ],
        [ -1.7038631391801346e-03, -1.3104351011771697e-03,
            -1.5010895368539532e-03, -1.1407213995988387e-03,
            -1.2108257964425766e-03, -1.1397455391638685e-03,
            -1.2826977239122999e-03, -1.2496345688952784e-03 ],
        [ -4.4978278906708273e-03, -5.6355836251548875e-03,
            -6.0917950674452383e-03, -4.5979649736564657e-03,
            -5.0472824606681939e-03, -5.4501015591972438e-03,
            -4.8937667554295851e-03, -5.3310112068651249e-03 ],
        [ -6.8927994287481826e-03, -7.4279698277960960e-03,
            -8.4794959212044687e-03, -6.1745997396041386e-03,
            -6.5194563116461471e-03, -7.1668329749753268e-03,
            -7.2143626041527098e-03, -7.8436439924865591e-03 ],
        [ -1.1036133262684026e-02, -1.0228664024043698e-02,
            -1.1689743093828165e-02, -7.8621856051337077e-03,
            -9.6210914100046101e-03, -9.1938621639352305e-03,
            -9.6812249213181056e-03, -9.1848490080552962e-03 ],
        [ -1.5939181180884645e-03, -1.3154726135131598e-03,
            -1.7552156190629811e-03, -1.1578636266619529e-03,
            -1.1342699248977493e-03, -1.0507656592378008e-03,
            -1.2268532214976943e-03, -1.2837879077221594e-03 ],
        [ -1.1290886349295056e-02, -1.4182701848456727e-02,
            -1.3446783371193195e-02, -1.0913920553457031e-02,
            -1.2792079961456222e-02, -1.2721849489884588e-02,
            -1.4084490704308457e-02, -1.2804610449477449e-02 ],
        [ -9.6908296422368867e-03, -9.2333665047096489e-03,
            -9.1145492943983976e-03, -8.7201424138033650e-03,
            -8.4294503693899681e-03, -6.8531768238085187e-03,
            -8.8738635976605765e-03, -8.7282002601059266e-03 ],
        [ -1.8092578658829371e-03, -1.7943948919083043e-03,
            -1.5914994421858553e-03, -1.4078177757700944e-03,
            -1.4561941306499274e-03, -1.4342812865144965e-03,
            -1.2410651511517883e-03, -1.8058300095947480e-03 ],
        [ -5.7825776402044967e-03, -6.5576678139009940e-03,
            -7.3878371455180876e-03, -5.5251070161110435e-03,
            -6.1170067371379457e-03, -5.7048307967904784e-03,
            -6.2892229568768804e-03, -6.1539923667318234e-03 ],
        [ -8.4115696876741770e-03, -9.3830085889963482e-03,
            -1.0100149582018334e-02, -7.7346475842120866e-03,
            -8.4170181294593704e-03, -7.6062603809597751e-03,
            -8.9429247129324853e-03, -9.0864899626272207e-03 ],
        [ -2.5576384089726818e-03, -1.8794991402036371e-03,
            -2.2220011494839178e-03, -1.6820878295059373e-03,
            -2.0731276836061571e-03, -2.0345829959418551e-03,
            -2.0389981978631683e-03, -2.3050913811641493e-03 ],
        [ -2.2013971277708073e-03, -2.3538963674953049e-03,
            -2.4895828363348878e-03, -2.0341328322544452e-03,
            -2.1660523889191338e-03, -2.0743815567457447e-03,
            -2.0045235810670888e-03, -2.3884597406481408e-03 ],
        [ -5.9715204079250368e-03, -7.8854248035674073e-03,
            -8.8011675286398076e-03, -6.6929507301800324e-03,
            -6.5290526858049524e-03, -7.9447887077834269e-03,
            -6.5405790202645812e-03, -7.7405930195368067e-03 ],
        [ -2.7544286730240559e-03, -2.4738245573596392e-03,
            -2.8203620715004782e-03, -2.1892471625640452e-03,
            -2.6427248167494831e-03, -2.4443342428349633e-03,
            -2.4128438108567437e-03, -2.4463573009058789e-03 ],
        [ -5.6580880273652684e-03, -6.1385589316709016e-03,
            -6.5144357472771038e-03, -5.1044820834659907e-03,
            -5.1576676042450658e-03, -6.1995933390664865e-03,
            -6.0818342366972897e-03, -6.5614397823588969e-03 ],
        [ -7.5831318389242234e-03, -8.2018476652859443e-03,
            -9.4657505291142266e-03, -7.3576695276767606e-03,
            -6.8859666218159653e-03, -7.9350386745494338e-03,
            -7.0160380403897467e-03, -8.1333931102405121e-03 ],
        [ -2.8214409703345277e-03, -2.7320034021404123e-03,
            -2.0972242586060836e-03, -2.1693508377773935e-03,
            -2.3738784431910969e-03, -2.1715148784768970e-03,
            -2.1927201968735747e-03, -2.3180236357772371e-03 ],
        [ -4.3687676203704303e-03, -4.3829091230090352e-03,
            -5.2222208352609668e-03, -3.5146086038806367e-03,
            -4.4392643667198837e-03, -4.7739971756867320e-03,
            -4.7260995318231230e-03, -5.2539502201143680e-03 ],
        [ -3.2990054527661820e-03, -3.2570812491567749e-03,
            -3.7611213685307086e-03, -2.7933836609173868e-03,
            -2.7787735807587774e-03, -2.9060952157925132e-03,
            -3.0157570310469684e-03, -3.2135133405899888e-03 ],
        [ -7.2682439009164844e-03, -7.7778476962794760e-03,
            -8.5721877650003758e-03, -7.1415565149372676e-03,
            -7.2659320337665305e-03, -7.4748935796774075e-03,
            -6.9868595198429168e-03, -8.1621033869121971e-03 ],
        [ -1.3771441022807679e-03, -9.4948141934415484e-04,
            -7.3268551053492245e-04, -6.8545946727117404e-04,
            -7.4033344487347088e-04, -7.3213338758438076e-04,
            -8.4517969691370106e-04, -9.5594632043344936e-04 ],
        [ -1.6055693896847288e-03, -1.8514206166064130e-03,
            -1.8921598147351854e-03, -1.6057670656845998e-03,
            -1.6616407178864912e-03, -1.5849952277543430e-03,
            -1.6444287528657572e-03, -1.8861145929304341e-03 ],
        [ -3.0317769701594215e-03, -3.3475869568380056e-03,
            -3.5149443621367840e-03, -2.9364864530828849e-03,
            -2.9174976204867343e-03, -2.6896074057739801e-03,
            -3.2791406845073647e-03, -3.0857966959616972e-03 ],
        [ -2.4438659776272447e-03, -2.4948181913636612e-03,
            -2.4942045735719446e-03, -2.1631036247896349e-03,
            -2.2917925748570816e-03, -2.1862167375036644e-03,
            -2.3165962370550702e-03, -2.4352081362228441e-03 ],
        [ -4.5471461651342927e-03, -5.7135700973819396e-03,
            -5.5013076437807062e-03, -4.4171839717088478e-03,
            -4.4563341090643757e-03, -4.3849311542613970e-03,
            -5.1231917661448030e-03, -4.8593383165687612e-03 ],
        [ -3.9362963335142324e-03, -4.0833712887101987e-03,
            -4.3341198399660108e-03, -3.6993978578054596e-03,
            -4.0976676100856054e-03, -3.8111259770364251e-03,
            -4.1350842717512758e-03, -3.8061068528317653e-03 ],
        [ -1.4124828492202838e-03, -1.4566757215302491e-03,
            -1.3720929966771821e-03, -1.1029993506082498e-03,
            -1.3474460608628523e-03, -1.1999715770322104e-03,
            -1.3190926548192702e-03, -1.2970091319233694e-03 ],
        [ -7.8127926631763774e-03, -1.0133268583547555e-02,
            -1.0468818197359297e-02, -7.0963097656326617e-03,
            -9.3226218130611823e-03, -8.6315382423624958e-03,
            -9.3221845832896291e-03, -7.9629143213115518e-03 ],
        [ -3.3267978435577313e-03, -3.6462515913482283e-03,
            -3.7402039685292669e-03, -2.6031879809806334e-03,
            -3.2923561779954038e-03, -3.2479508103272839e-03,
            -3.3093217473898285e-03, -3.4366094682459847e-03 ],
        [ -7.9334543043497498e-03, -8.2737105196522658e-03,
            -1.0348644657872174e-02, -8.4548350469642493e-03,
            -8.3664554836304465e-03, -8.7884824673385639e-03,
            -8.2779742507357174e-03, -8.6308657046999613e-03 ],
        [ -3.5312036277860238e-03, -3.7617669455507277e-03,
            -2.9013427982859373e-03, -2.7313889851945964e-03,
            -3.0645758180092198e-03, -3.0653001926233821e-03,
            -3.0255949986958508e-03, -3.0974238202931327e-03 ],
        [ -1.8514827899645328e-03, -1.7576054679436610e-03,
            -2.3114954206648122e-03, -1.5974282308790261e-03,
            -1.7245186945209008e-03, -1.3267602496368353e-03,
            -1.5439363928305768e-03, -1.7758510244720179e-03 ],
        [ -2.4909763430893731e-03, -2.8403966160682882e-03,
            -2.9180205222294137e-03, -2.5034331523513696e-03,
            -2.8596965078090879e-03, -2.5477338525209067e-03,
            -2.5897017961838300e-03, -2.5583301677789242e-03 ],
        [ -7.3363581051698601e-03, -9.2257506489570075e-03,
            -9.9226130330768315e-03, -7.7646638303635451e-03,
            -8.8933889535631940e-03, -7.3602671477056231e-03,
            -8.4175523948929586e-03, -9.2543347476624557e-03 ],
        [ -9.0020121300406174e-03, -8.2442260084207106e-03,
            -9.1495719818885032e-03, -7.9636064463023161e-03,
            -7.6658808705031261e-03, -7.6286279750180314e-03,
            -7.7675400930002480e-03, -7.2093005923826968e-03 ],
        [ -2.3532551812753791e-03, -2.0200325257151734e-03,
            -2.0156247327520393e-03, -1.7906210552726463e-03,
            -1.8972210559575445e-03, -1.7356184634535006e-03,
            -1.8231836905836440e-03, -1.7596674540756344e-03 ],
        [ -4.9124648790641297e-03, -5.3859113372288110e-03,
            -6.6657948285167665e-03, -5.2623351531618867e-03,
            -5.4305135369879503e-03, -4.9140164833607718e-03,
            -5.4418198939308370e-03, -4.9617090194075293e-03 ],
        [ -4.9461884685540903e-03, -5.7601608803761473e-03,
            -6.4787765395909530e-03, -4.4981761390475421e-03,
            -5.1148614535558336e-03, -5.2297381544076475e-03,
            -5.0434256241909383e-03, -5.3162304400646556e-03 ],
        [ -5.3330932317320725e-03, -4.3694315328349099e-03,
            -5.2657595220531022e-03, -4.2558399997074574e-03,
            -4.5948403807656484e-03, -4.1512970183299972e-03,
            -4.6090734908164049e-03, -4.2780169627652520e-03 ],
        [ -2.4684419338112063e-03, -2.6732677856438499e-03,
            -2.2470594426478099e-03, -2.2934290448801626e-03,
            -2.0710919892499994e-03, -1.9316598748544463e-03,
            -2.0466216972564654e-03, -2.1160577249212517e-03 ],
        [ -5.2405846383085982e-03, -5.6606690975989837e-03,
            -6.2225076397531918e-03, -4.8710181883449295e-03,
            -4.8077430532220099e-03, -5.6152111214898643e-03,
            -5.4141346430502443e-03, -6.3700845267293769e-03 ],
        [ -8.9073283362387252e-03, -9.0120614131906362e-03,
            -1.1833932681348304e-02, -8.6267499151649173e-03,
            -8.2842164580195724e-03, -8.9554834111330826e-03,
            -8.3170169700088024e-03, -9.7375588004171825e-03 ],
        [ -4.4864157227801973e-03, -4.1834456013125632e-03,
            -4.2705506472586223e-03, -3.6007739740629065e-03,
            -3.9880097507403794e-03, -3.6158821875534701e-03,
            -4.0270043276939040e-03, -3.7591947598672928e-03 ],
        [ -2.3432649453368252e-03, -2.3244875807530885e-03,
            -2.4410859388605773e-03, -2.0438924052352298e-03,
            -2.3862997441638427e-03, -2.4606991019280595e-03,
            -2.1599122868367271e-03, -2.0391335258866414e-03 ],
        [ -4.4144156608787117e-03, -4.2944392909140235e-03,
            -4.9901601708323660e-03, -4.0596017607862477e-03,
            -4.0750530461262967e-03, -4.7001631395950580e-03,
            -4.0104128147288145e-03, -5.1737115826774932e-03 ],
        [ -4.1695630674425657e-03, -4.4416973961397717e-03,
            -5.0174646331338987e-03, -3.7662000912745052e-03,
            -3.8246097883017235e-03, -4.0333892180383652e-03,
            -3.9052546127994517e-03, -4.1889574782854894e-03 ],
        [ -3.0811844521137703e-03, -2.3328076919043013e-03,
            -2.7757632696673263e-03, -2.8400870930253008e-03,
            -2.3862584803722321e-03, -2.3616012412864280e-03,
            -2.1851215407985088e-03, -1.9890431107777869e-03 ],
        [ -7.8439202592301121e-03, -8.3624913334608558e-03,
            -1.0748385451135560e-02, -7.9850931739355920e-03,
            -7.7209656373531249e-03, -8.2961660178611681e-03,
            -7.4756306727574596e-03, -8.6850172019818997e-03 ],
        [ -7.7773173546166743e-03, -9.5094847098668462e-03,
            -8.6860939752910517e-03, -7.8547579286104008e-03,
            -8.1939392771496217e-03, -7.8813408671131839e-03,
            -8.2570835407420381e-03, -8.8177561509790083e-03 ],
        [ -2.9474758500475434e-03, -2.5303229150757381e-03,
            -2.5114763655227170e-03, -1.7599720557411257e-03,
            -2.4886151266089542e-03, -1.6979356518658497e-03,
            -2.0795375019308673e-03, -2.3583202087103998e-03 ],
        [ -2.1576683525174525e-03, -2.3325689086082092e-03,
            -2.5085610784284767e-03, -2.1256261186849679e-03,
            -2.0162996429532085e-03, -2.1181718944000279e-03,
            -2.0984834430192614e-03, -2.2498722980160697e-03 ],
        [ -3.8656668044273527e-03, -4.0299306309612686e-03,
            -4.0753458385432307e-03, -3.5372262783504170e-03,
            -3.2931119288956323e-03, -4.2147767448170604e-03,
            -3.7308074145818745e-03, -4.2617092525501030e-03 ],
        [ -6.0024295648160274e-03, -6.3260345359777434e-03,
            -6.3322247869972608e-03, -4.9772958308569905e-03,
            -5.4963279083449987e-03, -5.2921994802702012e-03,
            -6.0011116873210481e-03, -5.5352677239892470e-03 ],
        [ -5.7928389567065029e-03, -6.1213419515068418e-03,
            -8.0544212048559594e-03, -5.5951221190551678e-03,
            -5.4386644424499172e-03, -6.0381506656623177e-03,
            -5.3119242480161753e-03, -6.2768132433327663e-03 ],
        [ -4.7593589881905736e-03, -4.5827674598576560e-03,
            -5.6203456400186298e-03, -3.8112061321152729e-03,
            -4.2580052007305256e-03, -3.5488968613081582e-03,
            -4.2905237110090148e-03, -3.9918830982664964e-03 ],
        [ -4.9179555700897201e-03, -5.6640887373296525e-03,
            -6.4761595239950119e-03, -4.7023013129464733e-03,
            -4.9464652232535933e-03, -5.1364140595725680e-03,
            -5.1282634548354324e-03, -5.4275318292980228e-03 ],
        [ -6.8880264886625360e-03, -6.8961515583914508e-03,
            -7.7375635177050553e-03, -6.3037718679707332e-03,
            -6.3481047276378764e-03, -6.7481937821639052e-03,
            -6.4787064909581533e-03, -6.8807969581183848e-03 ],
        [ -3.2833900929853973e-03, -3.1125620311412906e-03,
            -2.9390004440832617e-03, -2.3240819089950511e-03,
            -2.6771033576658636e-03, -2.4484601050182228e-03,
            -2.4510612669244427e-03, -3.1436604126369445e-03 ],
        [ -3.1326982813203777e-03, -3.1308861728100287e-03,
            -3.4793797328154415e-03, -2.9205630909280040e-03,
            -3.2120855612578140e-03, -3.0609551925905075e-03,
            -3.1865510945405296e-03, -3.0575368133873401e-03 ],
        [ -5.1009788442709595e-03, -7.1129373775128471e-03,
            -8.0320796310965441e-03, -6.1898948767656276e-03,
            -6.1200170674062240e-03, -6.4005236761751072e-03,
            -6.0244821814552114e-03, -6.7194864681040488e-03 ],
        [ -9.0408811417161134e-03, -1.0117932021744089e-02,
            -8.3456275813254023e-03, -8.3109093968630424e-03,
            -8.4626713423231366e-03, -8.3360583924419907e-03,
            -8.9022435593424168e-03, -8.9234432791745824e-03 ],
        [ -4.2969825011320425e-03, -4.0017420218714361e-03,
            -4.4468951270066745e-03, -3.5732936946122058e-03,
            -3.3989627770552250e-03, -4.0429242884884595e-03,
            -4.0034285637941683e-03, -4.5139715093928034e-03 ],
        [ -1.6700258981186340e-03, -1.7334870368146504e-03,
            -1.4369908911754802e-03, -1.2881076543485590e-03,
            -1.7145129586029480e-03, -1.4436838464720126e-03,
            -1.4363407488288142e-03, -1.5621908939639296e-03 ],
        [ -4.9705542793214942e-03, -6.5105736599089421e-03,
            -6.6356729761637345e-03, -5.0390931272883523e-03,
            -5.5788172991039602e-03, -5.1656675426399856e-03,
            -5.8855185554218918e-03, -6.0264302293223573e-03 ],
        [ -4.4060159938602850e-03, -4.4926712314361014e-03,
            -4.8293909320498672e-03, -3.8167591649476426e-03,
            -3.7902500563778748e-03, -3.4136865195780993e-03,
            -4.4040996975643022e-03, -3.8858159845591945e-03 ],
        [ -3.4911479220749143e-03, -3.5020838843862461e-03,
            -3.5928129445411947e-03, -2.9316025601439891e-03,
            -3.1790238334317819e-03, -3.1588396534570234e-03,
            -3.3000611198694199e-03, -3.0454916729028151e-03 ],
        [ -5.9150807327633947e-03, -6.1553447378271510e-03,
            -7.3350310149508900e-03, -6.3288375324768399e-03,
            -5.9136617026611226e-03, -5.8562343715332817e-03,
            -6.1071278013501862e-03, -5.5377671380556111e-03 ],
        [ -3.6591007578133960e-03, -3.2474025000749341e-03,
            -3.9408352423429974e-03, -3.1735818485749100e-03,
            -3.0125935156426549e-03, -2.9971617838704559e-03,
            -3.1120026567946447e-03, -3.1978799698739514e-03 ],
        [ -4.7149932284083328e-03, -5.0393962885234775e-03,
            -5.4637594240741208e-03, -4.3213523183531083e-03,
            -5.0357685513550696e-03, -5.0835482220281444e-03,
            -4.7749893824630641e-03, -5.6942307098144318e-03 ],
        [ -3.1840774368154441e-03, -3.8537383843596004e-03,
            -3.6663619825927554e-03, -2.7217304612091242e-03,
            -2.9479091646795802e-03, -2.4512180751310175e-03,
            -2.7328418341992932e-03, -3.2895580950651534e-03 ],
        [ -1.5463364258539256e-03, -1.5258239522810985e-03,
            -1.7368246650585597e-03, -1.5167425664456375e-03,
            -1.3726899592561559e-03, -1.2099393343993710e-03,
            -1.3235765691623873e-03, -1.3289871966747769e-03 ],
        [ -4.5117008203495309e-03, -5.2144382582236118e-03,
            -4.8618907608271493e-03, -4.2898279078522625e-03,
            -3.7629184024072248e-03, -5.1816013540039252e-03,
            -4.7072769564645966e-03, -5.2150094596752697e-03 ],
        [ -6.1886034222265116e-03, -7.2374759261964764e-03,
            -8.5020501230907326e-03, -6.3520560714686487e-03,
            -6.7232027129597270e-03, -6.6962220957878368e-03,
            -6.9371896978823984e-03, -7.0114952546763594e-03 ],
        [ -7.6717800861942197e-03, -8.0964392298342978e-03,
            -9.5057442230304066e-03, -7.4373336513939639e-03,
            -6.6474413216492485e-03, -7.3752675401362097e-03,
            -6.8548589409239673e-03, -7.6723647522979653e-03 ],
        [ -2.2149188341412762e-03, -1.7941902980230721e-03,
            -1.4655757856780051e-03, -1.4443130836843097e-03,
            -1.5469355615302792e-03, -1.6218214268002126e-03,
            -1.7474249648238337e-03, -1.8725324937600739e-03 ],
        [ -6.9143050560420607e-03, -8.4203753398740689e-03,
            -9.4007345719043824e-03, -7.2441517425650805e-03,
            -7.7100148584202952e-03, -7.0306463349704539e-03,
            -8.0291008432984857e-03, -8.5524752796097888e-03 ],
        [ -5.0470291936805540e-03, -4.7512214273262481e-03,
            -4.8963126212505899e-03, -3.4302869028395785e-03,
            -4.1136113518587866e-03, -4.2260867318242024e-03,
            -4.5781142857925965e-03, -4.2883853917436050e-03 ],
        [ -3.2729828457476275e-03, -3.4583245725037281e-03,
            -3.9546808668339262e-03, -3.0629370115909283e-03,
            -3.1316577959206579e-03, -3.2879068079977275e-03,
            -3.2684113107718481e-03, -3.4692269941045636e-03 ]
    ],
    "w1Mat": {
        "type_id": "opencv-matrix",
        "rows": 392,
        "cols": 10,
        "dt": "d",
        "data": [ 9.3509973565248683e-01, 2.8689500047115703e-02,
            6.1208896030760729e-01, 9.5959832389011823e-01,
            5.9610054941221358e-01, 2.1152445882468526e-01,
            4.5351794669617951e-01, 7.2050819830858126e-01,
            9.2830808860583869e-01, 8.6143134194865256e-01,
            6.7690456271150279e-01, 7.3650722830242238e-02,
            9.7330883067930551e-01, 5.3041307041797629e-03,
            3.4000639057459636e-01, 6.7007917924684912e-01,
            6.8822741367031992e-01, 3.9012507433647092e-01,
            7.5722514767581983e-01, 4.9399275901594952e-01,
            4.6478082190184661e-01, 2.6585612994314289e-01,
            5.9114568843135840e-01, 2.3737558033773398e-01,
            5.5902042391821849e-01, 6.7702412582477067e-01,
            6.9952342029252468e-01, 3.9655453294133614e-01,
            1.7102755401263156e-01, 6.9070404536885066e-01,
            5.4288431183491115e-01, 8.8527649336692549e-01,
            8.1256442281764019e-01, 4.1139428423307484e-01,
            3.6715303445423225e-01, 3.4670028865678582e-01,
            4.3602184655134418e-01, 8.2077815651147534e-01,
            5.2465729292432517e-01, 4.2665267415854202e-01,
            1.6337819716282773e-01, 3.5169124274551106e-01,
            7.5000507156104490e-01, 6.7086150975028846e-01,
            4.0367105610120696e-01, -1.2475649455812286e-02,
            2.9901004580744739e-01, 8.0555895882750916e-02,
            3.7137565731426481e-01, 5.9973024996728352e-01,
            2.1110886242189325e-01, 6.2572638556737314e-01,
            3.4576274126739648e-01, 1.6398559613143437e-01,
            8.5860458423569069e-02, 9.1802860209057124e-01,
            2.3205091516624399e-01, 4.4968025352724911e-01,
            5.9756995120548717e-01, 1.3587100867706536e-01,
            2.0281746491100445e-02, 7.2809321209860545e-01,
            1.6947838071248589e-01, 6.8715410645000752e-02,
            7.3233835268101344e-02, 7.2200085102549638e-01,
            9.8381757352527788e-01, 5.2446523168794867e-01,
            6.7916475590929470e-01, 9.2210642129009290e-01,
            9.5306352147494189e-01, 2.7236469731503404e-01,
            2.4647538588870660e-01, 3.7581425619211135e-02,
            8.5159192116854299e-01, 4.6357084294118264e-02,
            6.0742585512599388e-02, 7.5915991000848693e-01,
            8.6783213795397629e-01, 8.9722755898262130e-01,
            4.7834815650220314e-01, 5.9924961226826123e-01,
            4.1801768159076019e-01, -7.6321545109365486e-03,
            2.0371464384141494e-01, 2.9933217347126673e-01,
            4.8242023484970442e-01, 4.0281821368936704e-01,
            4.3735392860554617e-01, 7.6284588045444168e-01,
            3.6131704828469119e-01, 6.9553298247253070e-01,
            3.3335664004738813e-01, 1.8098646582576786e-01,
            4.0915845085965741e-01, 3.7685561050770711e-01,
            1.1698287170265025e-01, 5.7173619183459479e-01,
            6.0974852955099978e-01, 7.3097509525943516e-01,
            3.9431790127815641e-02, 3.3482578302484506e-01,
            3.8632997426376159e-01, 4.3857177762535365e-01,
            9.1838464920484697e-02, 7.3287967515812824e-01,
            7.1119326457664722e-02, 8.6673615191979725e-01,
            -4.9741453220314702e-02, 5.4417464348379008e-01,
            5.9876475906023130e-01, 3.0179337581460836e-01,
            3.6988690436964661e-01, 4.2820724694742757e-01,
            9.0880647951427473e-01, 3.2415774321846835e-01,
            1.9910521852459978e-01, 8.7660582759799266e-02,
            2.7935562585500728e-01, 2.4721223208856315e-02,
            1.1175539557043011e-01, 4.3491747307642681e-01,
            6.4365490432785821e-01, 3.6816238802444867e-01,
            7.5004159533784054e-01, 8.4358144707104532e-01,
            1.5864383585830527e-01, 8.9018142752691587e-01,
            2.2150822905807099e-01, 5.6311132159385779e-01,
            7.5453417243146426e-01, 9.5384544874328547e-01,
            9.6877913486387823e-01, 4.8836099540190796e-02,
            5.6268909494348422e-02, 5.3177935890284000e-01,
            4.5014347205668775e-01, 3.8099329155101896e-01,
            9.7798580998557583e-01, 9.5929873705410051e-01,
            1.6061222850524323e-01, 1.6934573534715500e-01,
            6.7807980368258758e-01, 5.4833628663356815e-01,
            6.3658056159154941e-01, 4.1015570366535897e-01,
            2.5301764874669730e-01, 1.3750138022291092e-01,
            7.7330686156195516e-01, 2.4135248316799632e-01,
            2.0881902888266152e-01, 3.7367658866843750e-01,
            3.0308870837165058e-01, 2.9666867791644519e-01,
            5.8848351185044367e-01, 3.8291252988337465e-01,
            5.9583868095643566e-01, 8.5160815555706715e-01,
            9.2672238411836683e-01, 8.4753694756189446e-01,
            5.2123307765996918e-01, 7.5186748899792766e-01,
            4.7817077956573084e-01, 1.1930214155985527e-01,
            7.6416526522201911e-01, 4.8331090445138281e-01,
            3.7291638156084417e-01, 4.3914999988070641e-01,
            5.2512668281361211e-02, 3.1221870928534113e-02,
            6.3927737675440788e-01, 5.5068624186305781e-01,
            9.2614691485514955e-01, 1.0403657523537851e-01,
            2.1272885155594773e-01, 5.2502672259458094e-01,
            4.0496003573118090e-02, 6.4514976445178185e-01,
            1.5724155955693486e-01, 2.9585670705556094e-01,
            7.1662977057677357e-01, 5.4179423747303124e-01,
            3.3977705508351053e-02, 5.7478599281981724e-01,
            7.7593968892211940e-01, 4.6196050316632792e-01,
            2.4859334885142170e-01, 6.4819856787193320e-02,
            1.7675538848864975e-01, 2.6336450684378049e-01,
            3.0773593947207811e-01, 2.0739691996921467e-01,
            5.2712024034008798e-01, 4.0349554627895734e-01,
            7.1834188947422994e-01, 1.3919025794050144e-01,
            5.0242955509354370e-01, 6.1692035559946172e-02,
            2.3320740101945608e-01, 1.4618681553838046e-02,
            4.6430573389738411e-01, 2.2937791492785234e-01,
            9.5008128130413538e-01, 5.8982638985151332e-02,
            1.0179496449882808e-01, 4.0643221686741610e-01,
            6.8735478433982244e-01, 6.6314983680002260e-01,
            9.2842614007729152e-01, 9.7610403979539284e-01,
            5.6823494966046539e-01, 4.6942563769177387e-01,
            7.5096606712953973e-01, 8.0860807248168609e-01,
            4.7180148853451809e-01, 8.1435582949239360e-01,
            2.9587039519484953e-01, 4.8969069656030667e-01,
            7.8077998153733441e-01, 4.0180806412520093e-01,
            4.9257363439792690e-01, 6.2357880879324623e-01,
            3.3972014596075448e-02, 8.8320028125088679e-01,
            5.5390290471697867e-01, 3.4158618929384647e-02,
            4.7546323470277102e-01, 9.6954624879417106e-01,
            8.2420124670661982e-02, 7.5439293804869212e-01,
            4.2631337910205797e-01, 8.7965401075614069e-01,
            3.0754945852250554e-01, 7.6186044826479404e-01,
            3.9649335061613794e-01, 6.4046847247519656e-01,
            5.1539461573244982e-01, 2.7718072500103874e-01,
            3.1209775852385557e-01, 9.2328795149336429e-01,
            5.3006049658231913e-01, 3.4306209720167918e-01,
            3.5563570265339167e-01, 3.3368197576293501e-02,
            5.8823706787019447e-01, 1.1348582802756493e-01,
            4.8993887819729642e-01, 5.8569059641085175e-01,
            8.7628891677285103e-01, 1.0289159414066057e-01,
            2.6264955853601496e-01, 3.3006611531750274e-02,
            8.7863938758214444e-01, 1.7708759853328115e-01,
            8.8664496171530127e-01, 5.0404232843332564e-01,
            1.3263286599246452e-01, 7.8071558144825814e-01,
            9.5472181692475386e-02, 4.5175565615451974e-01,
            2.3710648541561255e-01, 3.9392827144488518e-01,
            3.5756843925126530e-01, 3.5120756868207992e-01,
            8.6396605624641010e-01, 8.0555387156576419e-01,
            8.3402547617209366e-01, 2.6388548661871808e-01,
            6.4435852525214998e-01, 6.2773521808766097e-01,
            7.7476591187761457e-01, 3.0663106626832293e-01,
            4.0619282911517002e-01, 9.3892729966395305e-01,
            4.8021607904319369e-01, 5.6968353990626153e-01,
            8.2198802129071391e-01, 6.4445105703339423e-01,
            8.1894739959287588e-01, 3.9512085812168651e-01,
            7.0637745920275707e-01, 4.0876150395983413e-01,
            9.1548500702240676e-01, 4.9362848762128070e-01,
            6.8248740261963592e-01, 1.8456986349032301e-01,
            3.0173390599035343e-02, 8.5757514615184194e-01,
            8.6350006089895803e-01, 3.7343551754866477e-01,
            5.3733065840642469e-01, -9.0488965031823854e-03,
            8.5005989088635947e-01, 8.8531657659277907e-01,
            6.7959411011644888e-01, 8.5811553810009888e-01,
            5.1527363042668317e-01, 8.6519609282056453e-01,
            1.3196058692126914e-01, 8.3137284675720979e-01,
            1.4428537685836249e-01, 3.6847512520268849e-01,
            3.3392157392137417e-01, 1.4234794410578586e-01,
            9.6201790641065030e-02, -4.0502514970450459e-02,
            4.9584306920542037e-01, 3.5510273087735722e-01,
            8.4382419270680331e-01, 1.5615007385567709e-01,
            5.3471377658086550e-01, 7.6001615630044916e-01,
            8.7636530555126302e-01, 1.1457897876113965e-01,
            7.2412127159487183e-01, 8.8254720156341249e-01,
            4.6938543435602847e-01, 2.3881545884381189e-01,
            6.1008911864451054e-01, 4.3492560342164199e-02,
            6.8192998671497229e-01, 1.8583238242575836e-02,
            5.5561559654626846e-01, 6.8492232576417500e-01,
            5.5938699555587146e-01, 4.8065406398550659e-01,
            2.9185375699923044e-01, 9.2171788460625204e-01,
            3.6527644882940591e-01, 4.6457269541462054e-01,
            7.6697736089577917e-01, 3.8468596709398811e-01,
            1.9692901346840241e-01, 6.0184224744151393e-01,
            2.5341281017008788e-01, 2.5832943357517213e-01,
            9.1516148351329663e-01, 3.1607023131928724e-01,
            7.6477636938100035e-01, 1.7162706017832782e-01,
            -1.3658140716779968e-05, 2.6863679110876554e-01,
            3.4746115256334732e-02, 5.8980707025340884e-01,
            5.1301343251258721e-02, 6.6541471164170851e-01,
            7.2667516100001761e-01, 7.4831855717676088e-01,
            8.2231933335093238e-02, 8.9841054477347193e-01,
            5.6007154294020589e-01, 6.9404960059946652e-01,
            7.9737178985473500e-02, 5.2452343857296979e-01,
            6.9335083962761201e-01, 9.3115991297476430e-01,
            8.8912741573462972e-01, 8.9217224471914036e-01,
            4.2265026930078042e-01, 4.8561914682040497e-01,
            3.1747810960856654e-01, 1.0933264922473332e-01,
            5.3364469897141098e-01, 8.1698806383705011e-02,
            6.6615108625177533e-01, 2.1331908966977314e-01,
            9.5879063243606300e-01, 5.7567235088757596e-01,
            1.7162542844967363e-01, 1.6082391352992301e-01,
            4.3207707370639664e-01, 7.5366371561784451e-01,
            1.0384983261528576e-01, 7.3962297315974779e-01,
            1.0656012343772116e-01, 2.1103251691672448e-01,
            9.1911265283103794e-01, 6.0326043294803788e-01,
            7.9053348394592193e-01, 1.8247243624356607e-01,
            7.1453594833291090e-01, 2.5307333414252919e-01,
            2.7182325145634251e-01, 7.2613213472869065e-01,
            8.7611015074394583e-01, -8.6740017367226335e-02,
            2.3357339027227175e-01, 9.1128191801526670e-01,
            4.1013598296125758e-01, 3.3119697618190325e-01,
            1.3384118539153367e-01, 7.9039148402818704e-01,
            2.1191873033285794e-01, 5.1342175443420079e-01,
            2.4343021428670636e-01, -6.9554314038212967e-02,
            9.1195219420663265e-01, 2.8756563336418572e-01,
            4.4199780257683113e-01, 7.7641596552647896e-01,
            9.3331681560762969e-01, 9.6665476021028307e-01,
            7.1039363661029431e-01, 9.5627574257804338e-01,
            2.6222419817465570e-01, 9.6409755676836562e-01,
            5.9958760391002075e-01, 2.7285748023008405e-01,
            9.7027363414833590e-01, 6.5016824809832585e-01,
            8.8480739949707610e-01, 1.1287239994275147e-01,
            1.9134133202691417e-01, 5.6661020048548560e-01,
            9.8870724453017186e-02, 3.6933279139150244e-01,
            4.2142438455813741e-01, 2.0839027050833142e-01,
            2.6609938107354997e-01, 7.7032986458673802e-01,
            9.0422345895669387e-01, 6.5424571317608549e-01,
            9.6944181080000816e-02, 7.4123000150082086e-01,
            9.2655443189027120e-01, 1.5233545005597141e-01,
            9.9301805524081843e-01, 1.8375658727336566e-01,
            7.7078071712505780e-01, 5.2187263662439309e-01,
            2.5129146385306933e-01, 8.6143045332790014e-01,
            4.7078998216073248e-01, 9.1893543701453584e-01,
            1.5173538932100822e-01, 9.2364881390456299e-01,
            8.5462897396735582e-01, 1.1814593323262090e-01,
            5.8566462047783630e-01, 6.9584297104598547e-01,
            9.4456229463504604e-01, 4.4062204823029233e-01,
            5.8964052310503723e-01, 9.2758074489774567e-01,
            3.4837375309179691e-01, 6.7814777969580631e-01,
            -2.2906325097730294e-02, 7.4314469212695744e-02,
            8.0377021089401923e-02, 2.1453477110786043e-01,
            1.3228215534236852e-02, 5.4191665575182546e-01,
            8.0629123441322503e-01, 2.8802864831492886e-01,
            1.8161560396887150e-01, 7.6636690513891259e-01,
            3.1912482001839265e-01, 1.2862436500342475e-01,
            7.9511443318847941e-01, 8.4620126484040548e-01,
            1.5162397760446261e-01, 6.4827735102861983e-01,
            7.0009620492800573e-02, 1.2064463142481777e-03,
            7.0329219458787218e-01, 4.2175669739651722e-01,
            5.8899956317018631e-01, 7.2782618582941205e-01,
            8.5934617006104430e-01, 1.5138643685568007e-01,
            9.6707261294953240e-01, 6.3722114756053083e-01,
            1.1474463780333993e-01, 9.7415376965519884e-01,
            7.6927964376538704e-01, 9.4306369241557853e-01,
            2.8866485520004148e-01, 1.6203162501783933e-01,
            5.9511332231198324e-02, 7.2954183786690485e-01,
            6.5207640587195304e-01, 3.9701618705006897e-01,
            5.6107181497888048e-01, 9.9571915857461601e-01,
            7.4686813452144851e-01, 6.7342985907444719e-01,
            5.0528580191684203e-01, 9.5471675731676198e-01,
            3.2212361728824863e-02, 5.9587200658217432e-01,
            9.4569419955193745e-01, 5.3200245892225551e-01,
            6.8173744922746082e-02, 6.9200419715412409e-01,
            2.2559030866556903e-01, 8.2378191038058679e-01,
            8.2059630994301191e-01, 8.7472439342483388e-01,
            4.9058168741667380e-01, 1.1421652568181605e-01,
            7.6416600779163701e-01, 8.7497214981253313e-01,
            9.0479665847379531e-01, 2.0440075068278091e-01,
            9.5119353608541812e-01, 4.5584223827756398e-01,
            4.9563792512607729e-01, 8.4776956443223483e-01,
            6.6588052252124841e-01, 8.8193492659049821e-01,
            1.9632104811452464e-01, 2.2394828603848263e-01,
            9.2011197391621813e-01, 8.5231874571054378e-01,
            4.1187679186180720e-01, 9.0487992666751194e-01,
            9.0010162584456266e-01, 2.9213186767796750e-01,
            8.3418345503677993e-01, 9.5687988377580380e-01,
            6.4312160560341558e-01, 4.3660497253748531e-01,
            3.0137235582442246e-01, 5.0361185381498275e-01,
            6.4734252831522898e-02, 6.6206388921966774e-01,
            1.7056819617929586e-01, 4.4282734691659698e-01,
            1.1520500879775936e-02, 9.2397985638436486e-01,
            5.8440644405849840e-01, 1.1279485475900296e-01,
            2.3271050881695562e-01, 8.6037635084422126e-01,
            7.6045681818142785e-01, 2.7681644712682235e-01,
            3.2213979491450134e-01, 9.1127496592252377e-01,
            -7.5800425079222593e-03, 8.9652127780765833e-01,
            2.8311233553019816e-02, 8.2114571828765948e-01,
            9.1814425691558910e-01, 2.7216025434464258e-01,
            4.8792461007996873e-01, 9.1349639519245379e-02,
            3.8989144138288495e-02, 4.0934536830863744e-01,
            1.1565673608248786e-01, 6.3408431237365881e-01,
            6.1243915986975206e-01, 6.4481212379435315e-01,
            8.2332419895195763e-01, 3.6288087160805055e-01,
            7.4081603923449466e-02, 7.6606361482233420e-01,
            1.0924429668670088e-01, 5.0746446900701438e-02,
            4.0098818793429897e-01, 1.8252533752384692e-01,
            5.6973065761364849e-01, 8.4571963537561759e-02,
            6.8199432555847594e-01, 7.2906507270721316e-02,
            2.5086938969975670e-01, 9.2111679134375468e-01,
            7.8167371736180058e-01, 7.2113284932310673e-01,
            8.6512132989509183e-01, 3.6513114657167878e-01,
            9.0235677175271134e-01, 1.6417582521404406e-01,
            3.2511782524985122e-01, 3.4666181178639116e-01,
            9.4552771965260096e-01, 2.6947146896533623e-02,
            7.7241329183382301e-01, 4.7218328476778393e-01,
            9.1578172214357312e-01, 4.7563567660893713e-01,
            4.8165708859028894e-01, 6.5008270196294049e-01,
            4.4410892583577027e-01, 9.3429104097876720e-02,
            5.3815142244100134e-01, 8.0161854040122427e-01,
            6.9065291086558303e-02, 6.1773372476011268e-01,
            6.2356301896887434e-01, 3.7533817601577529e-01,
            3.1587787277899348e-02, 3.8872043402152712e-01,
            6.3500249210750870e-01, 4.1350578836162183e-01,
            5.7469900262772744e-01, 8.8378855172052184e-01,
            8.9016989376507893e-01, 4.5670936544812246e-01,
            8.5528928699451578e-01, 7.7236803338777374e-02,
            4.5042535761406743e-01, -6.7343351738125400e-03,
            8.5068188104062942e-02, 5.8072940950386265e-01,
            7.6098095244340380e-01, -6.0503178061905707e-02,
            7.4193017747326950e-01, 2.6650214303650671e-01,
            3.8801303931088649e-01, 1.3814071109982315e-01,
            2.3276957205830923e-01, 4.6405196312311175e-01,
            3.4975914317461543e-01, 3.6334805236231055e-01,
            1.1151134539116640e-01, 5.0525414226609910e-01,
            4.5067108059504524e-01, 4.2970628057230081e-01,
            1.8553163845871531e-01, 7.9182741616797236e-01,
            1.1503398785288260e-01, 8.5773970853609982e-01,
            9.3931796729954942e-02, 6.1541963496225605e-01,
            5.2880411541866179e-01, 7.0801731985107952e-01,
            8.9810326736318358e-01, 9.0277889368661179e-01,
            5.7904974244935514e-01, 1.1188232442660540e-01,
            1.2835609905489351e-01, 9.8237007687043421e-01,
            8.1479100998816278e-01, 2.6587849590063366e-02,
            1.4912549451377352e-01, 5.1182313178082983e-01,
            7.3639326811199235e-01, 6.0587539893222464e-01,
            3.2518401899548210e-01, 1.2893549151559033e-01,
            8.5567443032612334e-01, 2.3898651070731411e-01,
            1.5603909254183046e-01, 8.7308905042048923e-01,
            4.2209278443202547e-01, 9.7736048828740443e-02,
            4.3789484683435784e-02, 5.0918876249201295e-01,
            8.6957109237216978e-01, 7.1148795656793928e-01,
            5.2631191656499099e-01, 7.5038283147738782e-01,
            4.9743734737148004e-01, 5.1519996328827700e-01,
            7.8825451397361879e-01, 6.9221385004731517e-02,
            1.4907659267990414e-01, 8.4115530141875383e-01,
            1.2689427006065970e-01, 8.7117331016174393e-01,
            3.0331660514576336e-01, 7.3735517647330018e-01,
            5.1994022979160182e-01, 8.2772943975688254e-02,
            9.0495815349048181e-01, 6.2344643130665534e-01,
            2.5858065310327832e-01, 7.0792547947063467e-01,
            7.1854610805609276e-01, 5.6589705356287012e-01,
            1.9004411610192629e-01, 4.1832066630437442e-01,
            2.1928955049517612e-01, 9.7943909841888790e-02,
            6.2332366769247882e-01, 8.7031959545661886e-01,
            -1.6000907351930518e-02, 7.5328715439078053e-01,
            4.8601736440636412e-01, 9.4422778284546049e-01,
            4.7599756907003804e-01, 2.6796662533361898e-01,
            5.6554392383839580e-01, 1.1272769476193354e-03,
            6.3871771926627671e-02, 2.2071694885289481e-01,
            5.7809613832277640e-01, 3.7733831546786223e-01,
            7.6595918298689347e-01, 1.9973415633855465e-01,
            6.9248806602185098e-01, 4.5519628438090709e-01,
            4.1975803415549262e-01, 9.6299551152568852e-01,
            5.0447234730123580e-01, 8.1632277661138375e-01,
            -7.8925110329208879e-03, 2.3304317033302854e-01,
            6.0184072770604091e-01, 3.6379579308220789e-01,
            5.9688496660392587e-01, 1.3393735303749574e-01,
            4.4726978792006217e-01, 5.9765709923237331e-01,
            9.7234309495620053e-01, 2.5779459768157320e-01,
            4.7610268310931897e-01, 8.8072860087063876e-01,
            3.4170487699626675e-02, 5.6123351265985844e-01,
            2.8630011121907639e-01, 4.9686844554142851e-02,
            3.9793278785601305e-01, -3.9095804448145768e-03,
            4.6123517721227297e-01, 8.0318055679602507e-01,
            4.2467394335835090e-01, 4.3243034683419301e-01,
            8.2411148054128458e-01, 8.7084722761563105e-01,
            8.2885961823715271e-01, 1.3829149903325946e-01,
            7.7225932253547191e-01, 8.6779291777004108e-01,
            9.3934455733559263e-01, 4.4796470238378922e-01,
            8.9847487824635941e-01, 2.1370724478321110e-01,
            1.3276769661283566e-01, 6.8352820960702365e-01,
            7.2566294999745029e-01, 7.6472308522153065e-01,
            4.8558218546349929e-01, 7.5015333431723386e-01,
            4.3969551629263925e-01, 3.1362911574722624e-01,
            5.2160149188808680e-01, 7.7501465956668114e-01,
            1.4771442589610617e-01, 7.6515691824811979e-02,
            5.7560393410210131e-01, 8.0527541704996308e-01,
            -6.0202752671298501e-02, 7.8035000176583991e-01,
            3.8259675635843027e-01, 6.9956824968666020e-01,
            4.2199624066715269e-01, 6.7356154890147135e-01,
            4.0604324755083482e-01, 9.2171860673645711e-01,
            8.5484605542277936e-01, 5.6081296527471125e-01,
            4.1012940624645428e-01, 5.2751253908862439e-01,
            6.7964677405766183e-01, 2.3597554027468495e-01,
            7.1980996346895743e-01, 5.6825786172301795e-01,
            5.0709276957251248e-01, 6.6542584495778423e-01,
            5.7497150517206008e-01, 6.3406599921506634e-01,
            1.7012222273163219e-01, 3.7321821640814939e-01,
            8.3867557781184565e-01, 2.8399022019115289e-01,
            9.3806956357639537e-01, 7.8090753043097516e-01,
            1.0387661354946666e-01, 4.0393032560600528e-01,
            3.6668101434949342e-02, 4.9668690495208523e-01,
            2.2033921255834066e-01, 4.5823975041115517e-01,
            4.0291165914908894e-01, 6.2215815302185384e-01,
            4.7618861597803019e-01, 6.3315441310284590e-02,
            4.0159362037139362e-01, 7.7994510236722783e-02,
            3.2588648766681039e-01, 2.5707019435534834e-01,
            7.9304700598576905e-01, 3.4223382037194117e-01,
            7.6131278043619566e-01, 1.5071090399978951e-01,
            7.8697485475468920e-01, 8.5155303609196195e-02,
            4.8523272556107022e-01, 4.0496028047448437e-02,
            4.8959319157384973e-01, 2.9352929133502509e-01,
            8.2190045196626815e-01, 7.8052851901739784e-01,
            7.4141727461003037e-01, 8.4898313014114457e-01,
            3.1068127106020593e-01, 7.6402966632667124e-01,
            1.4090470798079677e-01, 4.4819719831233662e-01,
            3.4432797691962236e-01, 6.2563998441654478e-01,
            7.1840547330154958e-01, 5.3598020144540370e-01,
            2.9724219961175447e-01, 1.8740740328330718e-01,
            2.6228042768223941e-01, 2.5649697592609655e-01,
            3.8700427439780805e-02, 6.0318999123545181e-01,
            2.6340828112621362e-01, 3.8156325204484787e-01,
            1.9749496769111516e-01, 3.3274514611322192e-01,
            6.4881671073454006e-01, 5.6615929647981644e-01,
            5.5287335052856079e-01, 8.8158210623345756e-01,
            -3.7488343405280643e-02, 1.0398109223719212e-01,
            8.7200675659168295e-02, 1.5075507188459635e-02,
            4.8463547032876675e-01, 2.9177860886412943e-01,
            5.9751734598702078e-01, 6.7910862807002226e-01,
            4.7344192700734816e-01, 6.7898591584108892e-01,
            3.6815249462069555e-01, 2.3141258993101133e-01,
            4.6580306970489253e-02, 8.6339819195365541e-01,
            5.2934194798662837e-01, 2.7636663496154422e-03,
            4.8965779187639341e-01, 3.4840163241531569e-01,
            2.8852141515529039e-01, 7.3956589805410944e-01,
            3.5199997196741706e-01, 3.6773043043849246e-01,
            2.5107799206210268e-01, 3.1883144950897152e-01,
            6.4778347035983974e-01, 4.2387863837273215e-01,
            4.5567018390935737e-01, 1.1190379428991959e-02,
            4.1104718285411818e-01, 8.3531218802586682e-01,
            6.7251763985566648e-01, 3.6354973034731086e-01,
            4.9675533560230017e-01, 7.9436276548575635e-01,
            6.2086308244490673e-01, -4.0387811567892274e-03,
            3.8228475296327741e-01, 3.6819646045273241e-01,
            7.2513538888217169e-02, 2.1966017498268456e-01,
            1.5704800058614402e-01, -1.6615883207035671e-02,
            5.4717725991830599e-02, 2.2925356854900167e-01,
            5.3315869041930430e-01, 2.3450550712031018e-01,
            1.2172206053617865e-01, 5.4884146135973744e-01,
            3.1733488032097645e-01, 8.6856763596433095e-01,
            8.4625400359064173e-01, 2.2032439286990263e-01,
            9.0797710142085486e-01, 5.8306385471595779e-01,
            2.5914381432284794e-01, 2.2324146730745870e-01,
            6.6026386939331072e-01, 2.8249068705972058e-01,
            1.1107541705853693e-02, 4.4203611585100222e-01,
            6.9234618984096374e-01, 5.3030962967085926e-01,
            4.7854665930298990e-01, 7.9800606074935465e-01,
            5.7002819953504735e-01, 6.2481760527321496e-02,
            2.2882951404479338e-01, 8.0105869644888816e-01,
            5.3918350507679957e-01, 7.8541170256117565e-01,
            1.0545751315569893e-01, 5.0227418380242883e-01,
            7.3128424861436148e-01, 2.4264465346998615e-01,
            1.9296172897975150e-01, 4.4726082953748486e-01,
            7.4737289862350500e-03, 2.0105005933889861e-01,
            8.6775472363698991e-01, 5.3851610781689030e-01,
            5.5861171610084048e-01, 2.0114004191325813e-01,
            8.4379162902525762e-01, 4.6684958217572692e-01,
            9.4528139649133702e-01, 9.4415049376656757e-01,
            8.2184446034585545e-01, 8.7493605585149803e-01,
            4.9815885150103201e-01, 1.2018917666094191e-01,
            1.3445328607915269e-01, 4.9898380072732076e-02,
            1.3701996987368881e-01, 3.3124886170872829e-02,
            8.7004400601146270e-01, 1.4446645759381757e-01,
            5.2800713767446017e-01, 1.4286401322123740e-01,
            4.0320330644811109e-02, 1.0417511809761015e-01,
            3.0742897195945681e-02, 6.8615364517097532e-01,
            5.7406280612844351e-01, 1.2520624962433508e-01,
            2.0565395066054576e-01, 4.5071088169816098e-01,
            2.7484012335067937e-01, 5.8855693760685079e-01,
            2.7301710826503833e-01, 1.1109619192553379e-01,
            1.9653314108104773e-02, 3.4071291278397942e-01,
            8.5048945715248381e-01, 2.7754898543229606e-01,
            2.7803388120744565e-01, 3.4972738823197119e-01,
            8.6983616656024887e-01, 1.8232986458507933e-02,
            3.2272810199149266e-02, 6.9238412340760680e-01,
            6.2737765660902023e-01, 5.4108935112734702e-01,
            6.5573976246737242e-01, 1.6330459048487395e-01,
            4.7948387731671499e-01, 4.2503529020096057e-03,
            4.1046578579575038e-01, 2.4555446049333521e-01,
            8.7817233218022872e-01, 9.0509633262490230e-01,
            3.4732617620868944e-01, 9.3012827895815789e-02,
            3.0591819195746210e-02, 2.5708228481893247e-01,
            9.3889129875649868e-01, 8.3583352021391366e-01,
            4.7064233307272108e-01, 8.6829591273390216e-01,
            2.3259813392865358e-01, 4.4768178087619559e-01,
            5.1399140541536359e-01, 4.9579999411859338e-01,
            3.3909251852009582e-02, 7.2405507973218886e-01,
            9.8693605598118905e-01, 7.9234733902512411e-01,
            1.4056385700501384e-01, 5.8309124010021307e-01,
            5.9222447104074560e-01, 7.7067385674754529e-01,
            1.8687865845132788e-02, 5.3546530300348605e-01,
            5.4327928674399872e-01, 3.8200502821227805e-01,
            8.2049662229426323e-01, 3.5558632851507915e-01,
            9.2637793524742984e-01, 1.7082483303247087e-01,
            3.4129786986708216e-01, 1.5695510114370309e-01,
            1.7176491611211744e-01, 1.6246527499304184e-01,
            8.0755810757317525e-01, 9.4905484347158786e-01,
            5.8979766497652408e-01, 8.6328117591772613e-01,
            5.6947617590837596e-01, 8.1318033276547885e-01,
            9.2710300732275597e-01, 2.8977157341979653e-02,
            7.5678987291097244e-01, 2.8478598270110006e-01,
            6.6710348103707717e-01, 7.1317061415998861e-01,
            4.4581035146831122e-01, 1.4202555019172711e-01,
            7.5021312473945967e-01, 7.0211620020397728e-02,
            8.2190218235772550e-01, 4.3738294244558679e-01,
            3.8765355324708212e-01, 6.8730231722671076e-01,
            6.5831980203073637e-01, 6.9384088917060371e-01,
            9.2509340476685398e-01, 3.3212352151091490e-01,
            4.0977236837925074e-01, 4.9427930378542304e-02,
            5.2310942185696829e-01, 3.1615317852927782e-01,
            6.1857129162540114e-01, 8.1880197936367294e-01,
            5.7282421518986548e-01, 8.9944364370405178e-02,
            8.0663218245490953e-01, 7.5250162350683147e-01,
            3.6612949198489092e-01, 6.0808746073817310e-02,
            5.9304404573361735e-01, 3.2722026737928467e-01,
            9.6079488801815383e-01, 8.7949715456452593e-01,
            6.0776089626879981e-01, 6.0870012494701187e-01,
            2.9602787375899642e-01, 6.0806231541810751e-01,
            2.3980289106284289e-01, 5.1027527650841853e-01,
            6.9611487387573301e-01, 5.0758061134573307e-01,
            6.8171358461169218e-01, 9.3406197154711312e-01,
            6.9613344027158408e-01, 6.9694940596300348e-01,
            4.5286068474601843e-01, 6.1671664986404895e-01,
            1.9570120968163029e-01, 9.5428477886105978e-01,
            8.1404936035145828e-02, 2.1044238355729092e-01,
            1.5090316644331389e-01, 1.8698097480421177e-01,
            3.6135449044050649e-01, 6.6570072387212220e-01,
            8.3887844396137345e-01, 6.1201749839503927e-01,
            9.4427342616329180e-01, 3.4389110379638033e-01,
            4.8497795608196265e-01, 2.6106683543692555e-01,
            6.2332560760532207e-01, 1.3658508911826991e-01,
            2.1380374354242118e-01, 2.9380551483352296e-01,
            4.8052541907828115e-02, 6.1186878034965086e-01,
            7.1759142413069643e-01, 2.6680642662273846e-01,
            3.8665277097697920e-01, 1.0193130111191538e-01,
            5.0573698194309902e-01, 7.3854065431766969e-01,
            5.0701566080787441e-01, 3.4856582856049839e-01,
            3.1328328321128535e-01, 2.9499991017313615e-01,
            8.9759522758040955e-01, 7.9150344003808604e-01,
            2.6504031136460821e-01, 9.1096891506132582e-01,
            9.0856038301579634e-01, 5.3382435548272145e-01,
            9.2193883449465786e-01, 7.8508815203445137e-01,
            5.3318336496705518e-02, 9.3013626398048621e-01,
            3.8126373161323845e-01, 4.3029015073137961e-01,
            8.6054130430328712e-01, 9.1772320090705017e-01,
            1.9933409032592661e-01, 3.1825740460470081e-01,
            2.8963889570287776e-01, 2.9908053338389445e-01,
            1.8595726702699308e-01, 8.6784272486763214e-01,
            -1.2634698818127697e-02, 1.1884319867036791e-01,
            2.8439038079267009e-01, 6.6580339955866252e-01,
            8.6835075628029790e-01, 1.7490195322533511e-01,
            7.2104172887155493e-01, 1.3055112145463246e-01,
            4.6302712152246595e-01, 9.0167929116274892e-01,
            7.0894191614466873e-01, 3.8361978690408449e-01,
            1.6111216265272171e-01, 4.8641833100979387e-01,
            3.5655811429185752e-01, 7.1333590559284532e-01,
            6.9114380863723024e-01, 8.6968779018647535e-01,
            1.0175780005804692e-02, 4.1148927722998374e-01,
            6.2886694363073037e-01, 4.2889726813087298e-01,
            1.7016962620209564e-01, 5.7135649055856397e-01,
            4.7958517460376177e-01, 3.8631421890550860e-01,
            6.2224685079587194e-01, 4.4790468213612661e-01,
            7.5727878833489126e-01, 3.2049155800123547e-02,
            4.7531022071736495e-01, 2.2162457697304377e-01,
            3.0076903429070501e-01, 2.5678593029723512e-01,
            7.1212379560240557e-01, 5.8511676664402079e-01,
            7.1200383648542132e-01, 7.0235014041909549e-01,
            9.3581051459566678e-01, 1.6296371740826196e-01,
            4.3970791836733431e-01, 5.7331962193143238e-01,
            6.2561550616793815e-01, 3.9560588070256580e-01,
            9.3750424336732785e-01, 5.2414654680695183e-01,
            8.2870190463251858e-01, 1.6953141612906820e-02,
            3.6411138293921125e-01, 9.4656904741808112e-01,
            3.9254816229703648e-01, 3.4316610731338365e-01,
            8.7881442856920355e-01, 6.0366509121414569e-01,
            9.4639558934411405e-01, 7.3543334613050970e-01,
            4.5538365223758570e-01, 7.9787308177685062e-02,
            5.0997251159771839e-01, 7.6432028373066518e-01,
            7.3764112701279208e-02, 7.2225639487810045e-01,
            6.2593420118386256e-02, 5.1423541036475873e-01,
            5.3355614914407168e-01, 1.7824000891295963e-01,
            7.3556299761152966e-01, 8.5209347608258434e-01,
            8.2575531758188492e-01, 6.2897106057475699e-02,
            3.4340335646889497e-01, 6.7439169996598547e-01,
            2.2429113068522563e-01, 5.8542438647756534e-01,
            6.7618508666740920e-02, -2.9989560605692800e-02,
            6.2061359367109781e-01, 8.1105965106959199e-01,
            -2.6362207959991550e-02, 5.2271699782558256e-01,
            4.1298514464281327e-01, -5.8739413478934313e-02,
            9.1908705937789315e-01, 6.3141923636425268e-01,
            3.4039379940959108e-01, 8.7173803612882139e-01,
            8.5616176638613717e-01, 1.7564615141957937e-01,
            8.7130195040958136e-01, 4.3676280485637026e-01,
            2.4576356191644752e-01, -2.6841900143716724e-02,
            7.0171395555997851e-01, -3.5587767226174646e-03,
            8.5878690759311960e-01, 3.8584236423480509e-02,
            2.2922861540056283e-01, 7.8205224992685285e-01,
            8.2341877852833500e-01, 5.5739707406127903e-01,
            5.4636555718228508e-01, 2.3329520000350354e-01,
            3.1789226918378222e-01, 6.9849381951833367e-01,
            2.4488909086772006e-02, 1.6355252404981638e-01,
            9.3092751422169495e-01, 6.7818324163225197e-01,
            3.4791204759783345e-01, 2.7355206892670580e-01,
            8.3085561343013303e-01, 8.2440685066905139e-01,
            5.7463958433972850e-01, 9.5627971644360377e-01,
            -1.7269174574642478e-03, 9.8926291077273965e-02,
            1.7745445564756190e-01, 4.9068352554241584e-01,
            8.8690415492214147e-01, 4.7279424134931869e-01,
            6.7657485062739153e-01, 7.8397939154995022e-01,
            7.9767776799533463e-01, 1.4637324665802887e-01,
            -3.1304675287659178e-02, 7.6084474478783726e-01,
            7.7196403786683387e-01, 2.0378759439083485e-01,
            2.2008026174207324e-01, 6.0280061303101085e-01,
            2.0941127851940539e-01, 2.1935219599352479e-01,
            4.0136154392154855e-01, 2.8067979952137528e-01,
            7.3102066319226378e-01, 1.6105271546486860e-01,
            7.1393206810070420e-01, 1.5157784592578771e-01,
            -5.5602646069030939e-02, 6.4238257234953688e-01,
            5.6400374921451213e-01, 3.3372974204383343e-01,
            1.9886608352786836e-01, 3.8405980947219126e-01,
            7.2923689618183374e-01, 6.6263739858363824e-01,
            6.7399923470149690e-03, 8.2059279271125207e-01,
            -2.6095820600402699e-02, 5.3471137046756589e-01,
            3.6670948167878109e-01, 1.7586164444452249e-01,
            9.3883184178981921e-02, 1.0163085715131660e-01,
            8.9668124263400073e-01, 7.0126435518585217e-01,
            1.4358767970013100e-01, 8.1490342611230293e-01,
            2.7978055859023210e-01, 6.6869454369054870e-01,
            -2.0605931839129878e-02, 7.3230410415349700e-01,
            1.9894072959028691e-01, 3.2703581670281134e-01,
            3.2633766215871279e-01, 4.6488259088918849e-02,
            5.7602417212351098e-01, 7.5805980960975983e-01,
            9.8439396066713081e-01, 1.8895724297792538e-01,
            2.8713101239841032e-01, 3.1731713386275096e-01,
            1.7770094049724730e-01, 3.8473941243341975e-01,
            8.1914695965985829e-01, 6.5278752296003273e-01,
            6.6058142088859928e-01, 2.6385423468783531e-01,
            8.9139486793208589e-01, 3.8784315647172629e-01,
            2.6238992595683253e-01, 9.2314894671041170e-01,
            8.4465559411596713e-01, 6.7319786022179540e-01,
            6.6092277747403994e-01, 2.9501256405480669e-01,
            3.3321250850967554e-01, 8.3526073105123966e-01,
            3.6837724917968473e-01, 1.9447003283064293e-01,
            7.6456522964671292e-01, 7.5693176282006103e-01,
            2.4659195764758995e-01, 8.0675135088921801e-01,
            4.0442452448842348e-01, 9.6450048259515953e-01,
            2.7313918367834999e-01, 6.7414938338972896e-01,
            1.6375025837882642e-01, 2.3603320170758046e-01,
            3.0374574834488433e-01, -1.0363374704905917e-01,
            2.6945154481471240e-01, 2.0874762818316375e-01,
            4.3301926358341980e-01, 1.8993947113839207e-01,
            8.4250159810300218e-01, 1.5873988491265735e-02,
            7.2989502219134172e-01, 7.8519066898736034e-01,
            6.9913297987991951e-01, 7.9636847708733127e-01,
            4.1059574156895789e-01, 6.4932886938373324e-01,
            3.8886877750621085e-01, 8.5694251943253119e-01,
            2.4028595864185584e-01, 5.7554056691435942e-02,
            6.6384203273992504e-01, 5.2462110577784105e-01,
            6.8225958858399882e-01, 2.3733251714951431e-01,
            1.2395087630841617e-01, 2.0014966383729282e-01,
            2.0918040487940553e-01, 5.6537607089010844e-01,
            6.3394784375745872e-01, 1.6980074878983335e-02,
            1.4152355411129136e-01, 5.4401659248897538e-01,
            8.1681540538064967e-01, 4.0396793625263480e-02,
            4.0776265950096056e-02, 5.6175061597446774e-01,
            5.4319248986672053e-01, 6.5129229191681337e-01,
            7.6433044353362956e-01, 3.8475990798854326e-01,
            7.9346199952015539e-01, 9.1612743501857830e-01,
            9.3620383200524682e-01, 1.1653626130802977e-01,
            1.6554740821501515e-01, 8.0131440006175925e-01,
            7.1441985757673743e-01, 6.9740535090708489e-01,
            2.9389543956514030e-01, 1.3734705443719253e-01,
            2.3821794565850801e-01, 6.0300414477852493e-01,
            9.1646853743302359e-01, 7.9247587086004456e-01,
            4.1456061364588082e-01, 4.5116905839677107e-01,
            3.6687997575728315e-01, 7.9135969768942460e-01,
            1.3218717297345772e-01, 8.9721831153794906e-01,
            6.6860213175309924e-01, 5.3081208877398367e-01,
            7.3840255944098743e-01, 1.9799246908826862e-01,
            2.5207020787466672e-01, 2.4928059695513644e-01,
            6.3725313254151317e-01, 8.0304720412190278e-01,
            8.2509117847262448e-01, 1.5667825702890659e-02,
            5.7913968941819938e-01, 5.0250811814893485e-03,
            7.5953455125697744e-01, 2.1314934550060027e-01,
            5.2320998928723939e-01, 5.5075914942363413e-01,
            4.7565904094919781e-01, 2.1954394675090005e-01,
            6.1415168650135876e-01, 4.3079918169065601e-01,
            6.0602720971044355e-01, 2.1069226408306096e-01,
            -2.4214883949786256e-02, 1.9690469167867683e-01,
            1.8802954033138641e-01, 7.3243274968503336e-01,
            3.1373794782104025e-01, 3.8998575593475754e-01,
            3.4897413886674672e-01, 9.7687449180414512e-02,
            1.5101371685213782e-01, 4.6906535946021982e-01,
            5.6710983740971577e-01, -5.1775581917160030e-02,
            1.0758245776331590e-01, 5.1496513351918316e-01,
            7.4938872595530659e-01, 5.3027503380201213e-01,
            5.9612214812577802e-01, 3.4349548804131907e-01,
            1.5736494863771563e-01, 4.2552677901572256e-01,
            8.6956557433505599e-01, 2.0901428851268594e-01,
            3.3174473173322849e-01, 2.0524589298648709e-03,
            8.2022545122650770e-01, 4.4571751443870139e-01,
            4.7949080693911705e-01, 2.7872617592963156e-01,
            6.9510876617426509e-01, 4.3637643507422996e-01,
            8.8292760928744951e-01, 4.1275015128484510e-01,
            5.2571604285544549e-01, 9.5841877148607157e-01,
            5.7625217385158400e-01, 6.2002945783281316e-01,
            7.3287866029427318e-01, 6.1192513491975575e-02,
            7.9343096544420133e-01, 9.0229442459489428e-01,
            5.4299839091018542e-01, 7.1206564237137082e-01,
            6.0492227273925214e-01, 9.0561591660280816e-01,
            5.0683813408252987e-01, 3.3323320593802663e-01,
            8.2436252430691903e-01, 6.7354871834505392e-01,
            1.1725782148276229e-01, 3.3639061779920942e-01,
            5.9059808371647282e-01, 5.9421738824577086e-01,
            4.4185243106589789e-01, 5.6407051255778362e-01,
            3.1650340556854739e-01, 9.8678067276173664e-01,
            4.4949901209271614e-01, 3.0535509928096083e-01,
            5.2605377373814777e-01, 5.6682455708308432e-01,
            7.4693077011295295e-01, 8.0688837114514611e-01,
            5.5605119657468527e-01, 7.1172748563236876e-01,
            1.1822899686208310e-01, 2.7813689014654469e-01,
            7.5709786979332405e-01, 7.2289654187060501e-02,
            1.8033567405433262e-01, 7.2653007255249216e-02,
            8.6793137398462672e-01, 4.2560180373249840e-01,
            3.0135600803919527e-01, -2.9004841258734931e-03,
            6.9514916320842279e-01, 5.4410671312760528e-01,
            7.8620114391052853e-01, 1.6372826797331466e-01,
            7.9981831872006845e-02, 7.7909547483924813e-01,
            9.0644684293053668e-01, 7.7058510929976742e-01,
            2.1185702559311063e-03, 7.4635814454236504e-01,
            1.8884866745785847e-01, 3.1873641277935338e-01,
            6.0940191298107238e-01, 1.8259833599872672e-02,
            9.6989960812669596e-01, 9.3503859104945616e-02,
            4.9990968695272670e-01, 8.0598595536789364e-01,
            2.1112816056612932e-01, 1.3441381195463403e-01,
            3.5337186189808906e-01, 9.2742590595564411e-01,
            2.8521056588703519e-01, 3.0702049743820697e-01,
            4.3265125580152893e-02, 6.1669911921679088e-01,
            8.3824385578994090e-02, 5.0736742660616063e-01,
            7.1694055501026865e-01, 2.4724842010511363e-03,
            4.0525433615843248e-01, 5.8924332186995920e-01,
            8.1242649349462814e-01, 3.2634844649552053e-01,
            9.1626268125647489e-02, 7.1654327605117984e-01,
            6.5215207430528621e-01, 9.5234879818892459e-01,
            6.3136506465436293e-01, 6.1991742608866629e-01,
            5.7574196868347395e-02, 3.4630495372558284e-01,
            5.2289166966521550e-01, 4.0595034941072694e-01,
            6.1357039366960431e-01, 9.8032510671622553e-01,
            5.0782868623574529e-01, 5.6859915687022267e-01,
            1.2592753982247640e-01, 9.8365394450053556e-01,
            3.8865699801509987e-02, 5.4460400683251453e-01,
            8.9036489086445769e-01, 1.5694953211963036e-01,
            7.6966980644439720e-01, 2.8624709010404381e-01,
            2.1559599001104146e-01, 8.8162013969797659e-01,
