{
    "LearningRate": 1.0000000000000000e-04,
    "loss": 9.6591297026747577e+02,
    "lossAverages": [ 0.0, 1.2697931434676425e+03,
        1.7527496286013804e+03 ],
    "NowEpoch": 3,
    "USEDATA_NUM": 10,
    "KERNEL1_NUM": 4,
    "KERNEL2_NUM": 8,
    "CLASSIFICATION_NUM": 10,
    "L1": 0,
    "L2": 0,
    "PoolSize": [ 2, 2 ],
    "PoolStride": [ 2, 2 ],
    "Kernel1Stride": [ 1, 1 ],
    "Kernel2Stride": [ 1, 1 ],
    "Kernels1": [
        [
            {
                "type_id": "opencv-matrix",
                "rows": 3,
                "cols": 3,
                "dt": "d",
                "data": [ 1.2895818289210530e+00, 1.9765757325371924e+00,
                    1.2801337277546532e+00, 1.3299926645771840e+00,
                    1.2642902020290414e+00, 1.3067837623007867e+00,
                    1.9153789097112905e+00, 1.2484635315584938e+00,
                    1.2429394746187983e+00 ]
            },
            {
                "type_id": "opencv-matrix",
                "rows": 3,
                "cols": 3,
                "dt": "d",
                "data": [ 1.4683710343570393e+00, 1.5185943383546172e+00,
                    1.6603487479163084e+00, 1.2207283754837801e+00,
                    1.1020723555999306e+00, 1.9588461549141873e+00,
                    1.9554746536876122e+00, 1.6582462224432974e+00,
                    1.8899976457025867e+00 ]
            },
            {
                "type_id": "opencv-matrix",
                "rows": 3,
                "cols": 3,
                "dt": "d",
                "data": [ 1.7101287490954198e+00, 1.3674081330548584e+00,
                    1.3140327032040484e+00, 1.2630925465508611e+00,
                    1.4628751493194510e+00, 1.3879227302736989e+00,
                    1.4360044662609035e+00, 1.8188426619537610e+00,
                    1.1830956160767041e+00 ]
            },
            {
                "type_id": "opencv-matrix",
                "rows": 3,
                "cols": 3,
                "dt": "d",
                "data": [ 1.9705392815217730e+00, 1.0530033477961689e+00,
                    1.7968974380616851e+00, 1.7517421081197868e+00,
                    1.1350876409586943e+00, 1.9491447583773940e+00,
                    1.4271151327834390e+00, 1.9937278532258373e+00,
                    1.4472405689207186e+00 ]
            }
        ]
    ],
    "Kernels2": [
        [
            {
                "type_id": "opencv-matrix",
                "rows": 3,
                "cols": 3,
                "dt": "d",
                "data": [ 1.8394955631475001e+00, 1.2795565404401659e+00,
                    1.5086419533741970e+00, 1.0350293041168559e+00,
                    1.8984380493538633e+00, 1.3872322479981294e+00,
                    1.2123880753458884e+00, 1.3215975267233648e+00,
                    1.0054028580381391e+00 ]
            },
            {
                "type_id": "opencv-matrix",
                "rows": 3,
                "cols": 3,
                "dt": "d",
                "data": [ 1.0185424394447526e+00, 1.4194080772014226e+00,
                    1.4516986870691042e+00, 1.8436787310196696e+00,
                    1.2567298147131014e+00, 1.5746239123228167e+00,
                    1.5564788406177279e+00, 1.1671060664968658e+00,
                    1.2245644745086128e+00 ]
            },
            {
                "type_id": "opencv-matrix",
                "rows": 3,
                "cols": 3,
                "dt": "d",
                "data": [ 1.6665573527000530e+00, 1.6493725825150289e+00,
                    1.5776453392397949e+00, 1.2194095212597953e+00,
                    1.6007646583043296e+00, 1.3159113361941468e+00,
                    1.3958386014853650e+00, 1.4576989753148508e+00,
                    1.9097463573274220e+00 ]
            },
            {
                "type_id": "opencv-matrix",
                "rows": 3,
                "cols": 3,
                "dt": "d",
                "data": [ 1.6740704845552965e+00, 1.5859286946656002e+00,
                    1.5639551220600494e+00, 1.4825647778337587e+00,
                    1.9866868947270788e+00, 1.1452842205381524e+00,
                    1.4390151613618400e+00, 1.3698416195310232e+00,
                    1.2791287649828322e+00 ]
            },
            {
                "type_id": "opencv-matrix",
                "rows": 3,
                "cols": 3,
                "dt": "d",
                "data": [ 1.4911586627701399e+00, 1.3464102422649999e+00,
                    1.9463258337504303e+00, 1.8434447674835122e+00,
                    1.4109970896088928e+00, 1.2759257864742442e+00,
                    1.8642347402808941e+00, 1.7851092115154892e+00,
                    1.3241286236445649e+00 ]
            },
            {
                "type_id": "opencv-matrix",
                "rows": 3,
                "cols": 3,
                "dt": "d",
                "data": [ 1.5376532004431378e+00, 1.3026620038180958e+00,
                    1.9041687833844734e+00, 1.2961305754197741e+00,
                    1.6363545201113896e+00, 1.0854115777310498e+00,
                    1.7206629136734526e+00, 1.6165669107490979e+00,
                    1.6344234576585521e+00 ]
            },
            {
                "type_id": "opencv-matrix",
                "rows": 3,
                "cols": 3,
                "dt": "d",
                "data": [ 1.5586050185290801e+00, 1.1930437967459819e+00,
                    1.6776795150869155e+00, 1.8162684194269845e+00,
                    1.9346462767560042e+00, 1.3365496799991150e+00,
                    1.6004169297399735e+00, 1.1173881861259405e+00,
                    1.5177512368875234e+00 ]
            },
            {
                "type_id": "opencv-matrix",
                "rows": 3,
                "cols": 3,
                "dt": "d",
                "data": [ 1.8723223041443164e+00, 1.0478371732888345e+00,
                    1.3526500507924064e+00, 1.8397808722458753e+00,
                    1.8801841451851571e+00, 1.3472263561099147e+00,
                    1.9115815779050289e+00, 1.4079076670358861e+00,
                    1.7155837527668196e+00 ]
            }
        ],
        [
            {
                "type_id": "opencv-matrix",
                "rows": 3,
                "cols": 3,
                "dt": "d",
                "data": [ 1.3247619225930614e+00, 1.6067019020894875e+00,
                    1.5665925652139490e+00, 1.4035750748489002e+00,
                    1.8581187390892873e+00, 1.9915387104485391e+00,
                    1.3615843396927865e+00, 1.3881114234788325e+00,
                    1.4934293192529700e+00 ]
            },
            {
                "type_id": "opencv-matrix",
                "rows": 3,
                "cols": 3,
                "dt": "d",
                "data": [ 1.7684071049056349e+00, 1.7536633419513252e+00,
                    1.4834049369771760e+00, 1.2613770918320024e+00,
                    1.2905908899327894e+00, 1.9730788817891960e+00,
                    1.3430001481208298e+00, 1.7551069165486872e+00,
                    1.4570361790530371e+00 ]
            },
            {
                "type_id": "opencv-matrix",
                "rows": 3,
                "cols": 3,
                "dt": "d",
                "data": [ 1.8105798847378249e+00, 1.4681157295172946e+00,
                    1.3266855159888415e+00, 1.1760493394554530e+00,
                    1.7282610261529932e+00, 1.3975012088104939e+00,
                    1.1809588479518844e+00, 1.2988768982524499e+00,
                    1.6848242383728453e+00 ]
            },
            {
                "type_id": "opencv-matrix",
                "rows": 3,
                "cols": 3,
                "dt": "d",
                "data": [ 1.2248861039594057e+00, 1.0141165832191579e+00,
                    1.0600689129762726e+00, 1.2325368505253560e+00,
                    1.0698511830686419e+00, 1.9696328662655138e+00,
                    1.3748623155397883e+00, 1.1810887325380222e+00,
                    1.0375498162937427e+00 ]
            },
            {
                "type_id": "opencv-matrix",
                "rows": 3,
                "cols": 3,
                "dt": "d",
                "data": [ 1.9851111669645543e+00, 1.7200054328941285e+00,
                    1.0218592720993704e+00, 1.5754666585887027e+00,
                    1.0179825596346261e+00, 1.2740557716963277e+00,
                    1.5680975832128428e+00, 1.6477274035343790e+00,
                    1.7129637736430170e+00 ]
            },
            {
                "type_id": "opencv-matrix",
                "rows": 3,
                "cols": 3,
                "dt": "d",
                "data": [ 1.2217430964336393e+00, 1.6420071888635575e+00,
                    1.0166202130641537e+00, 1.0569484102100435e+00,
                    1.2005910145758505e+00, 1.9752529949136270e+00,
                    1.6059662915173838e+00, 1.0174508435521419e+00,
                    1.5714626500958420e+00 ]
            },
            {
                "type_id": "opencv-matrix",
                "rows": 3,
                "cols": 3,
                "dt": "d",
                "data": [ 1.4955281398383484e+00, 1.0536691056138601e+00,
                    1.6095891585716164e+00, 1.1339404525323604e+00,
                    1.1476275328498069e+00, 1.0241313742976652e+00,
                    1.8336264182110722e+00, 1.4726062741656456e+00,
                    1.2055369897021297e+00 ]
            },
            {
                "type_id": "opencv-matrix",
                "rows": 3,
                "cols": 3,
                "dt": "d",
                "data": [ 1.3523970447111291e+00, 1.6367659522621296e+00,
                    1.7847595595879484e+00, 1.1699514495138106e+00,
                    1.5177239039288499e+00, 1.0162884625923372e+00,
                    1.4449563916523185e+00, 1.4232798398740349e+00,
                    1.9608130412261349e+00 ]
            }
        ],
        [
            {
                "type_id": "opencv-matrix",
                "rows": 3,
                "cols": 3,
                "dt": "d",
                "data": [ 1.1826872890498858e+00, 1.5023811878152846e+00,
                    1.0840303138623553e+00, 1.1866355268438926e+00,
                    1.1988227040062556e+00, 1.6849055875331009e+00,
                    1.5440817601306553e+00, 1.7564578239511919e+00,
                    1.5229755833912291e+00 ]
            },
            {
                "type_id": "opencv-matrix",
                "rows": 3,
                "cols": 3,
                "dt": "d",
                "data": [ 1.8613360022985834e+00, 1.9300604421442866e+00,
                    1.4309912597986605e+00, 1.7561950889029789e+00,
                    1.9753643854618483e+00, 1.5802766223975482e+00,
                    1.2330123992986319e+00, 1.6522766231987733e+00,
                    1.6016577175150515e+00 ]
            },
            {
                "type_id": "opencv-matrix",
                "rows": 3,
                "cols": 3,
                "dt": "d",
                "data": [ 1.1840866623065878e+00, 1.1737493694137719e+00,
                    1.1910083562518798e+00, 1.7992064893361772e+00,
                    1.0574976159787171e+00, 1.9894338194242958e+00,
                    1.8554429731885060e+00, 1.6045271419053930e+00,
                    1.3074376937905972e+00 ]
            },
            {
                "type_id": "opencv-matrix",
                "rows": 3,
                "cols": 3,
                "dt": "d",
                "data": [ 1.1728215323451974e+00, 1.7038921845333235e+00,
                    1.5920580591678339e+00, 1.5024065189833102e+00,
                    1.1347136411650214e+00, 1.7787433181174457e+00,
                    1.7351052454977018e+00, 1.2110822072132374e+00,
                    1.7800259478096472e+00 ]
            },
            {
                "type_id": "opencv-matrix",
                "rows": 3,
                "cols": 3,
                "dt": "d",
                "data": [ 1.2194592127841204e+00, 1.9530869391380872e+00,
                    1.4138661535701866e+00, 1.7501057913706517e+00,
                    1.7073710743365800e+00, 1.4683927308298339e+00,
                    1.2703105780226964e+00, 1.9208842977038363e+00,
                    1.4219066070909994e+00 ]
            },
            {
                "type_id": "opencv-matrix",
                "rows": 3,
                "cols": 3,
                "dt": "d",
                "data": [ 1.9501159892050344e+00, 1.7885721474393670e+00,
                    1.6279916031580877e+00, 1.7347505517484549e+00,
                    1.3662975456943571e+00, 1.0282657546077028e+00,
                    1.2839205130496634e+00, 1.3108119669426423e+00,
                    1.2991161377116496e+00 ]
            },
            {
                "type_id": "opencv-matrix",
                "rows": 3,
                "cols": 3,
                "dt": "d",
                "data": [ 1.7062361873285461e+00, 1.6544105155112967e+00,
                    1.6448199767011511e+00, 1.4398585794626164e+00,
                    1.9155145886286644e+00, 1.4172512059300912e+00,
                    1.8314941505861966e+00, 1.4836004974196033e+00,
                    1.0247967130122269e+00 ]
            },
            {
                "type_id": "opencv-matrix",
                "rows": 3,
                "cols": 3,
                "dt": "d",
                "data": [ 1.8311784771733017e+00, 1.5189174762442952e+00,
                    1.1365138564494841e+00, 1.0923240183192244e+00,
                    1.2294995049134287e+00, 1.6038390440426964e+00,
                    1.8549402035154217e+00, 1.0132241134194422e+00,
                    1.9738880832217141e+00 ]
            }
        ],
        [
            {
                "type_id": "opencv-matrix",
                "rows": 3,
                "cols": 3,
                "dt": "d",
                "data": [ 1.6126651741688631e+00, 1.6558513491384466e+00,
                    1.5280687130414679e+00, 9.9804820646893277e-01,
                    1.6167259829003811e+00, 1.7888562842103928e+00,
                    1.0645806766321040e+00, 1.1790511946610374e+00,
                    1.2574039954667775e+00 ]
            },
            {
                "type_id": "opencv-matrix",
                "rows": 3,
                "cols": 3,
                "dt": "d",
                "data": [ 1.8234464576398599e+00, 1.1328939997986041e+00,
                    1.7481421732482083e+00, 1.8574596471761506e+00,
                    1.0618607270623133e+00, 1.4475701780434826e+00,
                    1.7408848460426334e+00, 1.2133376297012783e+00,
                    1.2521692050228510e+00 ]
            },
            {
                "type_id": "opencv-matrix",
                "rows": 3,
                "cols": 3,
                "dt": "d",
                "data": [ 1.9053648415900173e+00, 1.3650412184969472e+00,
                    1.6440866963265173e+00, 1.4996402857225157e+00,
                    1.5479375061289815e+00, 1.0509216874064005e+00,
                    1.6967095745662488e+00, 1.8355155376613994e+00,
                    1.7289857287958370e+00 ]
            },
            {
                "type_id": "opencv-matrix",
                "rows": 3,
                "cols": 3,
                "dt": "d",
                "data": [ 1.7870111791165251e+00, 1.1761392577480649e+00,
                    1.8408746888469489e+00, 1.9866339533667223e+00,
                    1.6828830545229854e+00, 1.7140181229860099e+00,
                    1.3756351557188125e+00, 1.1937275390678634e+00,
                    1.6503005697633044e+00 ]
            },
            {
                "type_id": "opencv-matrix",
                "rows": 3,
                "cols": 3,
                "dt": "d",
                "data": [ 1.8535174489302482e+00, 1.2649260264284368e+00,
                    1.1516708624781336e+00, 1.5185498750352846e+00,
                    1.9133070723470593e+00, 1.0233449351781927e+00,
                    1.9464738465898912e+00, 1.9034740320439345e+00,
                    1.6505191773024586e+00 ]
            },
            {
                "type_id": "opencv-matrix",
                "rows": 3,
                "cols": 3,
                "dt": "d",
                "data": [ 1.3421540304275872e+00, 1.8545535344965161e+00,
                    1.5487223229802618e+00, 1.6398685620990736e+00,
                    1.5926113300791584e+00, 1.7058136875222929e+00,
                    1.9463570690509633e+00, 1.1666835716792141e+00,
                    1.7769975597818028e+00 ]
            },
            {
                "type_id": "opencv-matrix",
                "rows": 3,
                "cols": 3,
                "dt": "d",
                "data": [ 1.6070856037771009e+00, 1.3107884462967319e+00,
                    1.0987737282288810e+00, 1.8742383821481958e+00,
                    1.1693249868854612e+00, 1.0230674022805102e+00,
                    1.3732648728086276e+00, 1.1086936239975458e+00,
                    1.3782211518507546e+00 ]
            },
            {
                "type_id": "opencv-matrix",
                "rows": 3,
                "cols": 3,
                "dt": "d",
                "data": [ 1.5057705541935031e+00, 1.0927261188742516e+00,
                    1.2734270892287824e+00, 1.3740818358526248e+00,
                    1.9404027912559274e+00, 1.4483903378815792e+00,
                    1.8337414787835284e+00, 1.1557636478538438e+00,
                    1.1151629551818436e+00 ]
            }
        ]
    ],
    "Conv1Bias": [
        [ -2.9256886351736548e-07, -3.1467717883261861e-07,
            -3.4719197435297704e-07, -3.4566169660760341e-07 ],
        [ -1.8058537993366706e-06, -1.8014176386491437e-06,
            -1.7857977471507468e-06, -1.9944531100952299e-06 ],
        [ -2.7690557326484808e-07, -3.3542154421926857e-07,
            -3.0093809679306358e-07, -2.1924574480761624e-07 ],
        [ -3.9784359342895822e-07, -4.3150270317953353e-07,
            -3.9663782031160861e-07, -4.3293378360628163e-07 ],
        [ -1.2548505710302172e-07, -1.2421097117722100e-07,
            -1.1785435828707501e-07, -1.3850357464766894e-07 ],
        [ -7.9719727740923882e-07, -8.2663630483150136e-07,
            -8.1598188667506804e-07, -7.4655967705686823e-07 ],
        [ -2.2149544210126237e-07, -2.2600280263995341e-07,
            -2.1616185686283322e-07, -2.6272732175467686e-07 ],
        [ -9.0201601770278406e-07, -9.9748209251761127e-07,
            -9.2123406855769992e-07, -1.0243918822505310e-06 ],
        [ -2.5189888484860181e-07, -1.9449906992972648e-07,
            -1.8534399920980179e-07, -2.0393751990711430e-07 ],
        [ -7.7254860662155187e-07, -7.7891085194850320e-07,
            -7.2116162464276237e-07, -8.1894639864959621e-07 ]
    ],
    "Conv2Bias": [
        [ -6.1567033989532057e-04, -1.2131968332481599e-03,
            -1.4717574058949407e-03, -9.0340541488760152e-04,
            -1.5828180840383947e-03, -1.6084688783351126e-03,
            -8.5252881577085784e-04, -4.7342205935274530e-04 ],
        [ -8.3237831680282696e-03, -1.3074060142944184e-02,
            -1.6003854655167758e-02, -1.3311745590319866e-02,
            -1.3463536509982678e-02, -1.4160352966547798e-02,
            -1.2229762974731797e-02, -1.1516062788240061e-02 ],
        [ -1.5531073854016318e-03, -1.3652538304442258e-03,
            -1.4296035595927122e-03, -1.0489353868514423e-03,
            -1.7270273291559776e-03, -1.6466684038457329e-03,
            -1.6571755932247958e-03, -1.6504531867072780e-03 ],
        [ -7.4255851671926312e-04, -1.0246714854831626e-03,
            -1.4337630772847374e-03, -1.2569276103895023e-03,
            -9.6980569445347640e-04, -1.3532953861831918e-03,
            -6.3442326953683844e-04, -1.2090764662879860e-03 ],
        [ -4.3119060457810885e-04, -4.9934762989067144e-04,
            -6.0924903002461351e-04, -6.4701014449499578e-04,
            -4.7571724586758244e-04, -6.0824972195732926e-04,
            -7.7786164623246383e-04, -2.0653865015838796e-04 ],
        [ -2.3937158763955909e-03, -2.5017174701876268e-03,
            -3.6708325943569341e-03, -3.0141323695625569e-03,
            -3.0949761607967797e-03, -3.9427306428081559e-03,
            -3.3178827544402927e-03, -3.0208729266215355e-03 ],
        [ -8.9961471871200394e-04, -1.0803650087556817e-03,
            -1.3117278373272244e-03, -1.3036165651048569e-03,
            -9.5097351814429692e-04, -1.0233765267103365e-03,
            -1.0121969777640882e-03, -7.0728230293596965e-04 ],
        [ -2.8520268885413348e-03, -3.3370463814122626e-03,
            -3.8289786013254489e-03, -3.4509424495003040e-03,
            -2.4526721135936201e-03, -2.4746266040265694e-03,
            -4.0287868032957688e-03, -3.5418513301016465e-03 ],
        [ -6.5105482689767769e-04, -4.5400256561438509e-04,
            -5.9727570843348579e-04, -6.1889765532458527e-04,
            -3.8066243326271686e-04, -5.2129866244835378e-04,
            -4.7032354487318187e-04, -3.4732712368576039e-04 ],
        [ -2.0111301390057885e-03, -2.0630654296216891e-03,
            -2.0300152402976104e-03, -2.4283093203847634e-03,
            -2.2215578022516031e-03, -2.5547777386453717e-03,
            -2.5244621325217730e-03, -2.4803942868493875e-03 ]
    ],
    "w1Mat": {
        "type_id": "opencv-matrix",
        "rows": 392,
        "cols": 10,
        "dt": "d",
        "data": [ 4.3702728644151084e-01, 3.2377992847159026e-01,
            9.2347063842130761e-01, 8.5587684316697921e-01,
            8.8774306874496178e-01, 8.4760121452619541e-01,
            3.7068737430093528e-02, 6.1835576197325004e-01,
            2.1355538212358566e-01, 3.6628972710675972e-01,
            5.5545012383196180e-01, 5.4211735425981233e-01,
            3.5204709330266502e-02, 8.4215564601743187e-01,
            6.3455307540783801e-01, 6.3706600678911096e-01,
            7.9036430699565274e-01, 1.9564020660120904e-01,
            1.6036405728596936e-01, 9.7755973469854679e-02,
            3.6339762750809557e-01, 5.2266405367909781e-02,
            7.5907857410707513e-01, 2.8327700506805109e-01,
            4.9336770875580449e-01, 4.8591106247064114e-01,
            7.7297919005484506e-01, 8.0658934575636532e-01,
            6.9426648228220511e-01, 7.9957280467736272e-03,
            9.9177138537480625e-01, 4.1794884878470195e-01,
            2.2654290052501452e-02, 1.9342595452372802e-01,
            3.4140882583423970e-01, 8.1766389450932186e-01,
            2.5292773436259414e-01, 6.9930565822901258e-01,
            3.9067548629353278e-02, 6.1974913664828879e-02,
            1.8171257033242530e-01, 1.3831354572674082e-01,
            1.4993835904151603e-01, 8.3589039107015251e-01,
            2.6173571112707755e-01, 4.6770655446634568e-01,
            2.3252274396319772e-02, 7.6994554318462527e-01,
            3.6773469508162149e-01, 7.1612446965756593e-01,
            6.2186046872947265e-01, 9.1639969577169522e-01,
            1.5519664865457755e-01, 7.0929848543377472e-01,
            6.2668537761584975e-01, 2.0401894921755354e-01,
            3.2690487991037465e-01, 7.4398761727204921e-01,
            7.6224373801655226e-02, 6.0324408671908536e-01,
            5.8578078308168913e-01, 4.7847001837198944e-01,
            2.7930714292217584e-01, 5.0077597011828823e-01,
            4.2944977801697759e-01, 9.8199494612443738e-01,
            1.7210936166511339e-02, 2.2893879215174168e-01,
            7.3880141149461165e-01, 6.9425922497065351e-01,
            7.3188866064772296e-01, 2.2603818755216462e-01,
            1.8041595431281215e-01, 5.4195474499593700e-02,
            4.8970860728943849e-01, 5.2449342022859675e-02,
            6.2023091137385622e-01, 7.9309328760528763e-01,
            5.6246786478805633e-01, 4.2669187129402786e-01,
            8.9029574594216676e-01, 4.0194879987826293e-01,
            5.3728003285510684e-01, 8.3177104501503479e-02,
            7.3899660502744180e-01, 9.3393397507376685e-01,
            3.8939647731566879e-01, 3.8369553813887847e-01,
            1.7952668334952757e-01, 8.2690388985306784e-01,
            3.7359748593318520e-01, 6.8801203445368075e-01,
            7.6637304246790161e-01, 6.8253972965734044e-01,
            6.7460001522103075e-01, 4.5645983757363409e-02,
            2.4898327905996775e-01, 3.7312429918849921e-01,
            2.1029344318492826e-01, 2.4512879075634396e-02,
            7.5367768109979394e-01, 6.9500365125131391e-01,
            4.6550803169153426e-01, 4.3815838678928704e-01,
            4.8807010716962090e-01, 3.0261389808793765e-01,
            5.1263562024367534e-02, 3.0971542890993753e-01,
            3.2014306534312137e-01, 6.0516138383169482e-01,
            5.6856789027147425e-01, 8.4786255498878216e-01,
            9.3935414476102819e-01, 9.4054345347259996e-02,
            8.6318784367698842e-01, 7.8923834499236856e-01,
            6.7036104415002440e-01, 7.1335549971928658e-01,
            1.9692742845973663e-01, 7.2821547982528201e-01,
            3.3102139635060107e-01, 5.0239606990735552e-01,
            7.7826120036424562e-01, 7.7411429559103162e-01,
            1.8520857399086704e-01, 3.9575597594728473e-01,
            1.3251434774606493e-02, 9.1697613162394317e-02,
            3.3892675244731546e-01, 5.3336071196421986e-01,
            3.6486684909674505e-01, 3.3728860233051883e-01,
            6.2100798789526868e-01, 4.7084166170161790e-01,
            8.9684956461167875e-01, 4.4166979351955171e-01,
            7.1648507979602560e-01, 5.5925604326105849e-01,
            6.1627845872270182e-01, 4.4342805494630244e-01,
            3.4396934649231020e-01, 6.3298899218351162e-02,
            3.8486665004349374e-01, 1.6463910011240665e-01,
            2.9293178709056200e-01, 9.7834055207826254e-01,
            4.7350550855037860e-01, 6.7999137586365402e-02,
            3.6489757412187984e-01, 1.5445810778910327e-01,
            6.1958678962576536e-02, 9.9182063024284373e-01,
            9.1448084081433267e-01, 4.5483159720389943e-01,
            9.0267185458220633e-01, 3.2297244344093540e-01,
            2.9148749732576801e-01, 9.3357037312037539e-01,
            9.0958528016574891e-01, 3.1561940920170145e-01,
            2.9580972349955437e-01, 8.3903721598735492e-01,
            1.0632229382972122e-01, 8.4053199289507130e-01,
            9.7324955141694636e-01, 9.7946026239213224e-01,
            5.7977496645135818e-01, 6.9399928060524876e-02,
            4.2888637969491522e-01, 9.1970875994229220e-02,
            1.1270220947838279e-01, 3.2558397471542178e-01,
            8.4026324564922428e-01, 8.6416744877284096e-02,
            7.8898644607837021e-02, 2.0101660854096093e-01,
            3.5550774404019897e-01, 9.3568042113407413e-01,
            8.8494652662390472e-01, 1.1398028210987636e-01,
            9.0303038823375692e-01, 4.2042988392213883e-02,
            6.7167757010496842e-01, 8.6555948906087546e-02,
            4.3651187879030950e-01, 5.2090744530407540e-01,
            3.3216308912688031e-01, 3.2172599404647784e-01,
            2.0579690374125001e-01, 6.9769408944950839e-01,
            9.6653811981428153e-02, 4.0530810856254945e-01,
            7.8115024772015729e-01, 5.9840706771940588e-01,
            8.6141298771184249e-01, 3.3398764197916694e-02,
            6.3555970941910356e-01, 8.2587721023056837e-01,
            8.6578263835347957e-01, 9.8256254041549984e-01,
            7.1918067725708656e-01, 4.5957237147785218e-01,
            6.1082090066862460e-01, 3.2386284893509737e-01,
            7.5825208491139806e-01, 4.6478286973753868e-01,
            7.0330160716448631e-01, 1.8694750808561464e-01,
            7.0298099502786937e-01, 5.4511419121646132e-01,
            9.5065198609531587e-01, 5.7954045660920428e-01,
            9.3372895326591621e-01, 7.7592344228843513e-01,
            4.6708190303416891e-01, 8.9043495684757612e-01,
            6.5941519984832830e-01, 9.3561233202300476e-01,
            1.8272059364679983e-03, 7.9038183267190698e-01,
            1.8306024822578382e-01, 2.7551262302987828e-01,
            6.9225479433383841e-01, 5.8556280095831603e-01,
            7.8999340712307842e-01, 7.5415232322168291e-02,
            5.2288558869346780e-01, 1.4862823126794406e-01,
            5.5708092630387107e-01, 7.1809589808043661e-01,
            4.2875226764315677e-01, 6.0315222864508122e-01,
            4.7052378824167401e-01, 9.2972896562984364e-01,
            9.0828767648789466e-01, 5.8687123252824258e-01,
            5.4883402108471024e-01, 9.3267120728810782e-01,
            9.0496492255077887e-02, 9.0264272949682078e-01,
            5.3786100591867303e-01, 7.1310878905962893e-01,
            3.0616381776585572e-01, 6.4645790781172818e-01,
            4.6340538194186742e-01, 9.6467899016222672e-02,
            7.1944935758484096e-02, 4.1316139387018386e-01,
            9.8464132085084888e-01, 4.0683013182387640e-01,
            6.3888099930916953e-01, 9.6630285211814870e-01,
            8.0069268625456269e-01, 2.8358490600544251e-01,
            7.4236495339465625e-01, 7.6781377509923399e-01,
            3.3980313201786205e-01, 8.0422846260525716e-01,
            6.9118157395024998e-02, 3.3731489372673745e-01,
            6.3713281471163097e-01, 6.4441726680047628e-01,
            9.6791899969723005e-01, 5.7226558697969554e-01,
            7.0994473160148919e-01, 5.4050742745337377e-01,
            4.7807333708609279e-01, 1.0722262055510547e-01,
            7.9357006740335093e-02, 5.4478820705787923e-01,
            2.2542337704658931e-02, 8.6981320857316657e-01,
            7.2673311787828454e-01, 6.7118953711758655e-01,
            5.1345102695371658e-01, 2.2098713984417201e-01,
            2.2005940249398956e-01, 4.9245302804429392e-01,
            8.7762621518329842e-01, 4.7156286423500138e-01,
            2.9625537564703475e-01, 2.8374387755397926e-02,
            9.0121171798099586e-01, 1.6699226722288610e-01,
            2.9484643508944330e-01, 9.9522873367083131e-01,
            3.0769687334390411e-01, 1.7417012637812088e-01,
            5.6627329988764552e-01, 6.1770811594326835e-01,
            2.7705657646058485e-01, 4.4599787169770855e-01,
            8.2573956184898281e-02, 8.2461471843623757e-01,
            9.4268749051441969e-01, 5.5926034469157837e-01,
            4.2249347129978375e-02, 9.8093978536024840e-01,
            2.6066238680501991e-01, 8.1634989133933922e-01,
            4.9452188762388716e-01, 7.5995350662082328e-01,
            3.9616985540018534e-01, 4.5515511090894456e-01,
            2.8339402043285439e-01, 4.3242506353077648e-01,
            8.9318783016183168e-01, 1.1052049455660529e-01,
            4.7210260036777224e-01, 3.7076181862150909e-01,
            1.4556566342812594e-01, 8.3511146212039311e-01,
            5.0504800070910760e-01, 5.8238585121007180e-01,
            8.3088751853456388e-01, 2.6572606011631150e-01,
            9.0602015566675478e-02, 4.4609631183898907e-01,
            4.7828673545945222e-01, 5.6631133542587564e-01,
            6.3042500446119243e-01, 1.4516954981249980e-01,
            1.0985969642439376e-02, 4.1511790645397179e-01,
            2.1109236520728150e-01, 4.7570488965157537e-01,
            4.7964740697857206e-01, 7.5573190152140701e-01,
            9.0770362670915294e-01, 1.1932850851264283e-01,
            3.8106376760753174e-01, 1.0808943125811982e-01,
            2.5172081887444769e-01, 9.4623364907374286e-01,
            4.7127841100974240e-02, 5.9484538482615723e-01,
            3.2498479521255380e-01, 8.1740453335018515e-01,
            2.2544376863255064e-01, 2.1322611961223117e-01,
            6.7189519180264734e-01, 8.5864113131182596e-01,
            8.4131522464228337e-01, 1.1284881385091973e-01,
            8.9226343696766286e-01, 4.9879038528671504e-01,
            4.9567142336783965e-01, 4.4118669400758409e-01,
            2.3549939189836780e-01, 2.6929385973733604e-02,
            2.9096599947211321e-01, 3.2611571552593815e-01,
            2.5710115422876899e-02, 5.4084867380898682e-01,
            7.9875242225834697e-02, 9.3031731725472322e-01,
            1.8675551684045244e-01, 4.5630129462758628e-01,
            1.8685725979738335e-01, 6.0105931961447867e-01,
            9.8954467315306038e-01, 7.2266270914062247e-01,
            5.7413642515004193e-01, 7.7102152300862287e-02,
            1.4089300713993130e-01, 6.0304575937296567e-01,
            8.4777938277267628e-01, 6.7994845717082097e-01,
            6.7748958378881385e-01, 3.2521036858655206e-01,
            5.8185908330665115e-01, 6.9704258283152665e-01,
            7.4984028227853294e-01, 2.1966989177277879e-02,
            2.1639776401005750e-01, 9.4633859353838534e-01,
            4.8785185913370099e-01, 7.5981452005469663e-01,
            6.4436210549861372e-01, 7.0071927836529668e-01,
            8.5780543646323948e-01, 1.2316348729314101e-01,
            8.3094652017276838e-01, 8.2946878166873284e-01,
            7.2202908049970604e-01, 2.1097619236368669e-02,
            6.3013605077571505e-02, 7.4660569154270151e-01,
            2.5044813547822880e-02, 7.3165572952507218e-01,
            2.5706968497144739e-01, 4.7600562088389503e-01,
            1.9967034063153644e-01, 4.0111986307205028e-01,
            8.1381390872178341e-02, 5.0024141595805394e-01,
            9.4459755798833034e-01, 4.7868047695072596e-01,
            7.9752855410091117e-01, 3.4456251760460282e-01,
            3.9830574480668240e-01, 7.6396950686451115e-01,
            4.2954152789368555e-01, 5.3778716547432981e-01,
            4.0599579343745912e-01, 9.0061755294745860e-01,
            6.4660880950300648e-01, 5.4008422796138322e-01,
            4.0605348527202462e-01, 3.5825052987960543e-01,
            3.9759677409853963e-02, 3.0042990561545685e-01,
            3.8197851559554941e-01, 8.3760293827754495e-01,
            1.0639757653057411e-01, 2.1884384589612252e-01,
            5.1502839033573411e-01, 2.7907985722372392e-01,
            4.2453112104714308e-01, 9.6598656641844716e-01,
            1.6462966828205833e-01, 9.0014821368077436e-01,
            7.1524644659621206e-01, 3.4835037138605235e-01,
            1.1642319001763768e-01, 7.9458322277322635e-03,
            9.1230709209882555e-01, 4.4772661452892698e-01,
            2.2078778926382098e-01, 3.7951619584184321e-01,
            3.4179974529449730e-01, 2.4683053737498425e-01,
            5.2602974783922019e-01, 8.3947961816392935e-01,
            5.2229387210832456e-01, 2.6092366427468350e-01,
            7.1223335602349525e-01, 6.9235031749713660e-01,
            5.3403009638670329e-01, 8.9781607265358709e-01,
            8.2398890298262661e-01, 6.1235053963339514e-01,
            7.4234916524946780e-03, 7.5652610895915473e-01,
            3.2366881862967316e-02, 4.8445660241128102e-01,
            6.0994510843916794e-01, 5.2453535703209830e-01,
            6.3973754976244201e-01, 6.8030076401762940e-01,
            9.0408669107614537e-01, 1.4727313478181378e-01,
            8.0449632613431032e-01, 4.0443956688726013e-01,
            8.8870188726902033e-01, 1.6680794568068572e-01,
            6.9939421606908947e-01, 5.3217251737114979e-01,
            5.2519982206170979e-01, 2.4672261086313585e-01,
            4.3955929074008004e-01, 8.9292549129590104e-01,
            1.4950878199222603e-01, 2.5474716840058387e-01,
            8.9128837057239274e-01, 1.3878145504586625e-01,
            3.9790718982840817e-01, 1.2729127268892751e-01,
            4.2355270199494988e-01, 5.2376335268848928e-01,
            1.1187193509562521e-01, 1.9632764646658082e-01,
            3.0117468290105276e-01, 6.6073977548242646e-01,
            1.5057303005732620e-02, 4.9490412527934363e-01,
            7.7278182779082349e-01, 2.0289409836483474e-01,
            1.8583405180217805e-01, 3.1413337856995388e-01,
            4.2081450153827377e-01, 7.8617315806749499e-01,
            5.4130367731617457e-01, 5.7310865075328687e-01,
            7.9449869274881080e-01, 6.3184522215406891e-01,
            7.6699933924895070e-01, 7.6938845036991732e-01,
            4.9689101177762046e-01, 9.8835562378324160e-01,
            5.6356906245217914e-02, 9.0921359519670375e-01,
            2.0829739496713048e-01, 3.3038062750870019e-02,
            6.6899062964823219e-01, 8.7470993702301769e-01,
            4.4062391843008675e-01, 9.5578785635073404e-01,
            6.1959610305020185e-01, 9.0349911738408306e-01,
            9.3802984064036132e-01, 7.6670301485099490e-01,
            1.8194560708169807e-01, 2.1757200332107499e-01,
            1.3276875200385060e-01, 6.4146077369441967e-01,
            1.8112713141401410e-01, 8.6767635321312309e-01,
            9.9819868133430334e-01, 1.0055178329619088e-01,
            9.8058870882252791e-01, 3.9218870741639267e-01,
            5.1194262925889876e-03, 9.7655394052421163e-01,
            8.2644941862038648e-02, 6.2296269353135025e-01,
            6.0522743547473334e-01, 6.2006446767815929e-02,
            8.7481147340014886e-01, 2.9248233953068381e-01,
            5.3099968199578407e-01, 2.3574391863152991e-01,
            7.5866980200532141e-01, 9.8987795385541566e-01,
            3.2473317198143686e-01, 5.7243449076424280e-01,
            9.0973623431206616e-02, 8.3597171887587374e-01,
            8.0914187731412479e-01, 5.2816783644047194e-01,
            1.2127998113896968e-01, -5.0299890071490647e-04,
            9.6990077903478322e-01, 2.3716009499828630e-01,
            9.5039638776192453e-02, 2.9974284646071203e-01,
            9.6723106379828061e-01, 7.0811372518136917e-01,
            7.1752582357689976e-01, 6.1856917698875435e-01,
            6.9941976643399550e-01, 9.1190718356906608e-01,
            9.6012919911321093e-01, 3.1314266218871273e-01,
            8.5061776741472150e-01, 9.6093046787398162e-01,
            6.7270184352180218e-01, 4.2500009176661968e-01,
            1.4313352179099306e-01, 1.7538560453562246e-01,
            5.3516421480449640e-02, 9.0334887448968748e-01,
            2.3804342346198912e-02, 6.3751153789648662e-01,
            1.1114669623001966e-01, 8.2185403956425318e-01,
            1.6253836783374448e-01, 1.6836487587793808e-01,
            2.4234942641633075e-01, 9.2862993037545083e-01,
            3.3789619271336957e-01, 5.0967465713456761e-01,
            9.5080801673180437e-01, 3.5256406616720964e-01,
            3.0629625083292883e-01, 7.5179961645949855e-01,
            4.7661999992396467e-02, 9.5514431963329705e-01,
            1.5954426593811635e-01, 3.2882119880326188e-01,
            3.7437141832385135e-01, 4.0240523552601809e-01,
            1.9248584251566567e-01, 3.5497901897664708e-01,
            9.6900552983120414e-01, 3.0261131589264706e-01,
            7.2492234764077912e-01, 4.4326351315874424e-01,
            3.1851318284425556e-02, 2.7118616388133293e-01,
            8.3440771235944367e-01, 2.2295700028765930e-01,
            8.6344843669414018e-01, 8.3731716693955516e-01,
            4.6969623658989368e-01, 1.3223912988063891e-01,
            5.7654769974546838e-01, 1.5282216419276490e-01,
            7.3160712383006188e-01, 5.6441099694487107e-01,
            2.4791315067135608e-01, 2.5362160034297060e-01,
            4.0064439527596357e-01, 6.2295145020918152e-01,
            2.9984004975665079e-01, 4.3599274815416500e-01,
            3.4257518326340157e-02, 8.8554763871259146e-01,
            7.3953982415176908e-02, 1.1383698989233245e-02,
            9.1618199751961238e-01, 6.4293120645272164e-02,
            9.1279808486220484e-03, 8.8636857387381418e-01,
            6.7749254265643588e-01, 5.1839193262955074e-01,
            6.0021403239608360e-03, 5.8857811234407198e-01,
            7.7245251898867118e-01, 4.3588832529119087e-01,
            2.1649308395025935e-01, 5.6386230960305694e-01,
            9.0097416630678273e-01, 5.2980324408219559e-01,
            5.8387978567206278e-01, 5.5240759419717611e-01,
            1.7786295826863957e-01, 1.6353784437950818e-02,
            5.5944559844048414e-01, 2.3932805095254100e-01,
            1.4641307430579320e-01, 7.1986208931657492e-01,
            4.1309508580597371e-01, 4.4481611045271913e-01,
            1.9752018066139640e-01, 9.9644243769732732e-01,
            3.4181380597246791e-01, 5.7364757566678559e-01,
            8.3530490842522820e-01, 1.6919316342624940e-01,
            7.0812017659347942e-02, 1.3942386314164273e-01,
            6.9499531035117657e-01, 7.3918582748987294e-01,
            7.0312895561219266e-02, 1.3745187929453229e-01,
            2.6427329184949999e-01, 7.1993001664960499e-01,
            3.1785753317132952e-02, 8.2978245557714836e-01,
            3.0191469641526808e-01, 9.0465530536175920e-01,
            3.5202092839571592e-01, 4.8510968174691738e-01,
            9.0401587923067706e-01, 9.2978699591872394e-01,
            3.0168750220615281e-01, 2.7312613618537457e-01,
            7.7357800447043534e-01, 5.1093751534383303e-01,
            1.2243258806109837e-01, 3.8360060504858284e-01,
            7.2598573814608558e-01, 9.9176133928594801e-01,
            1.4785329995361107e-01, 7.4373612214704454e-01,
            6.5025921118171473e-02, 6.6042465958538588e-01,
            6.1616302754413077e-01, 3.5572614943877945e-01,
            1.7898202242114905e-01, 7.5806248028920220e-02,
            1.2084976298543255e-02, 1.6144345663674947e-01,
            2.5294510274699250e-01, 8.6033131633208160e-01,
            7.9112562168392575e-01, 5.6382585154889098e-01,
            7.2645078596188473e-01, 3.1628586538989234e-01,
            1.3853546448577225e-02, 8.2477859997309733e-01,
            8.1365616023579612e-01, 9.9908633317772921e-01,
            7.2512353931915385e-01, 8.9194792907981235e-01,
            3.0019621925800388e-01, 7.2321418745655697e-01,
            2.2306112821356200e-01, 5.0103148488367377e-01,
            8.1168425614478290e-02, 6.4315537441604453e-01,
            2.5957059762892326e-01, 4.8655074856337022e-01,
            5.9789814807546726e-01, 9.4267395933376630e-01,
            2.7988102514073993e-01, 4.0203207064961982e-01,
            1.0279019324547667e-01, 6.2359048285856711e-01,
            7.5525760721295663e-03, 1.7784619151351563e-01,
            1.5596609433296776e-01, 7.8653027302386391e-01,
            4.1573970718321424e-01, 2.1069786527384013e-01,
            3.7718537282303427e-02, 3.9110796289520394e-01,
            8.7700743282406324e-01, 2.1931489585882674e-01,
            5.8964193733639103e-01, 9.3772471125160173e-01,
            2.3511105623758050e-01, 9.7318500161218158e-01,
            2.7223759330758507e-01, 5.6467841940186447e-01,
            7.0960976327393599e-01, 8.6388409599706825e-02,
            9.4866187265562618e-01, 3.7690448987944253e-01,
            8.4376257351667905e-01, 4.0937531215903272e-01,
            8.0362837716585228e-02, 1.5598095205081125e-01,
            5.4217041417486667e-01, 5.6682065030697650e-02,
            5.6928844923274202e-01, 5.2500405652173876e-01,
            4.5694112492519451e-01, 1.4078984528903896e-01,
            1.2936892809577827e-01, 4.2444783925266927e-01,
            3.7741932135555038e-02, 9.6978506982604518e-01,
            6.1649922468695395e-01, 9.5122564614992966e-01,
            1.7133426623021222e-01, 5.3476333823703273e-02,
            7.2686777270289404e-01, 4.7213945017501457e-01,
            4.6688584453302229e-01, 1.4851978649968980e-01,
            4.2445572167000470e-02, 4.8248991682374071e-01,
            8.5966955104577936e-01, 8.0844911951695864e-01,
            7.6728554896265821e-01, 5.9912854401071236e-01,
            5.7960172730523163e-01, 2.4653094848093171e-01,
            2.3260787601467273e-01, 4.3342066240465094e-01,
            5.6992026099132753e-01, 7.5037337404978999e-01,
            9.1820960351222836e-01, 9.1709861918297386e-01,
            2.6005597812421670e-02, 4.9810156183207682e-01,
            9.9894288678241627e-01, 2.9067032298068513e-01,
            1.7136828837731821e-01, 5.0480484043201534e-01,
            9.2489007880997731e-01, 3.6786198844009188e-02,
            9.7696463191512883e-01, 7.8667259793186325e-02,
            6.0433377319565595e-01, 1.6315731821315294e-01,
            7.9782364620371904e-01, 9.0516525219241206e-01,
            4.4960336236889986e-01, 6.4477060002034836e-01,
            8.9342368063456823e-01, 4.9208475502818666e-01,
            2.6683901341472099e-01, 4.8915357145714899e-01,
            7.3220612798631413e-01, 1.4485950753196353e-02,
            3.4500088488851999e-01, 5.2453710433446499e-01,
            1.1802546852604737e-01, 4.5144944042613677e-01,
            8.3169536873152383e-01, 4.3324870566960834e-02,
            6.0942548965669108e-01, 6.7482109509371608e-03,
            8.0775523411495731e-01, 5.4198219411459581e-01,
            1.9024546567461800e-01, 4.9384058206813802e-01,
            3.6541057479798889e-01, 3.8435096948802192e-02,
            7.2587027377621793e-01, 3.9728410547071585e-01,
            1.6730341436826543e-01, 3.6191526827976161e-01,
            3.7886642800263604e-01, 3.3561618822945616e-01,
            1.8959188983688072e-01, 3.6718492732813435e-01,
            9.9791300764722135e-01, 9.8414190146854241e-01,
            9.2133546781816955e-01, 1.6927126895488601e-01,
            4.5513578377736463e-01, 9.8281012217930774e-01,
            3.7977771056593052e-01, 6.9854082395544526e-01,
            9.8982497146869908e-01, 8.6049087737952212e-01,
            1.3385941135929305e-01, 6.3818805697236691e-01,
            1.5758386264261726e-01, 7.7445667553109143e-01,
            4.3952012763538256e-01, 4.4070236847813860e-01,
            8.2390566006441818e-02, 1.0323680646711358e-01,
            6.4602198499439711e-01, 1.4335439055517962e-01,
            4.9378650724531120e-01, 4.3744268888325449e-01,
            6.2054588457955828e-01, 8.5402560785511927e-01,
            8.1804050068571843e-01, 5.8054655900486148e-02,
            9.7790004453681259e-02, 4.8006383306229272e-01,
            6.3628465155129960e-02, 6.4747229371954818e-01,
            8.4517428928773330e-01, 4.0917122879559858e-01,
            9.1180624772007446e-01, 9.9176146760768413e-02,
            6.9073499916921155e-01, 8.7701034600929650e-01,
            1.5889462602304311e-01, 5.1577187893864862e-01,
            2.9956000505530006e-01, 1.1236960502810642e-01,
            1.0504145803776579e-01, 7.8850081037008524e-01,
            4.6455295189008666e-01, 1.8470226717146876e-01,
            9.9437943282701502e-01, 6.6909622916430533e-01,
            6.8295917108253090e-01, 3.0332111397416228e-01,
            6.5274944720157413e-01, 3.3737697436457914e-01,
            7.2429079458721723e-01, 3.8447799306371278e-01,
            1.2722850415576681e-01, 3.6665611215653082e-01,
            7.9734975766808280e-01, 8.5282695492600458e-01,
            4.8608335179783857e-01, 3.7598569141937382e-01,
            9.3118056183945508e-01, 4.2528252222388335e-01,
            3.1284040333952123e-01, 9.8668723560454100e-02,
            5.1192018437439524e-01, 9.2749002554389193e-01,
            9.4038944450918438e-01, 8.5208700808534599e-01,
            9.0042220010097307e-01, 2.1307215353293460e-01,
            6.7989145925468075e-01, 2.9319403549264206e-01,
            1.6254964181927553e-01, 3.9772133183974179e-01,
            2.2994763230831300e-01, 8.0376364990568461e-01,
            4.9507852192056317e-01, 6.7952255094453640e-01,
            4.2442724653593589e-01, 9.8622092681711537e-01,
            3.9165764282127075e-01, 6.4193377106955751e-01,
            2.6554341790163399e-01, 3.7891266674079710e-01,
            1.3262122569261192e-01, 6.3639347153664672e-01,
            2.8957124659620032e-01, 3.2326095995371745e-01,
            9.0624286388919495e-01, 5.9490458784081190e-01,
            5.6336013713274913e-01, 3.1440632385463663e-01,
            1.5618041159851326e-01, 8.3571244397528421e-01,
            8.0135695629015569e-01, 5.1415432076301026e-01,
            7.7812511414356755e-01, 1.4928676045100606e-01,
            2.3401021520423274e-01, 2.3941850594234604e-01,
            2.9124337431423875e-01, 5.8628533577523267e-01,
            4.0343469769482210e-01, 1.5232838969250670e-01,
            8.1781720370202793e-01, 2.7790645064455218e-02,
            8.5161494318412634e-01, 1.0834341120850587e-01,
            1.0809048631508787e-01, 8.5685788555927733e-01,
            1.7787672167022942e-01, 6.5364109689920491e-01,
            8.8054803175241581e-01, 5.7135672652687275e-01,
            7.6822994634356534e-01, 6.0783665674893972e-01,
            7.9205919970793126e-01, 1.9474441550262767e-01,
            3.4935167264375078e-01, 8.9785840443004294e-01,
            9.6519519911049012e-01, 2.4771299742519226e-01,
            2.6467278866886429e-01, 9.3106842527853595e-01,
            8.4437229501296807e-01, 1.0839899759995891e-01,
            9.8008767883005565e-01, 2.3169922891381839e-01,
            8.8854113053223738e-01, 8.2336831048237535e-01,
            5.1203157532315580e-01, 6.8844443894720564e-01,
            9.3537599801758442e-01, 2.4363812618885652e-01,
            4.2569313526907723e-02, 2.8184989117203835e-01,
            3.2325915643565473e-01, 8.0421082045865822e-01,
            7.9787252718963128e-02, 1.9991708381115128e-01,
            5.3319029600421231e-01, 8.6348076440061328e-01,
            5.3205465386056261e-01, 2.5355751101612289e-01,
            9.3539044342503930e-01, 5.1087638992867612e-01,
            7.4879099260541204e-01, 8.3072547525391971e-01,
            2.2882376807131136e-01, 6.8811262271893714e-01,
            4.2361202697611910e-01, 6.8425886145373899e-02,
            9.9203784530957226e-02, 8.9596099069748192e-01,
            1.5469091688388553e-01, 7.5089527444461762e-02,
            9.6949870964227591e-01, 9.7085465439255592e-01,
            8.3083752877795458e-02, 6.9801046871226491e-01,
            4.1426823900499549e-01, 9.9328287318616948e-01,
            5.2886264354293860e-02, 7.1666076991614169e-01,
            9.8027490528693706e-01, 3.9140202527933576e-01,
            3.7668009738840252e-01, 2.1916857241923485e-01,
            4.7104254087081626e-01, 4.6174515996357429e-01,
            3.7986639271236133e-01, 9.5821473180263950e-01,
            2.0685572477034109e-01, 1.1171220027402209e-01,
            7.7034302031041291e-01, 5.0603738816486565e-01,
            1.2910465489362299e-01, 6.9974566636212687e-01,
            4.1523522537892446e-02, 4.9126939395414038e-01,
            6.6125002308210079e-01, 9.1488507650359829e-01,
            3.0210106829233851e-01, 5.9588401992288675e-01,
            9.1241900555160371e-01, 5.5082049183545867e-01,
            4.8522749032110013e-01, 4.2928150900532308e-01,
            4.3397019894354516e-01, 4.5729443801233705e-01,
            8.2148567166372777e-01, 7.2250009405234605e-01,
            2.5341480120232895e-01, 2.9096911565417710e-01,
            4.9638042574463714e-01, 3.9058146702716173e-01,
            6.2378077276688193e-01, 5.7661442085949388e-01,
            7.2511662217629003e-01, 3.0788108227579614e-01,
            2.6938186458305913e-01, 8.4708186155930087e-01,
            7.9348493327170933e-01, 1.3197220139337515e-01,
            6.6234422754638744e-01, 8.0608398339612941e-01,
            1.5744982552235950e-01, 1.6485170516014783e-01,
            1.1700847968540423e-01, 3.7821105597662462e-02,
            7.2453395722979830e-01, 2.5495141088333267e-01,
            3.2630271556425233e-01, 9.9770821739077842e-01,
            1.6598108941404857e-01, 6.1613837905470847e-01,
            3.5018444715836228e-01, 9.6110577127082564e-01,
            5.2398784094978457e-01, 2.8509571147809804e-01,
            9.3706924926349455e-01, 4.1091572355477335e-01,
            4.8740086019210771e-01, 7.4413122721319003e-01,
            2.1613563031518032e-01, 7.6591428160883690e-01,
            7.7152825990091367e-01, 5.1976425521215408e-01,
            1.4132786521837418e-01, 2.4021870895011035e-01,
            5.8530867190331259e-01, 4.9832049936317391e-01,
            7.5698876408894056e-01, 3.2784630186071206e-01,
            9.7091541364033618e-01, 6.8323130483267147e-01,
            4.5735115302229751e-01, 7.4247807109098629e-01,
            9.5630453710092378e-01, 5.0530092874429766e-01,
            3.6577820430671681e-01, 2.4050455558085373e-01,
            1.6814007907994660e-01, 7.1625627498739242e-01,
            7.7840811793340281e-01, 1.1844722816450963e-01,
            5.1556878924642435e-01, 3.5718201226092711e-01,
            5.1490160491211312e-01, 5.2560928283448538e-01,
            6.5283581659587786e-01, 6.4162774345332341e-01,
            5.9491323884751790e-01, 1.2784934161423672e-01,
            6.2025524045621880e-02, 6.3318486339584190e-01,
            2.2374170245729497e-01, 8.9273977864061793e-01,
            2.2808436829456372e-01, 7.0844045988857429e-01,
            4.2728214069391501e-01, 7.6269396060468753e-01,
            1.7845721902568432e-01, 3.7453366559178042e-01,
            4.6668866147302457e-01, 8.2899947716236799e-01,
            4.4292672403737043e-01, 5.4932547814120963e-02,
            1.0490273892062521e-01, 1.3546740945082889e-01,
            1.2395066993423705e-01, 6.3296160589671668e-01,
            8.8323178208925235e-01, 6.2748671494904706e-01,
            6.6692998229190703e-01, 7.8459381801795292e-02,
            3.5355894486731054e-01, 6.3563230869019452e-02,
            4.9917402768641173e-01, 4.6599136732942401e-02,
            7.2447786531371094e-01, 7.1567937464594356e-01,
            1.9020773493000914e-01, 9.7684794861798085e-01,
            5.1436469226601100e-01, 5.2297384006833714e-01,
            8.0962609695911769e-01, 9.0174086770978934e-01,
            3.2531139892049293e-01, 7.7021927688564862e-02,
            1.2478102267410189e-01, 2.0631270962883724e-01,
            5.0214942942489560e-01, 5.4927238674081036e-01,
            4.1393327917642453e-01, 4.2426254275683301e-01,
            9.6035137744000143e-01, 7.4572943519295198e-01,
            6.7957530433976665e-01, 7.1572113223081957e-01,
            8.2138866789649501e-01, 6.0397726584740918e-01,
            9.1607743350085657e-01, 8.9300714859479169e-01,
            4.7473656049293522e-01, 3.7983813172872266e-01,
            3.5469527467510586e-01, 1.8715531516878009e-01,
            2.9536943703599583e-01, 1.3899232532445904e-01,
            5.6603782342177122e-01, 3.9823962251472950e-01,
            5.4111758126054021e-01, 2.4220103353999285e-02,
            4.3810292309543269e-01, 4.6403347868547246e-01,
            6.6066724898520390e-02, 6.2184809703015187e-01,
            9.6305607693477735e-01, 5.3900790299611612e-01,
            4.5899126782691158e-01, 7.0552030162471926e-02,
            8.5624957466717366e-01, 2.7725881705578082e-01,
            7.2836957842711691e-01, 9.9835556236460110e-01,
            3.3822269145503681e-01, 8.0001697244594938e-01,
            8.5158897260013189e-01, 4.7479793945974086e-01,
            2.0353382738337153e-01, 5.7424004482672120e-01,
            6.0080233172679598e-01, 9.2689265273270249e-01,
            5.4826539310695632e-01, 3.3221028697579796e-01,
            9.7818126944001027e-01, 5.4038472439225294e-01,
            8.0440905102420357e-01, 8.3043037499016015e-01,
            5.0026615864545508e-02, 5.2634780516875124e-01,
            5.1072727666474393e-01, 4.9027369097676943e-01,
            7.5055990284889951e-01, 1.2291494172883144e-01,
            7.2866598517213588e-01, 8.9244656958677160e-01,
            4.8622962268874509e-01, 8.7688688586411301e-01,
            4.1880264436309256e-01, 9.3560476885676913e-01,
            6.5692439599601193e-01, 8.3858626423462812e-01,
            5.1985536029798496e-01, 6.8233387782467209e-02,
            2.1374233872153506e-01, 1.6754632127281169e-01,
            1.5809875513183361e-02, 3.9265624189554260e-01,
            7.5131603984470674e-01, 7.8114916512029964e-01,
            6.3090030040550704e-01, 7.5168783817464335e-01,
            7.1451051009348940e-02, 1.9100333345357637e-01,
            8.1946065604428808e-01, 1.2400292032428860e-02,
            7.3718504558793108e-01, 7.9624786655960744e-01,
            4.2584649310319722e-01, 2.4205392686564192e-01,
            9.3490554900710579e-02, 5.2851143517787924e-01,
            1.0607643265181597e-01, 2.1728205784837296e-01,
            5.9924993761088818e-01, 6.3899203590899056e-01,
            4.8595495588090515e-01, 4.0319532522950008e-01,
            7.5098886709220680e-01, 2.7967363167368892e-01,
            3.0892502499051941e-02, 8.3771724145575066e-01,
            6.2094944028024923e-01, 2.5014488729609985e-01,
            5.0476015602780511e-01, 3.0768160483820789e-01,
            2.2733962288899515e-01, 5.7981104594965460e-01,
            8.0268279387576330e-02, 7.1173067887391739e-01,
            9.6451863210315514e-01, 9.5793187534648910e-02,
            5.6936930569070021e-01, 5.9476577345862047e-01,
            5.1519676738173659e-01, 6.2405611000476713e-01,
            1.2094174280438234e-01, 3.3752354718933447e-01,
            6.0016185435373504e-01, 7.6981774930993074e-01,
            5.0075812484913040e-01, 1.8343878244414805e-01,
            1.0476016674197598e-01, 9.3061658085864318e-01,
            4.2160619502830282e-01, 9.9302359318980390e-02,
            3.0355226984226108e-01, 8.4540124413226025e-01,
            8.2579730102360294e-01, 6.3468095807571900e-01,
            3.6302523150056731e-01, 9.4241136908084583e-02,
            5.8853272566528525e-01, 8.4861648209386042e-01,
            9.1018559444012614e-01, 1.2222474743418496e-01,
            4.2552167499842231e-01, 2.1634999452265063e-01,
            6.1990791987490995e-02, 1.3325560670519324e-01,
            4.3384379920859008e-02, 5.7185255955145209e-01,
            9.1362768398315741e-01, 2.9614390985648720e-01,
            4.3661106953362561e-01, 1.8105237856994927e-01,
            9.1736450896922506e-01, 7.9798726321460497e-02,
            2.7475554104870042e-01, 4.0116178482267401e-01,
            2.4055935282050561e-01, 3.9854603824669971e-01,
            3.1939238089166316e-01, 7.1826829564464756e-01,
            7.5874949834946059e-01, 6.8554908162235140e-01,
            9.6137025159880407e-01, 2.4476278131852786e-01,
            3.3864267415207366e-01, 5.1491399778788338e-01,
            1.9025461781761047e-01, 7.6224034491572876e-02,
            9.0547854621426582e-01, 7.6518784039742838e-01,
            3.4054458882350808e-01, 6.8044743098621696e-01,
            1.7247431921647935e-01, 1.8791956220289410e-01,
            4.3393534756094448e-01, 2.2823053128859197e-01,
            6.3521548960032448e-01, 1.0651872193720353e-01,
            3.5085573450402868e-01, 5.2426805516525776e-01,
            4.2790870421324917e-01, 5.5388611129725052e-01,
            7.3560938800962561e-01, 4.6370955667291680e-01,
            9.3773040781336015e-03, 5.0884451292978528e-01,
            7.7173203773104548e-01, 6.7664837613526785e-01,
            8.9099265072795281e-02, 6.0807269763743987e-01,
            6.4060288999271953e-01, 9.1109210011589714e-01,
            7.2799752795377259e-01, 2.0546216904107911e-01,
            4.7277966623663870e-01, 2.3732649092932231e-01,
            9.1605492078454942e-01, 2.9981053576500927e-01,
            4.0202194153025017e-01, 5.2662622698894435e-01,
            7.2537014540724742e-01, -3.4752496555865201e-05,
            4.3767236442840179e-01, 9.4389826745160527e-02,
            6.7940507051907761e-01, 9.8219427663998771e-01,
            9.2732405426613362e-01, 1.0448234291162674e-01,
            1.9430283158464745e-01, 5.0642444263123154e-01,
            5.5397108752300561e-01, 1.2263352981695258e-01,
            9.6230898259031761e-01, 6.2150334581841060e-01,
            3.8696356582023652e-03, 8.8873985849660497e-01,
            5.5276077403245372e-01, -5.6509326656887090e-03,
            8.4642997876409676e-01, 5.9397997843268358e-01,
            9.6088486609658352e-01, 6.7452046532437249e-01,
            4.8607303420096420e-01, 5.0486141101129867e-01,
            6.2896519345384827e-01, 7.5454630088125907e-01,
            9.3981376154007190e-01, 8.6659098695435199e-01,
            9.0483458309917697e-01, 7.7463290030260101e-01,
            1.8119608179743255e-01, 5.9319387362186637e-01,
            3.5531898720031468e-01, 4.1756797181933852e-01,
            2.1941771549845857e-01, 8.5433162130679052e-01,
            7.6681628624222697e-01, 1.0651881582068706e-01,
            4.9264145655668867e-01, 8.5541324191366364e-01,
            8.3481597763776949e-01, 5.3957785862599486e-02,
            5.4385274642085735e-01, 8.0840474162924714e-01,
            3.3809078289555528e-01, 7.1358002015074296e-01,
            4.9657837208816741e-01, 4.6516631387245549e-01,
            8.5878693153437746e-01, 8.7439370975671815e-01,
            7.1837327629312253e-01, 3.9579452507739726e-02,
            5.5052236740540339e-01, 4.4952287288970300e-01,
            5.6373502470929748e-01, 4.3726328005317355e-01,
            2.9260276617704767e-01, 7.5377681185779866e-01,
            4.9501500450310054e-01, 9.6435950039883656e-01,
            2.9793296655213469e-01, 9.5857946875704272e-02,
            8.5948289395322974e-01, 8.6267182739288806e-01,
            2.1867570274344250e-01, 2.0443227574187716e-02,
            8.1172522725563767e-01, 2.3859648475772152e-02,
            1.8089149737805119e-01, 5.8388895091073215e-02,
            1.8886216644702086e-01, 2.9783422612138490e-02,
            5.2103546591105543e-01, 6.4675451513878990e-01,
            5.0050489247120589e-01, 8.2585184679969526e-01,
            1.9570167096283783e-01, 6.8571635769132044e-01,
            9.7245377582986259e-01, 8.8491523414306866e-03,
            2.2130276494934339e-01, 7.2179378385637216e-01,
            3.7941170099557420e-01, 8.6587353041952453e-01,
            1.7611004584226397e-01, 1.5535724271016546e-01,
            3.3566247874302832e-02, 1.4504155371401259e-01,
            1.2799025009456866e-01, 2.1599863286672797e-02,
            6.1335823401700906e-01, 3.2806432549359671e-01,
            6.6548859345926259e-01, 7.2022126635070394e-01,
            3.4879160469180520e-01, 3.7968726653438395e-01,
            2.6178351659390964e-01, 5.5825226925560845e-01,
            7.3534205130400665e-01, 9.4813238120296506e-01,
            8.5999554071709738e-01, 4.4315736624598917e-01,
            4.9611724897002468e-01, 6.9257897234932619e-01,
            9.2733072676592587e-02, 8.9502432814224475e-01,
            8.6215390128163083e-01, 6.3110014063708209e-01,
            5.3781546268942737e-01, 2.6405760738329764e-01,
            2.0651279330691721e-01, 2.4195209721737684e-01,
            4.0848290528195791e-01, 7.7212181096259114e-01,
            6.2894635560699852e-01, 6.9580352206666951e-01,
            3.0064982225487835e-01, 3.1518429866197056e-01,
            5.2257892357456215e-01, 6.4525449431538012e-02,
            4.9282870181638745e-02, 4.9614113867406484e-01,
            9.5065678613692917e-01, 9.8252835019905926e-01,
            3.6269162352167961e-01, 7.1214769480041851e-01,
            6.8724775790276060e-01, 3.5927892272930896e-02,
            4.0048980626354552e-01, 8.4266711282769302e-01,
            6.9533444060290617e-01, 1.2681724729919461e-01,
            6.9108551927299344e-01, 5.9627959227576410e-02,
            1.1444003049510691e-01, 8.3560583317947834e-01,
            4.6620267640417982e-04, 8.5202271466533308e-01,
            5.2950152626196612e-01, 1.1016805860833401e-01,
            9.2756173078648652e-01, 7.7130371003595488e-01,
            4.0359501177952867e-01, 6.4711476271668344e-01,
            2.2609931543654060e-01, 4.7753348858062827e-01,
            7.9170195991754316e-02, 2.8224908914991470e-01,
            4.0349800147409726e-01, 2.8749257726102589e-01,
            8.2523843032964583e-01, 5.2828675708983502e-02,
            1.4520247493214372e-01, 7.9296449480017517e-01,
            2.6079921196520688e-02, 2.4449680336482002e-01,
            7.7549189008168440e-01, 4.4086597972936747e-01,
            3.8020015697794696e-01, 1.5050754060343077e-01,
            7.1785781159285711e-01, 9.7863270505857625e-01,
            9.0779155004112733e-01, 8.8294282534505864e-01,
            8.5847100627485717e-01, 8.7929161604344286e-01,
            9.8504976665687405e-01, 4.4610162447710811e-01,
            5.8011749973373739e-01, 1.3777202466762425e-01,
            1.8847358134351561e-01, 8.8842990986369474e-01,
            5.7020521083710007e-01, 3.8627037690570298e-01,
            3.1315669482491863e-02, 7.4035297108403370e-02,
            7.3987973892415904e-01, 1.6795436334748454e-01,
            9.3847345813762095e-01, 2.1606369221063383e-02,
            8.2612076791704925e-01, 5.8171348713108229e-01,
            7.6647495474859562e-01, 9.8505938693130957e-01,
            4.9419490270230182e-02, 4.5326742152234978e-01,
            3.7020773320369287e-02, 8.3499957486335785e-01,
            2.5006180244207171e-01, 4.8653554226739631e-01,
            7.4314085761467008e-01, 3.6998300837250025e-01,
            6.8597036379608534e-01, 8.6912673468101531e-01,
            4.1696182255145908e-01, 1.9890922174039002e-01,
            8.5210994204452295e-01, 4.2744195515789257e-01,
            8.0826123452264731e-01, 6.7456424732201881e-01,
            3.2260093911766957e-01, 2.3377359933166075e-01,
            5.1715906503500553e-03, 5.0436027988090026e-01,
            2.8022918012091613e-01, 8.3140640932987475e-01,
            6.3056787065290321e-01, 3.5357485394821253e-01,
            1.8722753531905872e-02, 7.2105633348311404e-01,
            8.8023933277204358e-01, 4.5432434277278239e-01,
            8.7947244014731318e-01, 1.1021392107646394e-01,
            1.6408334186765927e-01, 9.5757200184166580e-01,
            6.1787328699661248e-01, 2.2482301491111223e-01,
            3.2103691762004527e-01, 3.1172900800564474e-01,
            2.5988418905567351e-01, 1.4640417438204234e-01,
            8.5227452643781643e-01, 5.3989724928254867e-01,
            4.5249981007259160e-01, 9.7038402728069773e-01,
            2.6343766868507412e-01, 1.2301250263241950e-01,
            8.2879961758475695e-01, 3.1012835482417933e-01,
            4.5337932418862231e-01, 7.0629338636522943e-01,
            8.6992830090987405e-01, 6.2233944917138836e-02,
            5.6805116078646523e-01, 8.3525756531115924e-01,
            8.5579277839450152e-01, 4.9545030721435218e-01,
            6.8423036966621831e-01, 3.2929317635289057e-01,
            8.2027435491217571e-01, 9.8039561433813749e-01,
            9.1355122891467666e-01, 4.4619957237558300e-01,
            5.2338798788711305e-01, 6.3610794905723100e-01,
            7.5713696848111334e-01, 4.5049874386431077e-01,
            1.1575088690601296e-01, 9.7776516927740009e-01,
            2.6114873378982156e-01, 8.5522550686949833e-02,
            6.8774980494475768e-01, 6.2794631620261276e-01,
            9.0870904722537982e-01, 3.1653191547888709e-01,
            1.8547170604885942e-02, 5.0113696777552152e-01,
            3.8199513699080451e-02, 6.6168816201868885e-01,
            7.0053695869321553e-01, 7.4181599277254295e-01,
            9.1982103820419506e-02, 9.0968826090174626e-01,
            5.7638475119487464e-01, 1.9035692340762367e-01,
            8.8167129875833372e-01, 9.2950531214307774e-01,
            1.6337592701013393e-01, 5.6043680093597115e-01,
            8.4978999508415543e-01, 5.0518489577579362e-01,
            4.9128712143508613e-01, 2.9685704506286981e-01,
            4.2612120439012519e-01, 9.2295642938205136e-01,
            6.2778551876355637e-01, 5.2910450740423565e-01,
            2.2278236006875640e-01, 6.1042343843223579e-01,
            6.5040801272403004e-01, 6.1917250700499982e-01,
            3.2786320536608726e-01, 2.9906001826214579e-01,
            3.1763095967210186e-01, 8.8855086741536204e-01,
            5.7690382183685474e-01, 7.7707154213825835e-01,
            1.3936003869764732e-01, 3.5621575396983941e-02,
            7.3030621584627542e-01, 3.9174356538497629e-01,
            7.7190182243137018e-01, 5.5693197136924832e-01,
            2.6512287488474798e-02, 4.4030653969928091e-01,
            7.5801808111922842e-01, 5.4326248318831816e-01,
            5.1287565926989087e-01, 2.3246260691360224e-01,
            2.6596452569703399e-01, 8.8973792736705615e-01,
            1.6167414920330445e-01, 9.5540733383256071e-01,
            7.2501786593577022e-01, 9.0614046556221184e-01,
            1.7427291672902107e-01, 5.7240272401823977e-01,
            6.0675488665660360e-01, 7.9801557473192963e-01,
            8.9671199706668547e-01, 5.2127753629550488e-01,
            1.1411658975062609e-01, 8.9832970900481424e-01,
            9.0508082951684299e-01, 9.1799102176985814e-01,
            7.2013971199746174e-02, 5.2522552000899358e-01,
            8.7911407480194004e-01, 2.2036111062562463e-01,
            7.0690496129548930e-01, 5.2486257954464755e-01,
            1.0045807824095012e+00, 3.6769735323352926e-01,
            6.3223475328897483e-01, 9.8790994127506271e-01,
            8.8096792251615819e-01, 9.5220390545333322e-02,
            7.0853818614905095e-01, 2.4365590014243699e-02,
            3.7170537624001659e-01, 8.6953275447846878e-01,
            3.2132286030658014e-02, 5.8383460045525781e-01,
            7.5638663676540563e-01, 7.4046132145130228e-01,
            7.9472521157727771e-01, 7.1109669882638438e-01,
            7.1767600106398755e-01, 8.8702394442804111e-01,
            7.5203444167096456e-01, 8.1504944379712141e-01,
            8.3829011134206788e-01, 2.5479617746103927e-01,
            3.0778366846015964e-01, 2.8388036691402063e-01,
            4.9593792890544691e-01, 7.1556448553717411e-01,
            9.4111621283155075e-02, 4.3876519991161095e-01,
            3.2790112883438444e-02, 6.4588950441168447e-01,
            9.7890234609139565e-02, 4.5787839155756560e-01,
            5.3663948898922331e-01, 4.9328250345073776e-01,
            3.3580615936748287e-01, 2.3812553764263994e-01,
            9.1052470475078340e-01, 6.2234660421880461e-01,
            6.8075257878129236e-01, 5.4568038447445211e-01,
            4.9117845958673595e-01, 6.4573024775164212e-01,
            4.6431225941313087e-01, 9.8389537811916727e-01,
            1.6630061355362313e-01, 4.6306288396568762e-01,
            6.6231695649275169e-01, 5.7742810415265666e-01,
            9.4642481306548898e-02, 7.3208455906572745e-01,
            9.3126876542574760e-02, 1.3205817931045893e-01,
            8.0253745940271437e-01, 3.9937128681852208e-01,
            9.1600851072547673e-01, 9.6232812152971337e-01,
            5.9209216794371622e-01, 2.9245816275100056e-01,
            4.8799422670920517e-01, 1.3015479618070447e-01,
            6.1999072488807272e-01, 4.2217898620773209e-01,
            6.2402492992170933e-01, 1.5580468125605865e-01,
            1.0431312246578504e-01, 7.0377537860184414e-01,
            9.1125045566488072e-01, 3.0438692398512890e-01,
            9.8175923652228703e-01, 8.7096093127284757e-01,
            8.4935239824966091e-01, 3.0290340492485029e-01,
            7.8280360545185623e-01, 3.1372911518961150e-01,
            8.0971434568811937e-02, 7.1957716127950544e-01,
            5.4229013579969432e-01, 8.4229465370749390e-01,
            7.3650852040564574e-01, 1.8523835022692656e-01,
            7.0620816022696187e-01, 4.3062102866933551e-02,
            7.8161984666146023e-01, 4.7854529453677269e-01,
            8.4843464531902529e-02, 2.9720721396323763e-01,
            7.9654560468052615e-01, 9.5733474928519957e-01,
            3.9287111447205608e-01, 4.0797488998099823e-01,
            1.2576383945066855e-01, 1.1734467328786016e-04,
            8.8692672923870175e-01, 1.5316562506559689e-01,
            4.7867982342938414e-03, 3.0292587939493476e-01,
            7.5348330103121197e-01, 6.3852514669299282e-02,
            5.2645318772127847e-01, 6.6442133254442437e-01,
            8.7149462704829195e-01, 2.9019819031634220e-01,
            5.9536642572126497e-01, 6.3406196689098182e-01,
            1.5217840122914850e-01, 3.6420575568252206e-01,
            4.4621270711159350e-01, 9.3393830165251213e-01,
            3.5348246175090231e-01, 4.1461344151048890e-01,
            5.2231411261574212e-01, 3.7327632827724827e-01,
            3.7458405577334752e-01, 2.6649237282965299e-01,
            4.3037929478822623e-01, 1.9395112101025150e-01,
            5.2638445353557251e-01, 8.2166612137654416e-01,
            2.0270828491665679e-01, 3.3305660768720874e-01,
            5.1765733576249229e-01, 6.6569248064249842e-01,
            2.0579790363057518e-01, 8.5049697492337484e-01,
            5.4043801294832750e-01, 9.5765394821379524e-01,
            3.0768931253983256e-01, 2.4033171112536850e-01,
            5.9717161572656463e-01, 2.9712256109337887e-01,
            9.1438830289258988e-01, 2.7421728416048646e-01,
            1.0013664074330748e-01, 6.3143150344459165e-01,
            2.8528883672032584e-01, 8.8862927775290779e-01,
            6.9382379094781899e-02, 1.8664727593811600e-02,
            9.7273756620907037e-01, 6.4087094718299975e-01,
            2.4526928832855011e-01, 8.9528186249350084e-01,
            8.4350629226523233e-01, 1.5942153947750226e-01,
            7.2485780419474977e-01, 6.6960693021708650e-01,
            6.3347986421426150e-01, 9.3593913947022567e-01,
            8.1072031026545055e-01, 3.4135052046460800e-02,
            1.9067161753763437e-01, 1.7586304385042922e-01,
            2.7172120121059945e-01, 1.5252624548006311e-01,
            7.9580613070745751e-02, 4.7914031640689725e-01,
            5.2950978550454764e-01, 4.8543350023211523e-01,
            6.1808090294333495e-01, 3.6352062762088085e-02,
            4.4890124321327046e-01, 4.0165285551027013e-01,
            9.1935520338507537e-01, 2.1080310046453654e-01,
            2.2851088459187505e-01, 4.2488587953426715e-01,
            3.5538913302409575e-01, 5.5852346362240035e-01,
            9.8673547561094710e-01, 6.5286112441506461e-01,
            5.8679401652073493e-01, 5.5511607565544674e-01,
            1.4125015732515303e-01, 5.7306073100559929e-01,
            7.7192154997340487e-02, 5.1595694848820228e-01,
            1.1508206393148916e-01, 5.3736865708949777e-01,
            7.2255889327580347e-01, 5.4904741254279399e-01,
            6.9816792234749625e-01, 4.2401024025279477e-01,
            2.9957698519332771e-01, 8.8027569082936546e-02,
            7.4581916361156064e-01, 3.1316882140590102e-01,
            7.4267306662486343e-01, 8.5534116452241038e-01,
            2.4967117468320493e-01, 8.3258373940240760e-01,
            8.9367504333601910e-01, 5.8502687115305546e-03,
            1.6383416439553070e-01, 4.9625376388937964e-01,
            9.3674456020765989e-02, 4.4052432058722613e-01,
            7.8330240018640140e-01, 2.2266154188413528e-01,
            7.5829825965571340e-01, 4.9633803557720318e-01,
            9.2132849495258073e-01, 3.8388480281819445e-02,
            3.5524036898482980e-01, 5.4118005963630755e-01,
            6.8255841286332120e-01, 8.1282012880194332e-01,
            1.8071201063081319e-01, 2.4384253775722742e-01,
            9.7171351631108493e-01, 7.5097325879124477e-01,
            9.5431984405150005e-01, 8.5633974424166526e-01,
            9.8567025450906542e-01, 5.7402943673165041e-01,
            8.1237010957689271e-01, 7.4733697201435800e-01,
            7.2327405800966538e-01, 9.6045283043933516e-01,
            1.8766196824122072e-01, 9.5491952288272164e-01,
            8.2891654810158355e-01, 8.8529221940071523e-01,
            5.2109984424511890e-01, 1.0885559848088838e-01,
            2.9415561566238574e-01, 8.8568779981798740e-01,
            3.2109077209071579e-01, 3.3757472144530543e-01,
            5.8209520310322305e-01, 3.6773724601995100e-01,
            7.8022446377166488e-01, 7.5462693067881365e-02,
            9.8354296319990853e-01, 5.3749348617823345e-01,
            9.0371388487578930e-01, 4.0503610469200216e-02,
            5.4044179973530615e-01, 9.9433854625149243e-01,
            4.0758767825801923e-01, 3.2520741184884561e-01,
            8.1205601727368271e-01, 7.8190790858025683e-01,
            3.4901730195459657e-01, 8.2868869106883780e-01,
            5.0093752088098076e-01, 7.7109948356277706e-03,
            2.5631052873711807e-01, 1.1095642100237954e-01,
            8.5747276039857756e-01, 5.4250609802725402e-01,
            1.8500819892442544e-01, 8.3448643371664200e-01,
            4.3990105462385903e-01, 8.2253789424886992e-01,
            9.1450444807153664e-01, 4.1630010666694119e-02,
            1.4771217680025348e-01, 3.4551562658500895e-01,
            8.5923997789861295e-01, 1.7068047104160289e-01,
            5.8930101474516494e-01, 8.9329830252617382e-01,
            2.3125975775972182e-01, 1.0259957314660574e-01,
            4.9969272451422359e-01, 2.0187954874640404e-01,
            8.8317695085749570e-01, 5.6178391728062838e-01,
            9.9164974631880864e-01, 3.6568542768474416e-01,
            1.8762255248208839e-01, 1.7361122596621059e-01,
            5.7748172861960911e-01, 5.5290334371690855e-02,
            7.7715422555991620e-01, 8.6948124063731383e-02,
            2.4817829243994283e-01, 8.1892103309941677e-01,
            9.5853037755221426e-01, 5.8766373279880280e-01,
            9.3918451577088036e-01, 4.0697877573320018e-01,
            7.5116237746891426e-02, 3.7658971226417559e-01,
            9.8186378574941155e-02, 4.1061742800389284e-01,
            5.9493509817106172e-01, 3.5887474316572271e-01,
            1.8909790078707403e-01, 7.1911110374996001e-01,
            5.2820362329497117e-01, 4.3261941382361568e-01,
            2.8447308582337089e-01, 2.0626303461452247e-01,
            3.8812688734344500e-03, 3.3279695665023423e-01,
            5.3122901549827484e-01, 6.1787861664212303e-02,
            2.6466476062229916e-01, 4.0651881408239199e-01,
            8.8232950971561908e-01, 1.9754271190786671e-01,
            9.5428161727804317e-01, 7.2944519924521689e-01,
            6.9306172699518598e-01, 8.6052282951891546e-01,
            4.5066924465455821e-01, 8.1543508277733268e-01,
            9.3988717518069931e-01, 5.4997093394464802e-01,
            3.2205124078102901e-02, 1.5612513015898802e-01,
            5.4038373022870123e-01, 2.8320517491568098e-01,
            3.1127062688573398e-01, 1.1150209346555010e-01,
            5.7520999025998587e-01, 5.0763396314628784e-01,
            9.0237188400784263e-01, 6.4613912014449970e-01,
            5.4142191152743480e-01, 5.7400457209246281e-01,
            8.6722484128960486e-01, 3.0580275032758142e-01,
            3.3826860731182429e-01, 1.1985930727398639e-01,
            7.9065488229450875e-01, 7.9915161654657729e-01,
            4.4562336210165127e-01, 3.4475278038333984e-01,
            2.9722928831901441e-01, 3.8794396914569657e-01,
            6.2820313864825617e-01, 3.0434719007708583e-01,
            6.6384102619043361e-01, 2.5463339164120902e-01,
            5.8465464384406951e-01, 8.1397354833516555e-01,
            5.0113915342480386e-01, 5.3712232665055204e-01,
            8.4297468985231927e-01, 3.9045325586704462e-02,
            8.5623011083198064e-01, 4.5927531030232410e-01,
            8.2986074497952389e-01, 7.2412114509516012e-01,
            2.9234028360766545e-01, 9.6233955241721836e-01,
            8.1767703538150105e-01, 6.8355180858003972e-01,
            2.3048160526009796e-02, 9.1516176873910826e-01,
            8.7039320694524602e-01, 9.4872121666511811e-01,
            7.4794653706651526e-01, 3.3641953040211686e-01,
            9.1156238056935912e-01, 7.7748267853736208e-01,
            3.4901076335425779e-01, 5.8429821136436266e-01,
            7.3603908932486406e-01, 1.0906813471385330e-02,
            9.4108740649022560e-01, 3.1523489159598544e-01,
            3.8541829697566110e-01, 7.9138476118878587e-01,
            6.1094399035967906e-01, 3.4090845266067987e-01,
            9.4191392902644422e-01, 1.8932988434762965e-01,
            4.5969300616263764e-01, 1.5420486427159769e-01,
            7.4890836669001581e-01, 4.1833118564481164e-01,
            2.4147131430715457e-01, 3.7758855890484216e-01,
            2.9725780736660989e-01, 5.1181770156398709e-01,
            4.9388092854443172e-01, 8.8952280299772271e-03,
            9.5393081032035323e-03, 6.8907959494768889e-01,
            5.4704145751480937e-01, 4.8710284012030153e-01,
            2.7521703220836824e-01, 1.3908919491480817e-01,
            7.8878333315568339e-01, 7.2250582566060606e-01,
            4.3530422224338966e-01, 3.6065804940323060e-01,
            5.7460054246308456e-01, 6.1377192798254265e-01,
            6.4855822097319138e-01, 3.9829174539379092e-01,
            5.8991401132035870e-01, 1.8244964360822732e-01,
            5.0883292482123776e-01, 7.2669261284263464e-01,
            7.3984326674402023e-01, 9.6931635381863224e-01,
            7.1775780805358957e-02, 3.9576036808104476e-01,
            7.3183044064854541e-01, 1.2311798353833209e-03,
            9.8603203184809163e-01, 2.9614849646666641e-01,
            4.0784259412468193e-01, 3.3831424204087907e-01,
            4.2090923181098339e-01, 9.3724658788383530e-01,
            2.1908585720742152e-01, 4.8578901464674196e-01,
            7.4908653654096302e-01, 6.1007029344913977e-01,
            2.0360418224246299e-01, 8.2244103586254924e-01,
            1.7869124075262424e-01, 9.8309163047079107e-01,
            5.8448318432535362e-01, 5.0808804484005954e-01,
            2.6344581432253333e-01, 6.1546363967258022e-01,
            3.2311196715492246e-01, 8.3171403162037449e-01,
            9.5549693223146026e-01, 5.8298795921962476e-01,
            9.1189786291820452e-01, 8.7295730765913826e-01,
            7.1851913338137133e-02, 3.3913402793696723e-01,
            6.2034722642400356e-02, 8.0489378957888835e-01,
            6.5823268302330495e-01, 3.8291802502782946e-01,
            7.7717969506967222e-01, 2.3481600830232180e-01,
            6.2966566857288619e-01, 6.0906795226248389e-01,
            4.5333664263436296e-01, 4.3473342318637864e-02,
            9.3197606239446817e-01, 8.3401927396981368e-01,
            3.6511268756701493e-01, 7.2422207189005650e-01,
            1.4058883440240430e-01, 3.5962714409796820e-01,
            6.8909772461829066e-01, 7.5838509386137654e-01,
            6.4771660845443824e-01, 2.4565790253948230e-01,
            8.5006664073683857e-01, 4.6630762746891607e-01,
            2.6968300180662258e-01, 5.3072190023253940e-01,
            1.7423726736035319e-01, 1.5939526813972532e-01,
            3.6980973599737715e-01, 4.6818640553247431e-01,
            1.1888932127537653e-01, 5.9187667364934493e-01,
            5.6553674599337067e-01, 3.7039044692902034e-01,
            6.1286568084980086e-01, 1.7838896661226369e-01,
            2.8911986189524436e-01, 4.2416802489074273e-01,
            6.0965332988506739e-02, 7.2251183513842721e-01,
            6.0536918477821733e-01, 9.7347875750298118e-01,
            7.1199893833617689e-02, 5.3863816314261286e-02,
            1.6100443672958073e-01, 8.4775859972105894e-01,
            4.7483720285008779e-01, 6.1761403316244112e-01,
            1.2886816666738798e-01, 7.3821987297781333e-01,
            6.5499377346020371e-01, 9.6161452340727083e-01,
            4.3162782020992989e-02, 3.1763942857999777e-01,
            9.8997626328365673e-01, 9.4600026070471813e-02,
            2.2738403302635574e-01, 7.4054807946201714e-02,
            5.9323216653952948e-01, 1.1591181882103808e-01,
            9.4106285673928136e-01, 5.4537214899975295e-01,
            6.4252077693610166e-01, 6.8767899380160957e-01,
            2.9791012897188429e-01, 1.4642900998641917e-01,
            7.8510523826903333e-01, 2.4593211015704117e-01,
            3.7102498687079888e-01, 3.7685856848923899e-01,
            7.2396006114094502e-01, 1.1244028871307359e-02,
            4.4078049326644297e-01, 9.1878191901655548e-01,
            4.5897007186854866e-01, 7.3977323398113559e-01,
            8.3839634885733183e-01, 1.9295653897301199e-01,
            4.1537762335127115e-01, 8.1530815281043911e-01,
            2.6555834451331434e-01, 1.0817437420500101e-01,
            4.1242913146705240e-01, 7.9118558798413563e-01,
            4.4255737660702665e-01, 3.7155053226679163e-01,
            3.4578641348587835e-01, 8.3049013662625948e-01,
            5.5257319914465619e-01, 5.1099209583427252e-01,
            9.6743771521976785e-01, 1.1723618539364415e-01,
            8.0969185116317940e-02, 9.0484721380060429e-01,
            5.6814122300159486e-01, 7.7742709924332531e-01,
            1.2358107172280949e-01, 2.7956585780748455e-01,
            2.9933578810576855e-01, 2.6498447268267894e-01,
            8.0493837427960313e-01, 2.0210041097949427e-01,
            7.5722090298820965e-01, 4.1721381242800321e-01,
            3.4811641783880948e-01, 1.4946149105589529e-01,
            8.8013506521235374e-01, 7.4258884201086373e-01,
            9.4028577034387217e-01, 8.9388154379207807e-01,
            4.3223722779772877e-02, 1.8589050602332730e-01,
            7.0779466363407761e-01, 1.6718671402801652e-01,
            3.7229804845444320e-01, 4.2447957101697814e-01,
            4.4430721371315407e-01, 1.0594186621387312e-02,
            7.6871941522639409e-01, 3.1625775421426960e-01,
            2.3041140640525548e-01, 2.5829504514673635e-01,
            9.0459837202980553e-01, 4.6641345298086273e-01,
            1.7052261409330410e-01, 6.9117304481472230e-01,
            9.5286586370902848e-01, 2.3233829144967827e-01,
            6.4718684438021290e-01, 1.2788842872724143e-01,
            5.7418277582036104e-01, 9.7022781136266123e-01,
            1.1916220520303236e-01, 9.3939899114162251e-01,
            5.2148653943754553e-01, 7.3101087966572087e-01,
            7.5227545306385299e-02, 6.2970691468897722e-01,
            5.3046205426382775e-01, 3.7988465566361668e-01,
            8.4943170125073186e-01, 9.6452728600824400e-01,
            7.7661910708438819e-01, 5.6423677766099845e-01,
            2.1968816734917615e-01, 1.1582570347055991e-01,
            9.0770359024335523e-01, 6.7955097142185228e-01,
            4.5963796999452067e-01, 6.6265959258676277e-01,
            2.1634202738020913e-01, 1.2459209895211013e-01,
            7.6504256132223104e-03, 8.6366439507718873e-01,
            7.9413104141745372e-01, 2.7902996698554701e-03,
            1.3808618940489412e-01, 2.7816463540866182e-01,
            2.8497245290193784e-01, 1.0000379129654978e-01,
            4.1589125972810281e-01, 3.6775316021832166e-01,
            1.0482836074560888e-01, 9.0210054284026020e-01,
            5.5742905517197494e-01, 8.9156881558850057e-02,
            8.3623455228502208e-01, 9.2272396042759142e-01,
            5.2481755006591990e-01, 8.1761720953373573e-01,
            7.9054506742311503e-01, 4.1489486595714870e-01,
            7.1130626360660620e-01, 3.1542536888528189e-01,
            2.9539790110733749e-01, 4.9944419543228707e-01,
            2.9193180156716725e-01, 2.9186540555802637e-01,
            4.7924504249147420e-01, 4.3624653850351436e-01,
            9.2561850067368900e-01, 8.9006427826433102e-02,
            8.2201144141705984e-01, 2.0059522482346603e-01,
            4.6719900084688332e-01, 8.5102808569785277e-02,
            2.8586125396705736e-01, 3.2066255998019977e-01,
            5.1995043451399503e-01, 7.0432114634695409e-01,
            4.5561284028520596e-02, 4.4594260388744000e-01,
            3.0177225695498922e-01, 6.0175312034446449e-01,
            6.3022098393877790e-01, 9.6160270139643722e-01,
            6.8458776982122793e-01, 5.1664335543437945e-01,
            9.8407547649902483e-01, 4.3548077432540355e-01,
            8.5485877362312257e-01, 1.1463299247158620e-01,
            9.9410316139688837e-01, 8.7712632212892461e-01,
            3.3635928612402395e-02, 9.2471074579845092e-01,
            2.6255100673696907e-01, 1.6748500922340873e-01,
            1.5817504902599863e-01, 6.8533232482063255e-01,
            4.9987054165263245e-01, 2.0667960005663061e-01,
            1.1928139737601749e-01, 1.9173213701368064e-01,
            9.1951004286458737e-01, 9.8807170266039046e-01,
            2.2060445920265362e-01, 6.9484241538961666e-01,
            5.2390319918996919e-01, 9.5623914793522335e-01,
            7.0512986711430581e-01, 3.0672167967085184e-01,
            7.3191832776166810e-02, 5.2341308586275692e-01,
            1.4655241751456306e-02, 7.2642643910516425e-01,
            3.1577360273492316e-01, 4.0420850088058090e-02,
            4.1098664357153336e-01, 8.3494759287713649e-01,
            8.1196610653820522e-01, 1.4745423258980225e-01,
            3.0587033664885088e-01, 6.6187347729985213e-01,
            2.9474766896413029e-01, 3.6022670107568605e-01,
            1.4855739342495225e-01, 4.1664097472384987e-01,
            3.7151807551683363e-01, 3.5652063094180164e-01,
            2.6866616546683797e-01, 7.2806962518456575e-01,
            2.6483366232988093e-01, 8.6974893723612900e-01,
            5.5386502133098681e-01, 4.3485602694974212e-01,
            8.2906391142464864e-01, 4.5529398190893705e-01,
            8.4387273650966288e-01, 4.3981716088768708e-01,
            6.4666956878624815e-01, 2.3594458650565275e-01,
            3.4167030982991470e-01, 3.9981032746386874e-01,
            7.6884624483515784e-01, 5.6399563984443002e-01,
            4.3423313138897179e-01, 9.6758987226715865e-01,
            1.2275918577807849e-02, 4.6186466214708294e-01,
            1.2083113173007561e-01, 8.4901572999436392e-01,
            4.7681172971371144e-01, 1.6311888904804875e-01,
            8.7493826726018942e-01, 7.7658277573597756e-01,
            4.8277182594280860e-01, 3.5713807343020554e-01,
            6.1186384691014584e-01, 4.7428405233421872e-01,
            5.6476482082528967e-01, 3.8106379364484100e-01,
            7.3110594822736652e-01, 3.1939840905093103e-01,
            2.9756705759116198e-01, 9.0502545275158608e-01,
            2.9572004201940966e-01, 7.2663263137772172e-01,
            7.3507448043797752e-01, 5.1505013111234688e-01,
            2.5024525970460504e-01, 8.7564702892230295e-01,
            2.9983049665404143e-01, 3.0121931041633421e-01,
            9.6290887643117073e-01, 4.0289181096086046e-01,
            8.8302753679025892e-01, 4.8987715702451429e-01,
            2.4792316418356452e-02, 2.3039702219253955e-01,
            2.4517778544533347e-01, 1.5439155334908791e-01,
            9.3801373710407832e-01, 3.5980678903590213e-01,
            3.5211798083925705e-01, 5.7938431432738458e-01,
            3.7428291635962163e-01, 4.7439780169416768e-01,
            8.7818088866824195e-01, 2.5302935965602008e-01,
            3.9637122450347190e-01, 2.5675204632891452e-01,
            3.6936882472360000e-01, 7.9125609424725241e-02,
            2.3215317782143453e-02, 1.6785369180484058e-01,
            8.4680545846110922e-01, 5.7107509388065103e-01,
            7.6414202469839554e-01, 3.6299939840879247e-01,
            9.8963841653690388e-01, 5.4310214046991345e-01,
            8.3209274526355237e-01, 2.8779672104558207e-01,
            4.3978533435511230e-01, 5.4082019063463993e-01,
            5.4942415453039928e-01, 5.1071361753983757e-01,
            6.7910712147375796e-01, 3.7113543492591333e-01,
            3.0732152428499077e-01, 5.2021241280491082e-01,
            3.7406756338883318e-01, 4.6660495462909887e-02,
            2.2559086548656981e-01, 8.9444584967698648e-01,
            6.7011925469938238e-01, 8.7410261903916364e-01,
            8.1898670390686357e-01, 1.3821156757425535e-01,
            1.3194216482458612e-01, 5.1074184999410432e-01,
            3.2614849445098196e-02, 1.6109088467132673e-01,
            9.6101891145378371e-01, 9.4441495400398590e-01,
            6.0908072828257331e-01, 6.3944440768777111e-01,
            2.0908324474237316e-01, 3.6591641427154503e-01,
            3.0378452601936895e-01, 2.7989133237436070e-01,
            4.2127515597304133e-01, 7.9438449165177272e-01,
            3.6404046481936048e-01, 8.3323252868678599e-01,
            2.0423130245474724e-01, 7.7971868310727144e-01,
            3.9932522039688606e-01, 8.8526067332386071e-01,
            4.3022421664735361e-01, 2.6328572618574830e-01,
            6.7953266526130929e-01, 8.7498775988443778e-01,
            3.6033058595415579e-01, 2.3445210900899799e-01,
            7.6193360324778214e-01, 3.7777441159388248e-01,
            7.4021144542826567e-01, 5.1709846273422166e-01,
            2.4543079355909705e-01, 8.6307766530600982e-01,
            5.0730117300850819e-01, 4.5652556357041052e-01,
            9.9792012388797979e-01, 4.8942564028598262e-01,
            9.0866548914725109e-01, 9.8096226092082417e-01,
            2.8719741641192159e-01, 5.8176607672122149e-01,
            8.1736427693238511e-01, 6.8262886184483129e-01,
            4.8326896283107046e-01, 2.6722412149496610e-01,
            7.0209263802225808e-01, 8.2612230382818941e-01,
            5.1947498482053056e-01, 5.5852699148928620e-01,
            6.2723881684552818e-01, 3.7716239529241258e-01,
            8.6467051408595774e-01, 2.5685726787941893e-01,
            9.2041390791732058e-01, 1.4721420264201748e-01,
            7.5771077045106772e-01, 8.2019232364969474e-01,
            3.5681782872476348e-01, 9.7126455953359625e-01,
            4.8785192417665768e-01, 6.3181790080228195e-01,
            8.2387411788476839e-01, 6.3374601939099384e-01,
            2.6848430114880645e-01, 1.0978346755867774e-01,
            2.1370290719125085e-01, 2.4345168397177575e-01,
            6.1719091752534905e-01, 6.1838476191152136e-01,
            3.2398009903140157e-01, 3.2751839943895167e-01,
            7.9186386062691771e-01, 6.4892202215130113e-01,
            2.0087420477800869e-01, 1.4915836261994581e-01,
            8.6096050587063577e-01, 2.1797808287978096e-01,
            4.3815987862372824e-01, 1.1175773022268383e-01,
            6.9912592862074174e-01, 3.7368224060376659e-01,
            9.6057865452944347e-01, 3.5328423723080965e-01,
            2.3918704338543963e-02, 1.7145921512239054e-01,
            4.2122877912953004e-03, 8.0259725230847068e-01,
            9.4905435459872300e-01, 9.9683530136536413e-01,
            6.9179219314858487e-01, 1.5765420067026908e-01,
            7.7591585094004115e-02, 3.6121769694797767e-01,
            1.4723643462761379e-01, 8.0619616390488746e-01,
            6.5387279596920866e-01, 5.0664532168517018e-01,
            4.9843612522966679e-01, 6.9853440392022037e-01,
            8.5961139277839771e-03, 1.2331793259205165e-01,
            1.0742540844819071e-02, 5.2286686550250183e-01,
            2.5101779732428109e-02, 5.3382857947358864e-01,
            9.9242771231401816e-01, 5.7590576062852417e-01,
            4.8467623844907826e-02, 1.9244510753270228e-01,
            2.5983131108295510e-01, 4.7374599560604275e-01,
            6.2232533080621807e-02, 1.9490837126083507e-01,
            3.0747169238081895e-01, 6.0302754791414004e-01,
            7.9865323192593152e-01, 6.2869820239227747e-01,
            3.0971832012177586e-01, 4.5530238092635639e-01,
            2.5559179481827843e-01, 5.3838709746424740e-01,
            1.4938385405303359e-01, 1.7457289598916106e-01,
            3.8864949899631174e-01, 4.3796135350193888e-01,
            7.9276243034302663e-01, 9.0797582809514932e-01,
            5.0338075168057761e-01, 4.9661329264298365e-01,
            9.2145294170579506e-01, 2.7397731622378252e-01,
            5.1651659880386924e-01, 6.2795883268822739e-01,
            4.3217293227221718e-02, 5.2154877291320449e-02,
            9.6484862179515185e-01, 9.6565384222160200e-01,
            3.5315787788000527e-02, 5.0338182090294636e-01,
            8.6277866875107312e-01, 2.7377712509219301e-02,
            2.1682356751709292e-01, 8.9840770401949399e-01,
            4.5782808793478574e-01, 2.9596223322235599e-01,
            7.7930183950033671e-01, 4.7091547561225044e-01,
            2.8743049854254576e-01, 5.7387310296371950e-03,
            7.8159154340200779e-02, 9.3435195908376079e-01,
            4.8277768774537327e-01, 1.1443016360737672e-01,
            1.9586656130317509e-01, 8.8484286654521727e-01,
            8.3638075939408874e-01, 2.9821083091897532e-01,
            8.5142244522436650e-01, 1.6022047025879196e-01,
            5.5982627998464718e-01, 5.4395060802287639e-03,
            7.9291140180725461e-01, 1.7739074590984474e-01,
            9.1220598218940641e-01, 1.1683479656282718e-01,
            9.0050952696770617e-02, 8.3725642137539424e-01,
            8.5837574170664110e-01, 2.5720710274344938e-01,
            8.5981065102176313e-01, 3.8805340264300416e-02,
            2.5191051217967314e-01, 8.1993487250841612e-01,
            2.1728831320333161e-01, 2.5989695986119804e-01,
            2.5502514682509808e-01, 3.5980115414488673e-01,
            2.4378431956782515e-01, 5.7903189200971517e-01,
            2.4129966105018030e-01, 9.3316828652890793e-01,
            6.0091242654458599e-01, 5.9064618387287560e-01,
            7.1017403600043572e-01, 5.5982089383321082e-02,
            3.3646771883200577e-01, 1.4851080284138379e-01,
            9.9035107637729225e-01, 2.8686655962094443e-01,
            9.9137913070403250e-01, 5.9237229123553958e-01,
            1.3635222643010667e-01, 2.9925637072309658e-01,
            8.0434120431286793e-01, 3.2039784748764560e-01,
            1.0397045956332988e-01, 1.6092847573558478e-01,
            2.2004303886017795e-01, 8.0680211710062177e-01,
            2.2548042471143087e-01, 2.5643649323051382e-01,
            3.8986440854458176e-01, 6.1743063293745271e-01,
            8.0409392455218331e-01, 4.3818451394111790e-01,
            2.6698319284475563e-01, 5.7634068919474624e-01,
            4.6304658301187923e-01, 5.6803363137809940e-02,
            8.2315691228748633e-01, 4.7160015473311412e-01,
            9.2797288288029012e-01, 9.0223256666060025e-01,
            8.8757714525597817e-02, 4.6230367770128450e-01,
            4.0688742668719863e-01, 3.0940504204791819e-01,
            8.9316799823083426e-01, 3.4162570791503438e-01,
            3.0505676828980194e-01, 7.7384422348139012e-02,
            8.1678878026387747e-01, 2.1228258096433486e-01,
            8.5276618866657272e-01, 6.5051408181376735e-01,
            5.4779654447197301e-01, 1.1790782431362040e-01,
            1.1323691005773549e-01, 6.3295879880783834e-01,
            1.8279519213235410e-01, 2.2532401909910021e-01,
            6.2050076072151095e-01, 9.9063238102136597e-01,
            2.8958065666851807e-01, 5.0040862078648074e-01,
            4.2021019358996281e-01, 6.4235911739671858e-01,
            5.0212150268759737e-01, 7.9395721667327679e-01,
            8.4209485055347333e-01, 9.9441108395574807e-01,
            9.5010458581920665e-01, 5.3163079028662519e-01,
            6.7838488791682938e-01, 8.7465892865702033e-01,
            7.1846607628611814e-01, 4.1244124720434255e-01,
            4.4141348415405102e-01, 8.3692509603986032e-01,
            2.8185335355126157e-01, 2.8488011938810570e-01,
            8.8435359605888297e-01, 9.4198988341477785e-01,
            2.0766863219538317e-01, 4.3199297132413272e-01,
            9.3906654420435898e-01, 8.3946706168448945e-02,
            8.4812728027972828e-01, 5.6262460419866922e-01,
            6.2693564699510496e-01, 5.7518232596591845e-01,
            9.8309734587793240e-01, 2.7614937862770278e-01,
            8.8574111577330161e-01, 2.8696134980898513e-01,
            4.1963268486673694e-01, 7.9843391203890035e-01,
            5.8669720314230878e-01, 1.9854881172784405e-01,
